v АК,v ЦН,weight
-0.5,-0.32000000000000006,0.18421134538284353
-0.4824120603015075,-0.32000000000000006,0.18433270049815098
-0.4648241206030151,-0.32000000000000006,0.18445405561345843
-0.4472361809045226,-0.32000000000000006,0.18457541072876588
-0.4296482412060302,-0.32000000000000006,0.18469676584407332
-0.4120603015075377,-0.32000000000000006,0.18481812095938077
-0.3944723618090452,-0.32000000000000006,0.18493947607468822
-0.37688442211055273,-0.32000000000000006,0.18506083118999567
-0.3592964824120603,-0.32000000000000006,0.18518218630530311
-0.3417085427135679,-0.32000000000000006,0.18530354142061056
-0.3241206030150754,-0.32000000000000006,0.185424896535918
-0.3065326633165829,-0.32000000000000006,0.18554625165122546
-0.2889447236180904,-0.32000000000000006,0.1856676067665329
-0.271356783919598,-0.32000000000000006,0.18578896188184035
-0.2537688442211055,-0.32000000000000006,0.1859103169971478
-0.2361809045226131,-0.32000000000000006,0.18603167211245525
-0.2185929648241206,-0.32000000000000006,0.18615302722776267
-0.20100502512562812,-0.32000000000000006,0.18627438234307014
-0.1834170854271357,-0.32000000000000006,0.18639573745837756
-0.1658291457286432,-0.32000000000000006,0.186517092573685
-0.14824120603015079,-0.32000000000000006,0.18663844768899246
-0.1306532663316583,-0.32000000000000006,0.1867598028042999
-0.11306532663316582,-0.32000000000000006,0.18688115791960735
-0.09547738693467339,-0.32000000000000006,0.1870025130349148
-0.07788944723618091,-0.32000000000000006,0.18712386815022225
-0.060301507537688426,-0.32000000000000006,0.1872452232655297
-0.042713567839196,-0.32000000000000006,0.18736657838083715
-0.025125628140703515,-0.32000000000000006,0.1874879334961446
-0.007537688442211032,-0.32000000000000006,0.18760928861145204
0.01005025125628145,-0.32000000000000006,0.1877306437267595
0.027638190954773822,-0.32000000000000006,0.18785199884206694
0.045226130653266305,-0.32000000000000006,0.18797335395737438
0.06281407035175879,-0.32000000000000006,0.18809470907268183
0.08040201005025127,-0.32000000000000006,0.18821606418798928
0.09798994974874375,-0.32000000000000006,0.18833741930329673
0.11557788944723613,-0.32000000000000006,0.18845877441860417
0.1331658291457286,-0.32000000000000006,0.18858012953391162
0.1507537688442211,-0.32000000000000006,0.18870148464921907
0.16834170854271358,-0.32000000000000006,0.18882283976452652
0.18592964824120606,-0.32000000000000006,0.18894419487983397
0.20351758793969843,-0.32000000000000006,0.1890655499951414
0.2211055276381909,-0.32000000000000006,0.18918690511044886
0.2386934673366834,-0.32000000000000006,0.1893082602257563
0.2562814070351759,-0.32000000000000006,0.18942961534106376
0.27386934673366836,-0.32000000000000006,0.1895509704563712
0.29145728643216084,-0.32000000000000006,0.18967232557167865
0.3090452261306532,-0.32000000000000006,0.1897936806869861
0.3266331658291457,-0.32000000000000006,0.18991503580229355
0.3442211055276382,-0.32000000000000006,0.190036390917601
0.36180904522613067,-0.32000000000000006,0.19015774603290844
0.37939698492462315,-0.32000000000000006,0.1902791011482159
0.3969849246231155,-0.32000000000000006,0.19040045626352334
0.414572864321608,-0.32000000000000006,0.19052181137883079
0.4321608040201005,-0.32000000000000006,0.19064316649413823
0.44974874371859297,-0.32000000000000006,0.19076452160944568
0.46733668341708545,-0.32000000000000006,0.19088587672475313
0.48492462311557794,-0.32000000000000006,0.19100723184006058
0.5025125628140703,-0.32000000000000006,0.19112858695536802
0.5201005025125629,-0.32000000000000006,0.19124994207067547
0.5376884422110553,-0.32000000000000006,0.19137129718598292
0.5552763819095476,-0.32000000000000006,0.19149265230129037
0.5728643216080402,-0.32000000000000006,0.19161400741659781
0.5904522613065326,-0.32000000000000006,0.19173536253190526
0.6080402010050252,-0.32000000000000006,0.1918567176472127
0.6256281407035176,-0.32000000000000006,0.19197807276252016
0.64321608040201,-0.32000000000000006,0.1920994278778276
0.6608040201005025,-0.32000000000000006,0.19222078299313505
0.6783919597989949,-0.32000000000000006,0.1923421381084425
0.6959798994974875,-0.32000000000000006,0.19246349322374995
0.7135678391959799,-0.32000000000000006,0.1925848483390574
0.7311557788944723,-0.32000000000000006,0.19270620345436484
0.7487437185929648,-0.32000000000000006,0.1928275585696723
0.7663316582914572,-0.32000000000000006,0.19294891368497974
0.7839195979899498,-0.32000000000000006,0.1930702688002872
0.8015075376884422,-0.32000000000000006,0.19319162391559463
0.8190954773869346,-0.32000000000000006,0.19331297903090208
0.8366834170854272,-0.32000000000000006,0.19343433414620953
0.8542713567839195,-0.32000000000000006,0.19355568926151698
0.8718592964824121,-0.32000000000000006,0.19367704437682443
0.8894472361809045,-0.32000000000000006,0.19379839949213187
0.9070351758793969,-0.32000000000000006,0.19391975460743932
0.9246231155778895,-0.32000000000000006,0.19404110972274677
0.9422110552763818,-0.32000000000000006,0.19416246483805422
0.9597989949748744,-0.32000000000000006,0.19428381995336166
0.9773869346733668,-0.32000000000000006,0.1944051750686691
0.9949748743718594,-0.32000000000000006,0.19452653018397656
1.0125628140703518,-0.32000000000000006,0.194647885299284
1.0301507537688441,-0.32000000000000006,0.19476924041459145
1.0477386934673367,-0.32000000000000006,0.1948905955298989
1.065326633165829,-0.32000000000000006,0.19501195064520632
1.0829145728643217,-0.32000000000000006,0.1951333057605138
1.100502512562814,-0.32000000000000006,0.19525466087582122
1.1180904522613064,-0.32000000000000006,0.19537601599112867
1.135678391959799,-0.32000000000000006,0.1954973711064361
1.1532663316582914,-0.32000000000000006,0.19561872622174356
1.170854271356784,-0.32000000000000006,0.195740081337051
1.1884422110552764,-0.32000000000000006,0.19586143645235846
1.2060301507537687,-0.32000000000000006,0.1959827915676659
1.2236180904522613,-0.32000000000000006,0.19610414668297335
1.2412060301507537,-0.32000000000000006,0.1962255017982808
1.2587939698492463,-0.32000000000000006,0.19634685691358825
1.2763819095477387,-0.32000000000000006,0.1964682120288957
1.293969849246231,-0.32000000000000006,0.19658956714420314
1.3115577889447236,-0.32000000000000006,0.1967109222595106
1.329145728643216,-0.32000000000000006,0.19683227737481804
1.3467336683417086,-0.32000000000000006,0.19695363249012549
1.364321608040201,-0.32000000000000006,0.19707498760543293
1.3819095477386933,-0.32000000000000006,0.19719634272074038
1.399497487437186,-0.32000000000000006,0.19731769783604783
1.4170854271356783,-0.32000000000000006,0.19743905295135528
1.434673366834171,-0.32000000000000006,0.19756040806666272
1.4522613065326633,-0.32000000000000006,0.19768176318197017
1.4698492462311559,-0.32000000000000006,0.19780311829727762
1.4874371859296482,-0.32000000000000006,0.19792447341258507
1.5050251256281406,-0.32000000000000006,0.19804582852789251
1.5226130653266332,-0.32000000000000006,0.19816718364319996
1.5402010050251258,-0.32000000000000006,0.1982885387585074
1.557788944723618,-0.32000000000000006,0.19840989387381486
1.5753768844221105,-0.32000000000000006,0.1985312489891223
1.5929648241206031,-0.32000000000000006,0.19865260410442975
1.6105527638190953,-0.32000000000000006,0.1987739592197372
1.6281407035175879,-0.32000000000000006,0.19889531433504465
1.6457286432160805,-0.32000000000000006,0.1990166694503521
1.6633165829145726,-0.32000000000000006,0.19913802456565954
1.6809045226130652,-0.32000000000000006,0.199259379680967
1.6984924623115578,-0.32000000000000006,0.19938073479627444
1.7160804020100504,-0.32000000000000006,0.1995020899115819
1.7336683417085426,-0.32000000000000006,0.19962344502688933
1.7512562814070352,-0.32000000000000006,0.19974480014219678
1.7688442211055277,-0.32000000000000006,0.19986615525750423
1.78643216080402,-0.32000000000000006,0.19998751037281168
1.8040201005025125,-0.32000000000000006,0.20010886548811913
1.821608040201005,-0.32000000000000006,0.20023022060342657
1.8391959798994977,-0.32000000000000006,0.20035157571873402
1.8567839195979898,-0.32000000000000006,0.20047293083404147
1.8743718592964824,-0.32000000000000006,0.20059428594934892
1.891959798994975,-0.32000000000000006,0.20071564106465636
1.9095477386934672,-0.32000000000000006,0.2008369961799638
1.9271356783919598,-0.32000000000000006,0.20095835129527126
1.9447236180904524,-0.32000000000000006,0.2010797064105787
1.9623115577889445,-0.32000000000000006,0.20120106152588615
1.979899497487437,-0.32000000000000006,0.2013224166411936
1.9974874371859297,-0.32000000000000006,0.20144377175650105
2.0150753768844223,-0.32000000000000006,0.2015651268718085
2.0326633165829144,-0.32000000000000006,0.20168648198711595
2.050251256281407,-0.32000000000000006,0.2018078371024234
2.0678391959798996,-0.32000000000000006,0.20192919221773084
2.0854271356783918,-0.32000000000000006,0.2020505473330383
2.1030150753768844,-0.32000000000000006,0.20217190244834574
2.120603015075377,-0.32000000000000006,0.20229325756365318
2.138190954773869,-0.32000000000000006,0.20241461267896063
2.1557788944723617,-0.32000000000000006,0.20253596779426808
2.1733668341708543,-0.32000000000000006,0.20265732290957553
2.190954773869347,-0.32000000000000006,0.20277867802488297
2.208542713567839,-0.32000000000000006,0.20290003314019042
2.2261306532663316,-0.32000000000000006,0.20302138825549787
2.2437185929648242,-0.32000000000000006,0.20314274337080532
2.2613065326633164,-0.32000000000000006,0.20326409848611277
2.278894472361809,-0.32000000000000006,0.2033854536014202
2.2964824120603016,-0.32000000000000006,0.20350680871672766
2.3140703517587937,-0.32000000000000006,0.20362816383203508
2.3316582914572863,-0.32000000000000006,0.20374951894734256
2.349246231155779,-0.32000000000000006,0.20387087406265
2.3668341708542715,-0.32000000000000006,0.20399222917795745
2.3844221105527637,-0.32000000000000006,0.20411358429326487
2.4020100502512562,-0.32000000000000006,0.20423493940857235
2.419597989949749,-0.32000000000000006,0.20435629452387977
2.437185929648241,-0.32000000000000006,0.20447764963918721
2.4547738693467336,-0.32000000000000006,0.20459900475449466
2.472361809045226,-0.32000000000000006,0.2047203598698021
2.4899497487437188,-0.32000000000000006,0.20484171498510956
2.507537688442211,-0.32000000000000006,0.204963070100417
2.5251256281407035,-0.32000000000000006,0.20508442521572445
2.542713567839196,-0.32000000000000006,0.2052057803310319
2.5603015075376883,-0.32000000000000006,0.20532713544633935
2.577889447236181,-0.32000000000000006,0.2054484905616468
2.5954773869346734,-0.32000000000000006,0.20556984567695424
2.6130653266331656,-0.32000000000000006,0.2056912007922617
2.630653266331658,-0.32000000000000006,0.20581255590756914
2.648241206030151,-0.32000000000000006,0.2059339110228766
2.6658291457286434,-0.32000000000000006,0.20605526613818403
2.6834170854271355,-0.32000000000000006,0.20617662125349148
2.701005025125628,-0.32000000000000006,0.20629797636879893
2.7185929648241207,-0.32000000000000006,0.20641933148410638
2.736180904522613,-0.32000000000000006,0.20654068659941383
2.7537688442211055,-0.32000000000000006,0.20666204171472127
2.771356783919598,-0.32000000000000006,0.20678339683002872
2.78894472361809,-0.32000000000000006,0.20690475194533617
2.806532663316583,-0.32000000000000006,0.20702610706064362
2.8241206030150754,-0.32000000000000006,0.20714746217595106
2.841708542713568,-0.32000000000000006,0.2072688172912585
2.85929648241206,-0.32000000000000006,0.20739017240656596
2.8768844221105527,-0.32000000000000006,0.2075115275218734
2.8944723618090453,-0.32000000000000006,0.20763288263718085
2.9120603015075375,-0.32000000000000006,0.2077542377524883
2.92964824120603,-0.32000000000000006,0.20787559286779575
2.9472361809045227,-0.32000000000000006,0.2079969479831032
2.9648241206030153,-0.32000000000000006,0.20811830309841065
2.9824120603015074,-0.32000000000000006,0.2082396582137181
3.0,-0.32000000000000006,0.20836101332902554
-0.5,-0.30522613065326637,0.1843396013578919
-0.4824120603015075,-0.30522613065326637,0.18446095647319932
-0.4648241206030151,-0.30522613065326637,0.1845823115885068
-0.4472361809045226,-0.30522613065326637,0.18470366670381422
-0.4296482412060302,-0.30522613065326637,0.18482502181912167
-0.4120603015075377,-0.30522613065326637,0.1849463769344291
-0.3944723618090452,-0.30522613065326637,0.18506773204973656
-0.37688442211055273,-0.30522613065326637,0.185189087165044
-0.3592964824120603,-0.30522613065326637,0.18531044228035146
-0.3417085427135679,-0.30522613065326637,0.1854317973956589
-0.3241206030150754,-0.30522613065326637,0.18555315251096635
-0.3065326633165829,-0.30522613065326637,0.1856745076262738
-0.2889447236180904,-0.30522613065326637,0.18579586274158125
-0.271356783919598,-0.30522613065326637,0.1859172178568887
-0.2537688442211055,-0.30522613065326637,0.18603857297219614
-0.2361809045226131,-0.30522613065326637,0.1861599280875036
-0.2185929648241206,-0.30522613065326637,0.18628128320281104
-0.20100502512562812,-0.30522613065326637,0.18640263831811849
-0.1834170854271357,-0.30522613065326637,0.18652399343342593
-0.1658291457286432,-0.30522613065326637,0.18664534854873338
-0.14824120603015079,-0.30522613065326637,0.18676670366404083
-0.1306532663316583,-0.30522613065326637,0.18688805877934828
-0.11306532663316582,-0.30522613065326637,0.18700941389465572
-0.09547738693467339,-0.30522613065326637,0.18713076900996317
-0.07788944723618091,-0.30522613065326637,0.18725212412527062
-0.060301507537688426,-0.30522613065326637,0.18737347924057807
-0.042713567839196,-0.30522613065326637,0.18749483435588551
-0.025125628140703515,-0.30522613065326637,0.18761618947119296
-0.007537688442211032,-0.30522613065326637,0.1877375445865004
0.01005025125628145,-0.30522613065326637,0.18785889970180786
0.027638190954773822,-0.30522613065326637,0.1879802548171153
0.045226130653266305,-0.30522613065326637,0.18810160993242275
0.06281407035175879,-0.30522613065326637,0.1882229650477302
0.08040201005025127,-0.30522613065326637,0.18834432016303765
0.09798994974874375,-0.30522613065326637,0.1884656752783451
0.11557788944723613,-0.30522613065326637,0.18858703039365254
0.1331658291457286,-0.30522613065326637,0.18870838550896
0.1507537688442211,-0.30522613065326637,0.18882974062426744
0.16834170854271358,-0.30522613065326637,0.1889510957395749
0.18592964824120606,-0.30522613065326637,0.18907245085488233
0.20351758793969843,-0.30522613065326637,0.18919380597018978
0.2211055276381909,-0.30522613065326637,0.18931516108549723
0.2386934673366834,-0.30522613065326637,0.18943651620080468
0.2562814070351759,-0.30522613065326637,0.18955787131611213
0.27386934673366836,-0.30522613065326637,0.18967922643141957
0.29145728643216084,-0.30522613065326637,0.18980058154672702
0.3090452261306532,-0.30522613065326637,0.18992193666203447
0.3266331658291457,-0.30522613065326637,0.19004329177734192
0.3442211055276382,-0.30522613065326637,0.19016464689264936
0.36180904522613067,-0.30522613065326637,0.1902860020079568
0.37939698492462315,-0.30522613065326637,0.19040735712326426
0.3969849246231155,-0.30522613065326637,0.1905287122385717
0.414572864321608,-0.30522613065326637,0.19065006735387915
0.4321608040201005,-0.30522613065326637,0.1907714224691866
0.44974874371859297,-0.30522613065326637,0.19089277758449405
0.46733668341708545,-0.30522613065326637,0.1910141326998015
0.48492462311557794,-0.30522613065326637,0.19113548781510895
0.5025125628140703,-0.30522613065326637,0.1912568429304164
0.5201005025125629,-0.30522613065326637,0.19137819804572384
0.5376884422110553,-0.30522613065326637,0.1914995531610313
0.5552763819095476,-0.30522613065326637,0.19162090827633874
0.5728643216080402,-0.30522613065326637,0.19174226339164618
0.5904522613065326,-0.30522613065326637,0.19186361850695363
0.6080402010050252,-0.30522613065326637,0.19198497362226108
0.6256281407035176,-0.30522613065326637,0.19210632873756853
0.64321608040201,-0.30522613065326637,0.19222768385287597
0.6608040201005025,-0.30522613065326637,0.19234903896818342
0.6783919597989949,-0.30522613065326637,0.19247039408349087
0.6959798994974875,-0.30522613065326637,0.19259174919879832
0.7135678391959799,-0.30522613065326637,0.19271310431410577
0.7311557788944723,-0.30522613065326637,0.1928344594294132
0.7487437185929648,-0.30522613065326637,0.19295581454472066
0.7663316582914572,-0.30522613065326637,0.1930771696600281
0.7839195979899498,-0.30522613065326637,0.19319852477533556
0.8015075376884422,-0.30522613065326637,0.193319879890643
0.8190954773869346,-0.30522613065326637,0.19344123500595042
0.8366834170854272,-0.30522613065326637,0.19356259012125787
0.8542713567839195,-0.30522613065326637,0.19368394523656532
0.8718592964824121,-0.30522613065326637,0.19380530035187277
0.8894472361809045,-0.30522613065326637,0.19392665546718021
0.9070351758793969,-0.30522613065326637,0.19404801058248766
0.9246231155778895,-0.30522613065326637,0.1941693656977951
0.9422110552763818,-0.30522613065326637,0.19429072081310256
0.9597989949748744,-0.30522613065326637,0.19441207592841
0.9773869346733668,-0.30522613065326637,0.19453343104371745
0.9949748743718594,-0.30522613065326637,0.1946547861590249
1.0125628140703518,-0.30522613065326637,0.19477614127433235
1.0301507537688441,-0.30522613065326637,0.1948974963896398
1.0477386934673367,-0.30522613065326637,0.19501885150494724
1.065326633165829,-0.30522613065326637,0.1951402066202547
1.0829145728643217,-0.30522613065326637,0.19526156173556214
1.100502512562814,-0.30522613065326637,0.1953829168508696
1.1180904522613064,-0.30522613065326637,0.19550427196617703
1.135678391959799,-0.30522613065326637,0.19562562708148448
1.1532663316582914,-0.30522613065326637,0.19574698219679193
1.170854271356784,-0.30522613065326637,0.19586833731209938
1.1884422110552764,-0.30522613065326637,0.19598969242740683
1.2060301507537687,-0.30522613065326637,0.19611104754271427
1.2236180904522613,-0.30522613065326637,0.19623240265802172
1.2412060301507537,-0.30522613065326637,0.19635375777332917
1.2587939698492463,-0.30522613065326637,0.19647511288863662
1.2763819095477387,-0.30522613065326637,0.19659646800394406
1.293969849246231,-0.30522613065326637,0.1967178231192515
1.3115577889447236,-0.30522613065326637,0.19683917823455896
1.329145728643216,-0.30522613065326637,0.1969605333498664
1.3467336683417086,-0.30522613065326637,0.19708188846517385
1.364321608040201,-0.30522613065326637,0.1972032435804813
1.3819095477386933,-0.30522613065326637,0.19732459869578875
1.399497487437186,-0.30522613065326637,0.1974459538110962
1.4170854271356783,-0.30522613065326637,0.19756730892640365
1.434673366834171,-0.30522613065326637,0.1976886640417111
1.4522613065326633,-0.30522613065326637,0.19781001915701854
1.4698492462311559,-0.30522613065326637,0.197931374272326
1.4874371859296482,-0.30522613065326637,0.19805272938763344
1.5050251256281406,-0.30522613065326637,0.19817408450294088
1.5226130653266332,-0.30522613065326637,0.19829543961824833
1.5402010050251258,-0.30522613065326637,0.19841679473355578
1.557788944723618,-0.30522613065326637,0.19853814984886323
1.5753768844221105,-0.30522613065326637,0.19865950496417067
1.5929648241206031,-0.30522613065326637,0.19878086007947812
1.6105527638190953,-0.30522613065326637,0.19890221519478557
1.6281407035175879,-0.30522613065326637,0.19902357031009302
1.6457286432160805,-0.30522613065326637,0.19914492542540047
1.6633165829145726,-0.30522613065326637,0.1992662805407079
1.6809045226130652,-0.30522613065326637,0.19938763565601536
1.6984924623115578,-0.30522613065326637,0.1995089907713228
1.7160804020100504,-0.30522613065326637,0.19963034588663026
1.7336683417085426,-0.30522613065326637,0.1997517010019377
1.7512562814070352,-0.30522613065326637,0.19987305611724515
1.7688442211055277,-0.30522613065326637,0.1999944112325526
1.78643216080402,-0.30522613065326637,0.20011576634786005
1.8040201005025125,-0.30522613065326637,0.2002371214631675
1.821608040201005,-0.30522613065326637,0.20035847657847494
1.8391959798994977,-0.30522613065326637,0.2004798316937824
1.8567839195979898,-0.30522613065326637,0.20060118680908984
1.8743718592964824,-0.30522613065326637,0.20072254192439729
1.891959798994975,-0.30522613065326637,0.20084389703970473
1.9095477386934672,-0.30522613065326637,0.20096525215501218
1.9271356783919598,-0.30522613065326637,0.20108660727031963
1.9447236180904524,-0.30522613065326637,0.20120796238562708
1.9623115577889445,-0.30522613065326637,0.20132931750093452
1.979899497487437,-0.30522613065326637,0.20145067261624197
1.9974874371859297,-0.30522613065326637,0.20157202773154942
2.0150753768844223,-0.30522613065326637,0.20169338284685687
2.0326633165829144,-0.30522613065326637,0.20181473796216431
2.050251256281407,-0.30522613065326637,0.20193609307747176
2.0678391959798996,-0.30522613065326637,0.2020574481927792
2.0854271356783918,-0.30522613065326637,0.20217880330808663
2.1030150753768844,-0.30522613065326637,0.2023001584233941
2.120603015075377,-0.30522613065326637,0.20242151353870153
2.138190954773869,-0.30522613065326637,0.20254286865400897
2.1557788944723617,-0.30522613065326637,0.20266422376931642
2.1733668341708543,-0.30522613065326637,0.2027855788846239
2.190954773869347,-0.30522613065326637,0.20290693399993132
2.208542713567839,-0.30522613065326637,0.20302828911523876
2.2261306532663316,-0.30522613065326637,0.2031496442305462
2.2437185929648242,-0.30522613065326637,0.20327099934585366
2.2613065326633164,-0.30522613065326637,0.2033923544611611
2.278894472361809,-0.30522613065326637,0.20351370957646855
2.2964824120603016,-0.30522613065326637,0.203635064691776
2.3140703517587937,-0.30522613065326637,0.20375641980708345
2.3316582914572863,-0.30522613065326637,0.2038777749223909
2.349246231155779,-0.30522613065326637,0.20399913003769835
2.3668341708542715,-0.30522613065326637,0.2041204851530058
2.3844221105527637,-0.30522613065326637,0.20424184026831324
2.4020100502512562,-0.30522613065326637,0.2043631953836207
2.419597989949749,-0.30522613065326637,0.20448455049892814
2.437185929648241,-0.30522613065326637,0.20460590561423558
2.4547738693467336,-0.30522613065326637,0.20472726072954303
2.472361809045226,-0.30522613065326637,0.20484861584485048
2.4899497487437188,-0.30522613065326637,0.20496997096015793
2.507537688442211,-0.30522613065326637,0.20509132607546537
2.5251256281407035,-0.30522613065326637,0.20521268119077282
2.542713567839196,-0.30522613065326637,0.20533403630608027
2.5603015075376883,-0.30522613065326637,0.20545539142138772
2.577889447236181,-0.30522613065326637,0.20557674653669517
2.5954773869346734,-0.30522613065326637,0.2056981016520026
2.6130653266331656,-0.30522613065326637,0.20581945676731006
2.630653266331658,-0.30522613065326637,0.2059408118826175
2.648241206030151,-0.30522613065326637,0.20606216699792496
2.6658291457286434,-0.30522613065326637,0.2061835221132324
2.6834170854271355,-0.30522613065326637,0.20630487722853985
2.701005025125628,-0.30522613065326637,0.2064262323438473
2.7185929648241207,-0.30522613065326637,0.20654758745915475
2.736180904522613,-0.30522613065326637,0.2066689425744622
2.7537688442211055,-0.30522613065326637,0.20679029768976964
2.771356783919598,-0.30522613065326637,0.2069116528050771
2.78894472361809,-0.30522613065326637,0.20703300792038454
2.806532663316583,-0.30522613065326637,0.20715436303569199
2.8241206030150754,-0.30522613065326637,0.20727571815099943
2.841708542713568,-0.30522613065326637,0.20739707326630688
2.85929648241206,-0.30522613065326637,0.20751842838161433
2.8768844221105527,-0.30522613065326637,0.20763978349692178
2.8944723618090453,-0.30522613065326637,0.20776113861222922
2.9120603015075375,-0.30522613065326637,0.20788249372753667
2.92964824120603,-0.30522613065326637,0.20800384884284412
2.9472361809045227,-0.30522613065326637,0.20812520395815157
2.9648241206030153,-0.30522613065326637,0.20824655907345901
2.9824120603015074,-0.30522613065326637,0.20836791418876646
3.0,-0.30522613065326637,0.2084892693040739
-0.5,-0.29045226130653273,0.18446785733294024
-0.4824120603015075,-0.29045226130653273,0.1845892124482477
-0.4648241206030151,-0.29045226130653273,0.18471056756355514
-0.4472361809045226,-0.29045226130653273,0.1848319226788626
-0.4296482412060302,-0.29045226130653273,0.18495327779417003
-0.4120603015075377,-0.29045226130653273,0.18507463290947748
-0.3944723618090452,-0.29045226130653273,0.18519598802478493
-0.37688442211055273,-0.29045226130653273,0.18531734314009238
-0.3592964824120603,-0.29045226130653273,0.18543869825539983
-0.3417085427135679,-0.29045226130653273,0.18556005337070727
-0.3241206030150754,-0.29045226130653273,0.18568140848601472
-0.3065326633165829,-0.29045226130653273,0.18580276360132217
-0.2889447236180904,-0.29045226130653273,0.18592411871662962
-0.271356783919598,-0.29045226130653273,0.18604547383193706
-0.2537688442211055,-0.29045226130653273,0.1861668289472445
-0.2361809045226131,-0.29045226130653273,0.18628818406255196
-0.2185929648241206,-0.29045226130653273,0.1864095391778594
-0.20100502512562812,-0.29045226130653273,0.18653089429316685
-0.1834170854271357,-0.29045226130653273,0.1866522494084743
-0.1658291457286432,-0.29045226130653273,0.18677360452378175
-0.14824120603015079,-0.29045226130653273,0.1868949596390892
-0.1306532663316583,-0.29045226130653273,0.18701631475439665
-0.11306532663316582,-0.29045226130653273,0.1871376698697041
-0.09547738693467339,-0.29045226130653273,0.18725902498501154
-0.07788944723618091,-0.29045226130653273,0.187380380100319
-0.060301507537688426,-0.29045226130653273,0.18750173521562644
-0.042713567839196,-0.29045226130653273,0.18762309033093388
-0.025125628140703515,-0.29045226130653273,0.18774444544624133
-0.007537688442211032,-0.29045226130653273,0.18786580056154878
0.01005025125628145,-0.29045226130653273,0.18798715567685623
0.027638190954773822,-0.29045226130653273,0.18810851079216367
0.045226130653266305,-0.29045226130653273,0.18822986590747112
0.06281407035175879,-0.29045226130653273,0.18835122102277857
0.08040201005025127,-0.29045226130653273,0.18847257613808602
0.09798994974874375,-0.29045226130653273,0.18859393125339347
0.11557788944723613,-0.29045226130653273,0.1887152863687009
0.1331658291457286,-0.29045226130653273,0.18883664148400836
0.1507537688442211,-0.29045226130653273,0.1889579965993158
0.16834170854271358,-0.29045226130653273,0.18907935171462326
0.18592964824120606,-0.29045226130653273,0.1892007068299307
0.20351758793969843,-0.29045226130653273,0.18932206194523815
0.2211055276381909,-0.29045226130653273,0.1894434170605456
0.2386934673366834,-0.29045226130653273,0.18956477217585305
0.2562814070351759,-0.29045226130653273,0.1896861272911605
0.27386934673366836,-0.29045226130653273,0.18980748240646794
0.29145728643216084,-0.29045226130653273,0.1899288375217754
0.3090452261306532,-0.29045226130653273,0.19005019263708284
0.3266331658291457,-0.29045226130653273,0.19017154775239029
0.3442211055276382,-0.29045226130653273,0.19029290286769773
0.36180904522613067,-0.29045226130653273,0.19041425798300518
0.37939698492462315,-0.29045226130653273,0.19053561309831263
0.3969849246231155,-0.29045226130653273,0.19065696821362008
0.414572864321608,-0.29045226130653273,0.19077832332892752
0.4321608040201005,-0.29045226130653273,0.19089967844423497
0.44974874371859297,-0.29045226130653273,0.19102103355954242
0.46733668341708545,-0.29045226130653273,0.19114238867484987
0.48492462311557794,-0.29045226130653273,0.19126374379015731
0.5025125628140703,-0.29045226130653273,0.19138509890546476
0.5201005025125629,-0.29045226130653273,0.1915064540207722
0.5376884422110553,-0.29045226130653273,0.19162780913607963
0.5552763819095476,-0.29045226130653273,0.19174916425138708
0.5728643216080402,-0.29045226130653273,0.19187051936669453
0.5904522613065326,-0.29045226130653273,0.19199187448200197
0.6080402010050252,-0.29045226130653273,0.19211322959730942
0.6256281407035176,-0.29045226130653273,0.19223458471261687
0.64321608040201,-0.29045226130653273,0.19235593982792432
0.6608040201005025,-0.29045226130653273,0.19247729494323176
0.6783919597989949,-0.29045226130653273,0.1925986500585392
0.6959798994974875,-0.29045226130653273,0.19272000517384666
0.7135678391959799,-0.29045226130653273,0.1928413602891541
0.7311557788944723,-0.29045226130653273,0.19296271540446155
0.7487437185929648,-0.29045226130653273,0.193084070519769
0.7663316582914572,-0.29045226130653273,0.19320542563507645
0.7839195979899498,-0.29045226130653273,0.1933267807503839
0.8015075376884422,-0.29045226130653273,0.19344813586569135
0.8190954773869346,-0.29045226130653273,0.1935694909809988
0.8366834170854272,-0.29045226130653273,0.19369084609630624
0.8542713567839195,-0.29045226130653273,0.1938122012116137
0.8718592964824121,-0.29045226130653273,0.19393355632692114
0.8894472361809045,-0.29045226130653273,0.19405491144222858
0.9070351758793969,-0.29045226130653273,0.19417626655753603
0.9246231155778895,-0.29045226130653273,0.19429762167284348
0.9422110552763818,-0.29045226130653273,0.19441897678815093
0.9597989949748744,-0.29045226130653273,0.19454033190345837
0.9773869346733668,-0.29045226130653273,0.19466168701876582
0.9949748743718594,-0.29045226130653273,0.19478304213407327
1.0125628140703518,-0.29045226130653273,0.19490439724938072
1.0301507537688441,-0.29045226130653273,0.19502575236468817
1.0477386934673367,-0.29045226130653273,0.1951471074799956
1.065326633165829,-0.29045226130653273,0.19526846259530306
1.0829145728643217,-0.29045226130653273,0.1953898177106105
1.100502512562814,-0.29045226130653273,0.19551117282591796
1.1180904522613064,-0.29045226130653273,0.1956325279412254
1.135678391959799,-0.29045226130653273,0.19575388305653285
1.1532663316582914,-0.29045226130653273,0.1958752381718403
1.170854271356784,-0.29045226130653273,0.19599659328714775
1.1884422110552764,-0.29045226130653273,0.1961179484024552
1.2060301507537687,-0.29045226130653273,0.19623930351776264
1.2236180904522613,-0.29045226130653273,0.1963606586330701
1.2412060301507537,-0.29045226130653273,0.19648201374837754
1.2587939698492463,-0.29045226130653273,0.19660336886368499
1.2763819095477387,-0.29045226130653273,0.19672472397899243
1.293969849246231,-0.29045226130653273,0.19684607909429988
1.3115577889447236,-0.29045226130653273,0.19696743420960733
1.329145728643216,-0.29045226130653273,0.19708878932491478
1.3467336683417086,-0.29045226130653273,0.19721014444022222
1.364321608040201,-0.29045226130653273,0.19733149955552967
1.3819095477386933,-0.29045226130653273,0.19745285467083712
1.399497487437186,-0.29045226130653273,0.19757420978614457
1.4170854271356783,-0.29045226130653273,0.19769556490145201
1.434673366834171,-0.29045226130653273,0.19781692001675946
1.4522613065326633,-0.29045226130653273,0.1979382751320669
1.4698492462311559,-0.29045226130653273,0.19805963024737436
1.4874371859296482,-0.29045226130653273,0.1981809853626818
1.5050251256281406,-0.29045226130653273,0.19830234047798925
1.5226130653266332,-0.29045226130653273,0.1984236955932967
1.5402010050251258,-0.29045226130653273,0.19854505070860415
1.557788944723618,-0.29045226130653273,0.1986664058239116
1.5753768844221105,-0.29045226130653273,0.19878776093921904
1.5929648241206031,-0.29045226130653273,0.1989091160545265
1.6105527638190953,-0.29045226130653273,0.19903047116983394
1.6281407035175879,-0.29045226130653273,0.1991518262851414
1.6457286432160805,-0.29045226130653273,0.19927318140044883
1.6633165829145726,-0.29045226130653273,0.19939453651575628
1.6809045226130652,-0.29045226130653273,0.19951589163106373
1.6984924623115578,-0.29045226130653273,0.19963724674637118
1.7160804020100504,-0.29045226130653273,0.19975860186167863
1.7336683417085426,-0.29045226130653273,0.19987995697698607
1.7512562814070352,-0.29045226130653273,0.20000131209229352
1.7688442211055277,-0.29045226130653273,0.20012266720760097
1.78643216080402,-0.29045226130653273,0.2002440223229084
1.8040201005025125,-0.29045226130653273,0.20036537743821586
1.821608040201005,-0.29045226130653273,0.20048673255352328
1.8391959798994977,-0.29045226130653273,0.20060808766883076
1.8567839195979898,-0.29045226130653273,0.20072944278413818
1.8743718592964824,-0.29045226130653273,0.20085079789944565
1.891959798994975,-0.29045226130653273,0.20097215301475307
1.9095477386934672,-0.29045226130653273,0.20109350813006052
1.9271356783919598,-0.29045226130653273,0.20121486324536797
1.9447236180904524,-0.29045226130653273,0.20133621836067542
1.9623115577889445,-0.29045226130653273,0.20145757347598287
1.979899497487437,-0.29045226130653273,0.2015789285912903
1.9974874371859297,-0.29045226130653273,0.20170028370659776
2.0150753768844223,-0.29045226130653273,0.2018216388219052
2.0326633165829144,-0.29045226130653273,0.20194299393721266
2.050251256281407,-0.29045226130653273,0.2020643490525201
2.0678391959798996,-0.29045226130653273,0.20218570416782755
2.0854271356783918,-0.29045226130653273,0.202307059283135
2.1030150753768844,-0.29045226130653273,0.20242841439844245
2.120603015075377,-0.29045226130653273,0.2025497695137499
2.138190954773869,-0.29045226130653273,0.20267112462905734
2.1557788944723617,-0.29045226130653273,0.2027924797443648
2.1733668341708543,-0.29045226130653273,0.20291383485967224
2.190954773869347,-0.29045226130653273,0.20303518997497969
2.208542713567839,-0.29045226130653273,0.20315654509028713
2.2261306532663316,-0.29045226130653273,0.20327790020559458
2.2437185929648242,-0.29045226130653273,0.20339925532090203
2.2613065326633164,-0.29045226130653273,0.20352061043620948
2.278894472361809,-0.29045226130653273,0.20364196555151692
2.2964824120603016,-0.29045226130653273,0.20376332066682437
2.3140703517587937,-0.29045226130653273,0.20388467578213182
2.3316582914572863,-0.29045226130653273,0.20400603089743927
2.349246231155779,-0.29045226130653273,0.20412738601274671
2.3668341708542715,-0.29045226130653273,0.20424874112805416
2.3844221105527637,-0.29045226130653273,0.2043700962433616
2.4020100502512562,-0.29045226130653273,0.20449145135866906
2.419597989949749,-0.29045226130653273,0.2046128064739765
2.437185929648241,-0.29045226130653273,0.20473416158928395
2.4547738693467336,-0.29045226130653273,0.2048555167045914
2.472361809045226,-0.29045226130653273,0.20497687181989885
2.4899497487437188,-0.29045226130653273,0.2050982269352063
2.507537688442211,-0.29045226130653273,0.20521958205051374
2.5251256281407035,-0.29045226130653273,0.2053409371658212
2.542713567839196,-0.29045226130653273,0.20546229228112864
2.5603015075376883,-0.29045226130653273,0.2055836473964361
2.577889447236181,-0.29045226130653273,0.20570500251174353
2.5954773869346734,-0.29045226130653273,0.20582635762705098
2.6130653266331656,-0.29045226130653273,0.20594771274235843
2.630653266331658,-0.29045226130653273,0.20606906785766588
2.648241206030151,-0.29045226130653273,0.20619042297297333
2.6658291457286434,-0.29045226130653273,0.20631177808828077
2.6834170854271355,-0.29045226130653273,0.20643313320358822
2.701005025125628,-0.29045226130653273,0.20655448831889567
2.7185929648241207,-0.29045226130653273,0.20667584343420312
2.736180904522613,-0.29045226130653273,0.20679719854951056
2.7537688442211055,-0.29045226130653273,0.206918553664818
2.771356783919598,-0.29045226130653273,0.20703990878012546
2.78894472361809,-0.29045226130653273,0.2071612638954329
2.806532663316583,-0.29045226130653273,0.20728261901074035
2.8241206030150754,-0.29045226130653273,0.2074039741260478
2.841708542713568,-0.29045226130653273,0.20752532924135525
2.85929648241206,-0.29045226130653273,0.2076466843566627
2.8768844221105527,-0.29045226130653273,0.20776803947197015
2.8944723618090453,-0.29045226130653273,0.2078893945872776
2.9120603015075375,-0.29045226130653273,0.20801074970258504
2.92964824120603,-0.29045226130653273,0.2081321048178925
2.9472361809045227,-0.29045226130653273,0.20825345993319994
2.9648241206030153,-0.29045226130653273,0.20837481504850738
2.9824120603015074,-0.29045226130653273,0.20849617016381483
3.0,-0.29045226130653273,0.20861752527912228
-0.5,-0.27567839195979904,0.1845961133079886
-0.4824120603015075,-0.27567839195979904,0.18471746842329606
-0.4648241206030151,-0.27567839195979904,0.1848388235386035
-0.4472361809045226,-0.27567839195979904,0.18496017865391096
-0.4296482412060302,-0.27567839195979904,0.1850815337692184
-0.4120603015075377,-0.27567839195979904,0.18520288888452585
-0.3944723618090452,-0.27567839195979904,0.1853242439998333
-0.37688442211055273,-0.27567839195979904,0.18544559911514075
-0.3592964824120603,-0.27567839195979904,0.1855669542304482
-0.3417085427135679,-0.27567839195979904,0.18568830934575564
-0.3241206030150754,-0.27567839195979904,0.1858096644610631
-0.3065326633165829,-0.27567839195979904,0.18593101957637054
-0.2889447236180904,-0.27567839195979904,0.18605237469167799
-0.271356783919598,-0.27567839195979904,0.18617372980698543
-0.2537688442211055,-0.27567839195979904,0.18629508492229288
-0.2361809045226131,-0.27567839195979904,0.18641644003760033
-0.2185929648241206,-0.27567839195979904,0.18653779515290778
-0.20100502512562812,-0.27567839195979904,0.18665915026821522
-0.1834170854271357,-0.27567839195979904,0.18678050538352267
-0.1658291457286432,-0.27567839195979904,0.18690186049883012
-0.14824120603015079,-0.27567839195979904,0.18702321561413757
-0.1306532663316583,-0.27567839195979904,0.18714457072944501
-0.11306532663316582,-0.27567839195979904,0.18726592584475246
-0.09547738693467339,-0.27567839195979904,0.1873872809600599
-0.07788944723618091,-0.27567839195979904,0.18750863607536736
-0.060301507537688426,-0.27567839195979904,0.1876299911906748
-0.042713567839196,-0.27567839195979904,0.18775134630598225
-0.025125628140703515,-0.27567839195979904,0.1878727014212897
-0.007537688442211032,-0.27567839195979904,0.18799405653659715
0.01005025125628145,-0.27567839195979904,0.1881154116519046
0.027638190954773822,-0.27567839195979904,0.18823676676721204
0.045226130653266305,-0.27567839195979904,0.1883581218825195
0.06281407035175879,-0.27567839195979904,0.18847947699782694
0.08040201005025127,-0.27567839195979904,0.1886008321131344
0.09798994974874375,-0.27567839195979904,0.18872218722844183
0.11557788944723613,-0.27567839195979904,0.18884354234374928
0.1331658291457286,-0.27567839195979904,0.18896489745905673
0.1507537688442211,-0.27567839195979904,0.18908625257436418
0.16834170854271358,-0.27567839195979904,0.18920760768967163
0.18592964824120606,-0.27567839195979904,0.18932896280497907
0.20351758793969843,-0.27567839195979904,0.18945031792028652
0.2211055276381909,-0.27567839195979904,0.18957167303559397
0.2386934673366834,-0.27567839195979904,0.18969302815090142
0.2562814070351759,-0.27567839195979904,0.18981438326620886
0.27386934673366836,-0.27567839195979904,0.1899357383815163
0.29145728643216084,-0.27567839195979904,0.19005709349682373
0.3090452261306532,-0.27567839195979904,0.19017844861213118
0.3266331658291457,-0.27567839195979904,0.19029980372743863
0.3442211055276382,-0.27567839195979904,0.19042115884274607
0.36180904522613067,-0.27567839195979904,0.19054251395805352
0.37939698492462315,-0.27567839195979904,0.19066386907336097
0.3969849246231155,-0.27567839195979904,0.19078522418866842
0.414572864321608,-0.27567839195979904,0.19090657930397587
0.4321608040201005,-0.27567839195979904,0.1910279344192833
0.44974874371859297,-0.27567839195979904,0.19114928953459076
0.46733668341708545,-0.27567839195979904,0.1912706446498982
0.48492462311557794,-0.27567839195979904,0.19139199976520566
0.5025125628140703,-0.27567839195979904,0.1915133548805131
0.5201005025125629,-0.27567839195979904,0.19163470999582055
0.5376884422110553,-0.27567839195979904,0.191756065111128
0.5552763819095476,-0.27567839195979904,0.19187742022643545
0.5728643216080402,-0.27567839195979904,0.1919987753417429
0.5904522613065326,-0.27567839195979904,0.19212013045705034
0.6080402010050252,-0.27567839195979904,0.1922414855723578
0.6256281407035176,-0.27567839195979904,0.19236284068766524
0.64321608040201,-0.27567839195979904,0.19248419580297269
0.6608040201005025,-0.27567839195979904,0.19260555091828013
0.6783919597989949,-0.27567839195979904,0.19272690603358758
0.6959798994974875,-0.27567839195979904,0.19284826114889503
0.7135678391959799,-0.27567839195979904,0.19296961626420248
0.7311557788944723,-0.27567839195979904,0.19309097137950992
0.7487437185929648,-0.27567839195979904,0.19321232649481737
0.7663316582914572,-0.27567839195979904,0.19333368161012482
0.7839195979899498,-0.27567839195979904,0.19345503672543227
0.8015075376884422,-0.27567839195979904,0.19357639184073971
0.8190954773869346,-0.27567839195979904,0.19369774695604716
0.8366834170854272,-0.27567839195979904,0.1938191020713546
0.8542713567839195,-0.27567839195979904,0.19394045718666206
0.8718592964824121,-0.27567839195979904,0.1940618123019695
0.8894472361809045,-0.27567839195979904,0.19418316741727695
0.9070351758793969,-0.27567839195979904,0.1943045225325844
0.9246231155778895,-0.27567839195979904,0.19442587764789185
0.9422110552763818,-0.27567839195979904,0.1945472327631993
0.9597989949748744,-0.27567839195979904,0.19466858787850674
0.9773869346733668,-0.27567839195979904,0.1947899429938142
0.9949748743718594,-0.27567839195979904,0.19491129810912164
1.0125628140703518,-0.27567839195979904,0.1950326532244291
1.0301507537688441,-0.27567839195979904,0.19515400833973653
1.0477386934673367,-0.27567839195979904,0.19527536345504398
1.065326633165829,-0.27567839195979904,0.19539671857035143
1.0829145728643217,-0.27567839195979904,0.19551807368565888
1.100502512562814,-0.27567839195979904,0.19563942880096633
1.1180904522613064,-0.27567839195979904,0.19576078391627377
1.135678391959799,-0.27567839195979904,0.19588213903158122
1.1532663316582914,-0.27567839195979904,0.19600349414688867
1.170854271356784,-0.27567839195979904,0.19612484926219612
1.1884422110552764,-0.27567839195979904,0.19624620437750356
1.2060301507537687,-0.27567839195979904,0.196367559492811
1.2236180904522613,-0.27567839195979904,0.19648891460811846
1.2412060301507537,-0.27567839195979904,0.1966102697234259
1.2587939698492463,-0.27567839195979904,0.19673162483873335
1.2763819095477387,-0.27567839195979904,0.1968529799540408
1.293969849246231,-0.27567839195979904,0.19697433506934825
1.3115577889447236,-0.27567839195979904,0.1970956901846557
1.329145728643216,-0.27567839195979904,0.19721704529996315
1.3467336683417086,-0.27567839195979904,0.1973384004152706
1.364321608040201,-0.27567839195979904,0.19745975553057804
1.3819095477386933,-0.27567839195979904,0.1975811106458855
1.399497487437186,-0.27567839195979904,0.19770246576119294
1.4170854271356783,-0.27567839195979904,0.19782382087650038
1.434673366834171,-0.27567839195979904,0.19794517599180783
1.4522613065326633,-0.27567839195979904,0.19806653110711528
1.4698492462311559,-0.27567839195979904,0.19818788622242273
1.4874371859296482,-0.27567839195979904,0.19830924133773017
1.5050251256281406,-0.27567839195979904,0.19843059645303762
1.5226130653266332,-0.27567839195979904,0.19855195156834507
1.5402010050251258,-0.27567839195979904,0.19867330668365252
1.557788944723618,-0.27567839195979904,0.19879466179895994
1.5753768844221105,-0.27567839195979904,0.1989160169142674
1.5929648241206031,-0.27567839195979904,0.19903737202957483
1.6105527638190953,-0.27567839195979904,0.19915872714488228
1.6281407035175879,-0.27567839195979904,0.19928008226018973
1.6457286432160805,-0.27567839195979904,0.19940143737549718
1.6633165829145726,-0.27567839195979904,0.19952279249080462
1.6809045226130652,-0.27567839195979904,0.19964414760611207
1.6984924623115578,-0.27567839195979904,0.19976550272141952
1.7160804020100504,-0.27567839195979904,0.19988685783672697
1.7336683417085426,-0.27567839195979904,0.20000821295203441
1.7512562814070352,-0.27567839195979904,0.20012956806734186
1.7688442211055277,-0.27567839195979904,0.2002509231826493
1.78643216080402,-0.27567839195979904,0.20037227829795676
1.8040201005025125,-0.27567839195979904,0.2004936334132642
1.821608040201005,-0.27567839195979904,0.20061498852857165
1.8391959798994977,-0.27567839195979904,0.2007363436438791
1.8567839195979898,-0.27567839195979904,0.20085769875918655
1.8743718592964824,-0.27567839195979904,0.200979053874494
1.891959798994975,-0.27567839195979904,0.20110040898980144
1.9095477386934672,-0.27567839195979904,0.2012217641051089
1.9271356783919598,-0.27567839195979904,0.20134311922041634
1.9447236180904524,-0.27567839195979904,0.2014644743357238
1.9623115577889445,-0.27567839195979904,0.20158582945103123
1.979899497487437,-0.27567839195979904,0.20170718456633868
1.9974874371859297,-0.27567839195979904,0.20182853968164613
2.0150753768844223,-0.27567839195979904,0.20194989479695358
2.0326633165829144,-0.27567839195979904,0.20207124991226103
2.050251256281407,-0.27567839195979904,0.20219260502756847
2.0678391959798996,-0.27567839195979904,0.20231396014287592
2.0854271356783918,-0.27567839195979904,0.20243531525818337
2.1030150753768844,-0.27567839195979904,0.20255667037349082
2.120603015075377,-0.27567839195979904,0.20267802548879826
2.138190954773869,-0.27567839195979904,0.2027993806041057
2.1557788944723617,-0.27567839195979904,0.20292073571941316
2.1733668341708543,-0.27567839195979904,0.2030420908347206
2.190954773869347,-0.27567839195979904,0.20316344595002805
2.208542713567839,-0.27567839195979904,0.2032848010653355
2.2261306532663316,-0.27567839195979904,0.20340615618064295
2.2437185929648242,-0.27567839195979904,0.2035275112959504
2.2613065326633164,-0.27567839195979904,0.20364886641125785
2.278894472361809,-0.27567839195979904,0.2037702215265653
2.2964824120603016,-0.27567839195979904,0.20389157664187274
2.3140703517587937,-0.27567839195979904,0.2040129317571802
2.3316582914572863,-0.27567839195979904,0.20413428687248764
2.349246231155779,-0.27567839195979904,0.20425564198779508
2.3668341708542715,-0.27567839195979904,0.20437699710310253
2.3844221105527637,-0.27567839195979904,0.20449835221840998
2.4020100502512562,-0.27567839195979904,0.20461970733371743
2.419597989949749,-0.27567839195979904,0.20474106244902487
2.437185929648241,-0.27567839195979904,0.20486241756433232
2.4547738693467336,-0.27567839195979904,0.20498377267963977
2.472361809045226,-0.27567839195979904,0.20510512779494722
2.4899497487437188,-0.27567839195979904,0.20522648291025467
2.507537688442211,-0.27567839195979904,0.2053478380255621
2.5251256281407035,-0.27567839195979904,0.20546919314086956
2.542713567839196,-0.27567839195979904,0.205590548256177
2.5603015075376883,-0.27567839195979904,0.20571190337148446
2.577889447236181,-0.27567839195979904,0.2058332584867919
2.5954773869346734,-0.27567839195979904,0.20595461360209935
2.6130653266331656,-0.27567839195979904,0.2060759687174068
2.630653266331658,-0.27567839195979904,0.20619732383271425
2.648241206030151,-0.27567839195979904,0.2063186789480217
2.6658291457286434,-0.27567839195979904,0.20644003406332914
2.6834170854271355,-0.27567839195979904,0.2065613891786366
2.701005025125628,-0.27567839195979904,0.20668274429394404
2.7185929648241207,-0.27567839195979904,0.20680409940925149
2.736180904522613,-0.27567839195979904,0.2069254545245589
2.7537688442211055,-0.27567839195979904,0.20704680963986638
2.771356783919598,-0.27567839195979904,0.20716816475517383
2.78894472361809,-0.27567839195979904,0.20728951987048128
2.806532663316583,-0.27567839195979904,0.2074108749857887
2.8241206030150754,-0.27567839195979904,0.20753223010109617
2.841708542713568,-0.27567839195979904,0.20765358521640362
2.85929648241206,-0.27567839195979904,0.20777494033171107
2.8768844221105527,-0.27567839195979904,0.2078962954470185
2.8944723618090453,-0.27567839195979904,0.20801765056232596
2.9120603015075375,-0.27567839195979904,0.20813900567763338
2.92964824120603,-0.27567839195979904,0.20826036079294086
2.9472361809045227,-0.27567839195979904,0.20838171590824828
2.9648241206030153,-0.27567839195979904,0.20850307102355575
2.9824120603015074,-0.27567839195979904,0.20862442613886317
3.0,-0.27567839195979904,0.20874578125417062
-0.5,-0.2609045226130654,0.18472436928303698
-0.4824120603015075,-0.2609045226130654,0.18484572439834443
-0.4648241206030151,-0.2609045226130654,0.18496707951365188
-0.4472361809045226,-0.2609045226130654,0.18508843462895933
-0.4296482412060302,-0.2609045226130654,0.18520978974426677
-0.4120603015075377,-0.2609045226130654,0.18533114485957422
-0.3944723618090452,-0.2609045226130654,0.18545249997488167
-0.37688442211055273,-0.2609045226130654,0.18557385509018912
-0.3592964824120603,-0.2609045226130654,0.18569521020549656
-0.3417085427135679,-0.2609045226130654,0.185816565320804
-0.3241206030150754,-0.2609045226130654,0.18593792043611146
-0.3065326633165829,-0.2609045226130654,0.1860592755514189
-0.2889447236180904,-0.2609045226130654,0.18618063066672635
-0.271356783919598,-0.2609045226130654,0.1863019857820338
-0.2537688442211055,-0.2609045226130654,0.18642334089734125
-0.2361809045226131,-0.2609045226130654,0.1865446960126487
-0.2185929648241206,-0.2609045226130654,0.18666605112795615
-0.20100502512562812,-0.2609045226130654,0.1867874062432636
-0.1834170854271357,-0.2609045226130654,0.18690876135857104
-0.1658291457286432,-0.2609045226130654,0.1870301164738785
-0.14824120603015079,-0.2609045226130654,0.18715147158918594
-0.1306532663316583,-0.2609045226130654,0.18727282670449338
-0.11306532663316582,-0.2609045226130654,0.18739418181980083
-0.09547738693467339,-0.2609045226130654,0.18751553693510828
-0.07788944723618091,-0.2609045226130654,0.18763689205041573
-0.060301507537688426,-0.2609045226130654,0.18775824716572317
-0.042713567839196,-0.2609045226130654,0.18787960228103062
-0.025125628140703515,-0.2609045226130654,0.18800095739633807
-0.007537688442211032,-0.2609045226130654,0.18812231251164552
0.01005025125628145,-0.2609045226130654,0.18824366762695294
0.027638190954773822,-0.2609045226130654,0.18836502274226039
0.045226130653266305,-0.2609045226130654,0.18848637785756783
0.06281407035175879,-0.2609045226130654,0.18860773297287528
0.08040201005025127,-0.2609045226130654,0.18872908808818273
0.09798994974874375,-0.2609045226130654,0.18885044320349018
0.11557788944723613,-0.2609045226130654,0.18897179831879762
0.1331658291457286,-0.2609045226130654,0.18909315343410507
0.1507537688442211,-0.2609045226130654,0.18921450854941252
0.16834170854271358,-0.2609045226130654,0.18933586366471997
0.18592964824120606,-0.2609045226130654,0.18945721878002741
0.20351758793969843,-0.2609045226130654,0.18957857389533486
0.2211055276381909,-0.2609045226130654,0.1896999290106423
0.2386934673366834,-0.2609045226130654,0.18982128412594976
0.2562814070351759,-0.2609045226130654,0.1899426392412572
0.27386934673366836,-0.2609045226130654,0.19006399435656465
0.29145728643216084,-0.2609045226130654,0.1901853494718721
0.3090452261306532,-0.2609045226130654,0.19030670458717955
0.3266331658291457,-0.2609045226130654,0.190428059702487
0.3442211055276382,-0.2609045226130654,0.19054941481779444
0.36180904522613067,-0.2609045226130654,0.1906707699331019
0.37939698492462315,-0.2609045226130654,0.19079212504840934
0.3969849246231155,-0.2609045226130654,0.1909134801637168
0.414572864321608,-0.2609045226130654,0.19103483527902423
0.4321608040201005,-0.2609045226130654,0.19115619039433168
0.44974874371859297,-0.2609045226130654,0.19127754550963913
0.46733668341708545,-0.2609045226130654,0.19139890062494658
0.48492462311557794,-0.2609045226130654,0.19152025574025403
0.5025125628140703,-0.2609045226130654,0.19164161085556147
0.5201005025125629,-0.2609045226130654,0.19176296597086892
0.5376884422110553,-0.2609045226130654,0.19188432108617637
0.5552763819095476,-0.2609045226130654,0.19200567620148382
0.5728643216080402,-0.2609045226130654,0.19212703131679126
0.5904522613065326,-0.2609045226130654,0.1922483864320987
0.6080402010050252,-0.2609045226130654,0.19236974154740616
0.6256281407035176,-0.2609045226130654,0.1924910966627136
0.64321608040201,-0.2609045226130654,0.19261245177802105
0.6608040201005025,-0.2609045226130654,0.1927338068933285
0.6783919597989949,-0.2609045226130654,0.19285516200863595
0.6959798994974875,-0.2609045226130654,0.1929765171239434
0.7135678391959799,-0.2609045226130654,0.19309787223925085
0.7311557788944723,-0.2609045226130654,0.1932192273545583
0.7487437185929648,-0.2609045226130654,0.19334058246986574
0.7663316582914572,-0.2609045226130654,0.1934619375851732
0.7839195979899498,-0.2609045226130654,0.19358329270048064
0.8015075376884422,-0.2609045226130654,0.19370464781578808
0.8190954773869346,-0.2609045226130654,0.19382600293109553
0.8366834170854272,-0.2609045226130654,0.19394735804640298
0.8542713567839195,-0.2609045226130654,0.19406871316171043
0.8718592964824121,-0.2609045226130654,0.19419006827701787
0.8894472361809045,-0.2609045226130654,0.19431142339232532
0.9070351758793969,-0.2609045226130654,0.19443277850763277
0.9246231155778895,-0.2609045226130654,0.19455413362294022
0.9422110552763818,-0.2609045226130654,0.19467548873824767
0.9597989949748744,-0.2609045226130654,0.1947968438535551
0.9773869346733668,-0.2609045226130654,0.19491819896886256
0.9949748743718594,-0.2609045226130654,0.19503955408417
1.0125628140703518,-0.2609045226130654,0.19516090919947746
1.0301507537688441,-0.2609045226130654,0.1952822643147849
1.0477386934673367,-0.2609045226130654,0.19540361943009235
1.065326633165829,-0.2609045226130654,0.1955249745453998
1.0829145728643217,-0.2609045226130654,0.19564632966070725
1.100502512562814,-0.2609045226130654,0.1957676847760147
1.1180904522613064,-0.2609045226130654,0.19588903989132214
1.135678391959799,-0.2609045226130654,0.1960103950066296
1.1532663316582914,-0.2609045226130654,0.19613175012193704
1.170854271356784,-0.2609045226130654,0.19625310523724449
1.1884422110552764,-0.2609045226130654,0.19637446035255193
1.2060301507537687,-0.2609045226130654,0.19649581546785938
1.2236180904522613,-0.2609045226130654,0.19661717058316683
1.2412060301507537,-0.2609045226130654,0.19673852569847428
1.2587939698492463,-0.2609045226130654,0.19685988081378172
1.2763819095477387,-0.2609045226130654,0.19698123592908917
1.293969849246231,-0.2609045226130654,0.1971025910443966
1.3115577889447236,-0.2609045226130654,0.19722394615970407
1.329145728643216,-0.2609045226130654,0.1973453012750115
1.3467336683417086,-0.2609045226130654,0.19746665639031893
1.364321608040201,-0.2609045226130654,0.19758801150562638
1.3819095477386933,-0.2609045226130654,0.19770936662093383
1.399497487437186,-0.2609045226130654,0.19783072173624128
1.4170854271356783,-0.2609045226130654,0.19795207685154873
1.434673366834171,-0.2609045226130654,0.19807343196685617
1.4522613065326633,-0.2609045226130654,0.19819478708216362
1.4698492462311559,-0.2609045226130654,0.19831614219747107
1.4874371859296482,-0.2609045226130654,0.19843749731277852
1.5050251256281406,-0.2609045226130654,0.19855885242808596
1.5226130653266332,-0.2609045226130654,0.1986802075433934
1.5402010050251258,-0.2609045226130654,0.19880156265870086
1.557788944723618,-0.2609045226130654,0.1989229177740083
1.5753768844221105,-0.2609045226130654,0.19904427288931575
1.5929648241206031,-0.2609045226130654,0.1991656280046232
1.6105527638190953,-0.2609045226130654,0.19928698311993065
1.6281407035175879,-0.2609045226130654,0.1994083382352381
1.6457286432160805,-0.2609045226130654,0.19952969335054555
1.6633165829145726,-0.2609045226130654,0.199651048465853
1.6809045226130652,-0.2609045226130654,0.19977240358116044
1.6984924623115578,-0.2609045226130654,0.1998937586964679
1.7160804020100504,-0.2609045226130654,0.20001511381177534
1.7336683417085426,-0.2609045226130654,0.20013646892708278
1.7512562814070352,-0.2609045226130654,0.20025782404239023
1.7688442211055277,-0.2609045226130654,0.20037917915769768
1.78643216080402,-0.2609045226130654,0.20050053427300513
1.8040201005025125,-0.2609045226130654,0.20062188938831257
1.821608040201005,-0.2609045226130654,0.20074324450362002
1.8391959798994977,-0.2609045226130654,0.20086459961892747
1.8567839195979898,-0.2609045226130654,0.20098595473423492
1.8743718592964824,-0.2609045226130654,0.20110730984954236
1.891959798994975,-0.2609045226130654,0.2012286649648498
1.9095477386934672,-0.2609045226130654,0.20135002008015726
1.9271356783919598,-0.2609045226130654,0.2014713751954647
1.9447236180904524,-0.2609045226130654,0.20159273031077216
1.9623115577889445,-0.2609045226130654,0.2017140854260796
1.979899497487437,-0.2609045226130654,0.20183544054138705
1.9974874371859297,-0.2609045226130654,0.2019567956566945
2.0150753768844223,-0.2609045226130654,0.20207815077200195
2.0326633165829144,-0.2609045226130654,0.2021995058873094
2.050251256281407,-0.2609045226130654,0.20232086100261684
2.0678391959798996,-0.2609045226130654,0.2024422161179243
2.0854271356783918,-0.2609045226130654,0.20256357123323174
2.1030150753768844,-0.2609045226130654,0.20268492634853918
2.120603015075377,-0.2609045226130654,0.20280628146384663
2.138190954773869,-0.2609045226130654,0.20292763657915408
2.1557788944723617,-0.2609045226130654,0.20304899169446153
2.1733668341708543,-0.2609045226130654,0.20317034680976898
2.190954773869347,-0.2609045226130654,0.20329170192507642
2.208542713567839,-0.2609045226130654,0.20341305704038387
2.2261306532663316,-0.2609045226130654,0.20353441215569132
2.2437185929648242,-0.2609045226130654,0.20365576727099877
2.2613065326633164,-0.2609045226130654,0.20377712238630621
2.278894472361809,-0.2609045226130654,0.20389847750161366
2.2964824120603016,-0.2609045226130654,0.2040198326169211
2.3140703517587937,-0.2609045226130654,0.20414118773222856
2.3316582914572863,-0.2609045226130654,0.204262542847536
2.349246231155779,-0.2609045226130654,0.20438389796284345
2.3668341708542715,-0.2609045226130654,0.2045052530781509
2.3844221105527637,-0.2609045226130654,0.20462660819345835
2.4020100502512562,-0.2609045226130654,0.2047479633087658
2.419597989949749,-0.2609045226130654,0.20486931842407324
2.437185929648241,-0.2609045226130654,0.2049906735393807
2.4547738693467336,-0.2609045226130654,0.20511202865468814
2.472361809045226,-0.2609045226130654,0.2052333837699956
2.4899497487437188,-0.2609045226130654,0.20535473888530303
2.507537688442211,-0.2609045226130654,0.20547609400061048
2.5251256281407035,-0.2609045226130654,0.20559744911591793
2.542713567839196,-0.2609045226130654,0.20571880423122538
2.5603015075376883,-0.2609045226130654,0.20584015934653282
2.577889447236181,-0.2609045226130654,0.20596151446184024
2.5954773869346734,-0.2609045226130654,0.20608286957714772
2.6130653266331656,-0.2609045226130654,0.20620422469245514
2.630653266331658,-0.2609045226130654,0.20632557980776262
2.648241206030151,-0.2609045226130654,0.20644693492307004
2.6658291457286434,-0.2609045226130654,0.2065682900383775
2.6834170854271355,-0.2609045226130654,0.20668964515368493
2.701005025125628,-0.2609045226130654,0.20681100026899238
2.7185929648241207,-0.2609045226130654,0.20693235538429983
2.736180904522613,-0.2609045226130654,0.20705371049960727
2.7537688442211055,-0.2609045226130654,0.20717506561491472
2.771356783919598,-0.2609045226130654,0.20729642073022217
2.78894472361809,-0.2609045226130654,0.20741777584552962
2.806532663316583,-0.2609045226130654,0.20753913096083706
2.8241206030150754,-0.2609045226130654,0.2076604860761445
2.841708542713568,-0.2609045226130654,0.20778184119145196
2.85929648241206,-0.2609045226130654,0.2079031963067594
2.8768844221105527,-0.2609045226130654,0.20802455142206686
2.8944723618090453,-0.2609045226130654,0.2081459065373743
2.9120603015075375,-0.2609045226130654,0.20826726165268175
2.92964824120603,-0.2609045226130654,0.2083886167679892
2.9472361809045227,-0.2609045226130654,0.20850997188329665
2.9648241206030153,-0.2609045226130654,0.2086313269986041
2.9824120603015074,-0.2609045226130654,0.20875268211391154
3.0,-0.2609045226130654,0.208874037229219
-0.5,-0.2461306532663317,0.18485262525808535
-0.4824120603015075,-0.2461306532663317,0.1849739803733928
-0.4648241206030151,-0.2461306532663317,0.18509533548870025
-0.4472361809045226,-0.2461306532663317,0.1852166906040077
-0.4296482412060302,-0.2461306532663317,0.18533804571931514
-0.4120603015075377,-0.2461306532663317,0.1854594008346226
-0.3944723618090452,-0.2461306532663317,0.18558075594993004
-0.37688442211055273,-0.2461306532663317,0.18570211106523749
-0.3592964824120603,-0.2461306532663317,0.18582346618054493
-0.3417085427135679,-0.2461306532663317,0.18594482129585238
-0.3241206030150754,-0.2461306532663317,0.18606617641115983
-0.3065326633165829,-0.2461306532663317,0.18618753152646728
-0.2889447236180904,-0.2461306532663317,0.18630888664177472
-0.271356783919598,-0.2461306532663317,0.18643024175708217
-0.2537688442211055,-0.2461306532663317,0.1865515968723896
-0.2361809045226131,-0.2461306532663317,0.18667295198769704
-0.2185929648241206,-0.2461306532663317,0.1867943071030045
-0.20100502512562812,-0.2461306532663317,0.18691566221831193
-0.1834170854271357,-0.2461306532663317,0.18703701733361938
-0.1658291457286432,-0.2461306532663317,0.18715837244892683
-0.14824120603015079,-0.2461306532663317,0.18727972756423428
-0.1306532663316583,-0.2461306532663317,0.18740108267954173
-0.11306532663316582,-0.2461306532663317,0.18752243779484917
-0.09547738693467339,-0.2461306532663317,0.18764379291015662
-0.07788944723618091,-0.2461306532663317,0.18776514802546407
-0.060301507537688426,-0.2461306532663317,0.18788650314077152
-0.042713567839196,-0.2461306532663317,0.18800785825607896
-0.025125628140703515,-0.2461306532663317,0.1881292133713864
-0.007537688442211032,-0.2461306532663317,0.18825056848669386
0.01005025125628145,-0.2461306532663317,0.1883719236020013
0.027638190954773822,-0.2461306532663317,0.18849327871730875
0.045226130653266305,-0.2461306532663317,0.1886146338326162
0.06281407035175879,-0.2461306532663317,0.18873598894792365
0.08040201005025127,-0.2461306532663317,0.1888573440632311
0.09798994974874375,-0.2461306532663317,0.18897869917853855
0.11557788944723613,-0.2461306532663317,0.189100054293846
0.1331658291457286,-0.2461306532663317,0.18922140940915344
0.1507537688442211,-0.2461306532663317,0.1893427645244609
0.16834170854271358,-0.2461306532663317,0.18946411963976834
0.18592964824120606,-0.2461306532663317,0.18958547475507578
0.20351758793969843,-0.2461306532663317,0.18970682987038323
0.2211055276381909,-0.2461306532663317,0.18982818498569068
0.2386934673366834,-0.2461306532663317,0.18994954010099813
0.2562814070351759,-0.2461306532663317,0.19007089521630557
0.27386934673366836,-0.2461306532663317,0.19019225033161302
0.29145728643216084,-0.2461306532663317,0.19031360544692047
0.3090452261306532,-0.2461306532663317,0.19043496056222792
0.3266331658291457,-0.2461306532663317,0.19055631567753537
0.3442211055276382,-0.2461306532663317,0.1906776707928428
0.36180904522613067,-0.2461306532663317,0.19079902590815026
0.37939698492462315,-0.2461306532663317,0.1909203810234577
0.3969849246231155,-0.2461306532663317,0.19104173613876516
0.414572864321608,-0.2461306532663317,0.1911630912540726
0.4321608040201005,-0.2461306532663317,0.19128444636938005
0.44974874371859297,-0.2461306532663317,0.1914058014846875
0.46733668341708545,-0.2461306532663317,0.19152715659999495
0.48492462311557794,-0.2461306532663317,0.1916485117153024
0.5025125628140703,-0.2461306532663317,0.19176986683060984
0.5201005025125629,-0.2461306532663317,0.1918912219459173
0.5376884422110553,-0.2461306532663317,0.19201257706122474
0.5552763819095476,-0.2461306532663317,0.19213393217653219
0.5728643216080402,-0.2461306532663317,0.19225528729183963
0.5904522613065326,-0.2461306532663317,0.19237664240714708
0.6080402010050252,-0.2461306532663317,0.19249799752245453
0.6256281407035176,-0.2461306532663317,0.19261935263776198
0.64321608040201,-0.2461306532663317,0.19274070775306942
0.6608040201005025,-0.2461306532663317,0.19286206286837687
0.6783919597989949,-0.2461306532663317,0.19298341798368432
0.6959798994974875,-0.2461306532663317,0.19310477309899177
0.7135678391959799,-0.2461306532663317,0.19322612821429921
0.7311557788944723,-0.2461306532663317,0.19334748332960666
0.7487437185929648,-0.2461306532663317,0.1934688384449141
0.7663316582914572,-0.2461306532663317,0.19359019356022156
0.7839195979899498,-0.2461306532663317,0.193711548675529
0.8015075376884422,-0.2461306532663317,0.19383290379083645
0.8190954773869346,-0.2461306532663317,0.1939542589061439
0.8366834170854272,-0.2461306532663317,0.19407561402145135
0.8542713567839195,-0.2461306532663317,0.1941969691367588
0.8718592964824121,-0.2461306532663317,0.19431832425206624
0.8894472361809045,-0.2461306532663317,0.1944396793673737
0.9070351758793969,-0.2461306532663317,0.19456103448268114
0.9246231155778895,-0.2461306532663317,0.1946823895979886
0.9422110552763818,-0.2461306532663317,0.19480374471329603
0.9597989949748744,-0.2461306532663317,0.19492509982860348
0.9773869346733668,-0.2461306532663317,0.19504645494391093
0.9949748743718594,-0.2461306532663317,0.19516781005921838
1.0125628140703518,-0.2461306532663317,0.19528916517452583
1.0301507537688441,-0.2461306532663317,0.19541052028983324
1.0477386934673367,-0.2461306532663317,0.19553187540514072
1.065326633165829,-0.2461306532663317,0.19565323052044814
1.0829145728643217,-0.2461306532663317,0.19577458563575562
1.100502512562814,-0.2461306532663317,0.19589594075106304
1.1180904522613064,-0.2461306532663317,0.19601729586637048
1.135678391959799,-0.2461306532663317,0.19613865098167793
1.1532663316582914,-0.2461306532663317,0.19626000609698538
1.170854271356784,-0.2461306532663317,0.19638136121229283
1.1884422110552764,-0.2461306532663317,0.19650271632760027
1.2060301507537687,-0.2461306532663317,0.19662407144290772
1.2236180904522613,-0.2461306532663317,0.19674542655821517
1.2412060301507537,-0.2461306532663317,0.19686678167352262
1.2587939698492463,-0.2461306532663317,0.19698813678883006
1.2763819095477387,-0.2461306532663317,0.1971094919041375
1.293969849246231,-0.2461306532663317,0.19723084701944496
1.3115577889447236,-0.2461306532663317,0.1973522021347524
1.329145728643216,-0.2461306532663317,0.19747355725005986
1.3467336683417086,-0.2461306532663317,0.1975949123653673
1.364321608040201,-0.2461306532663317,0.19771626748067475
1.3819095477386933,-0.2461306532663317,0.1978376225959822
1.399497487437186,-0.2461306532663317,0.19795897771128965
1.4170854271356783,-0.2461306532663317,0.1980803328265971
1.434673366834171,-0.2461306532663317,0.19820168794190454
1.4522613065326633,-0.2461306532663317,0.198323043057212
1.4698492462311559,-0.2461306532663317,0.19844439817251944
1.4874371859296482,-0.2461306532663317,0.19856575328782688
1.5050251256281406,-0.2461306532663317,0.19868710840313433
1.5226130653266332,-0.2461306532663317,0.19880846351844178
1.5402010050251258,-0.2461306532663317,0.19892981863374923
1.557788944723618,-0.2461306532663317,0.19905117374905668
1.5753768844221105,-0.2461306532663317,0.19917252886436412
1.5929648241206031,-0.2461306532663317,0.19929388397967157
1.6105527638190953,-0.2461306532663317,0.19941523909497902
1.6281407035175879,-0.2461306532663317,0.19953659421028647
1.6457286432160805,-0.2461306532663317,0.19965794932559391
1.6633165829145726,-0.2461306532663317,0.19977930444090136
1.6809045226130652,-0.2461306532663317,0.1999006595562088
1.6984924623115578,-0.2461306532663317,0.20002201467151626
1.7160804020100504,-0.2461306532663317,0.2001433697868237
1.7336683417085426,-0.2461306532663317,0.20026472490213115
1.7512562814070352,-0.2461306532663317,0.2003860800174386
1.7688442211055277,-0.2461306532663317,0.20050743513274605
1.78643216080402,-0.2461306532663317,0.2006287902480535
1.8040201005025125,-0.2461306532663317,0.20075014536336094
1.821608040201005,-0.2461306532663317,0.2008715004786684
1.8391959798994977,-0.2461306532663317,0.20099285559397584
1.8567839195979898,-0.2461306532663317,0.2011142107092833
1.8743718592964824,-0.2461306532663317,0.20123556582459073
1.891959798994975,-0.2461306532663317,0.20135692093989818
1.9095477386934672,-0.2461306532663317,0.20147827605520563
1.9271356783919598,-0.2461306532663317,0.20159963117051308
1.9447236180904524,-0.2461306532663317,0.20172098628582052
1.9623115577889445,-0.2461306532663317,0.20184234140112797
1.979899497487437,-0.2461306532663317,0.20196369651643542
1.9974874371859297,-0.2461306532663317,0.20208505163174287
2.0150753768844223,-0.2461306532663317,0.20220640674705032
2.0326633165829144,-0.2461306532663317,0.20232776186235776
2.050251256281407,-0.2461306532663317,0.2024491169776652
2.0678391959798996,-0.2461306532663317,0.20257047209297266
2.0854271356783918,-0.2461306532663317,0.2026918272082801
2.1030150753768844,-0.2461306532663317,0.20281318232358755
2.120603015075377,-0.2461306532663317,0.202934537438895
2.138190954773869,-0.2461306532663317,0.20305589255420245
2.1557788944723617,-0.2461306532663317,0.2031772476695099
2.1733668341708543,-0.2461306532663317,0.20329860278481734
2.190954773869347,-0.2461306532663317,0.2034199579001248
2.208542713567839,-0.2461306532663317,0.20354131301543224
2.2261306532663316,-0.2461306532663317,0.2036626681307397
2.2437185929648242,-0.2461306532663317,0.20378402324604714
2.2613065326633164,-0.2461306532663317,0.20390537836135458
2.278894472361809,-0.2461306532663317,0.20402673347666203
2.2964824120603016,-0.2461306532663317,0.20414808859196948
2.3140703517587937,-0.2461306532663317,0.2042694437072769
2.3316582914572863,-0.2461306532663317,0.20439079882258437
2.349246231155779,-0.2461306532663317,0.2045121539378918
2.3668341708542715,-0.2461306532663317,0.20463350905319927
2.3844221105527637,-0.2461306532663317,0.2047548641685067
2.4020100502512562,-0.2461306532663317,0.20487621928381414
2.419597989949749,-0.2461306532663317,0.20499757439912158
2.437185929648241,-0.2461306532663317,0.20511892951442903
2.4547738693467336,-0.2461306532663317,0.20524028462973648
2.472361809045226,-0.2461306532663317,0.20536163974504393
2.4899497487437188,-0.2461306532663317,0.20548299486035138
2.507537688442211,-0.2461306532663317,0.20560434997565882
2.5251256281407035,-0.2461306532663317,0.20572570509096627
2.542713567839196,-0.2461306532663317,0.20584706020627372
2.5603015075376883,-0.2461306532663317,0.20596841532158117
2.577889447236181,-0.2461306532663317,0.20608977043688861
2.5954773869346734,-0.2461306532663317,0.20621112555219606
2.6130653266331656,-0.2461306532663317,0.2063324806675035
2.630653266331658,-0.2461306532663317,0.20645383578281096
2.648241206030151,-0.2461306532663317,0.2065751908981184
2.6658291457286434,-0.2461306532663317,0.20669654601342585
2.6834170854271355,-0.2461306532663317,0.2068179011287333
2.701005025125628,-0.2461306532663317,0.20693925624404075
2.7185929648241207,-0.2461306532663317,0.2070606113593482
2.736180904522613,-0.2461306532663317,0.20718196647465564
2.7537688442211055,-0.2461306532663317,0.2073033215899631
2.771356783919598,-0.2461306532663317,0.20742467670527054
2.78894472361809,-0.2461306532663317,0.207546031820578
2.806532663316583,-0.2461306532663317,0.20766738693588543
2.8241206030150754,-0.2461306532663317,0.20778874205119288
2.841708542713568,-0.2461306532663317,0.20791009716650033
2.85929648241206,-0.2461306532663317,0.20803145228180778
2.8768844221105527,-0.2461306532663317,0.20815280739711522
2.8944723618090453,-0.2461306532663317,0.20827416251242267
2.9120603015075375,-0.2461306532663317,0.20839551762773012
2.92964824120603,-0.2461306532663317,0.20851687274303757
2.9472361809045227,-0.2461306532663317,0.20863822785834502
2.9648241206030153,-0.2461306532663317,0.20875958297365246
2.9824120603015074,-0.2461306532663317,0.2088809380889599
3.0,-0.2461306532663317,0.20900229320426736
-0.5,-0.23135678391959805,0.1849808812331337
-0.4824120603015075,-0.23135678391959805,0.18510223634844114
-0.4648241206030151,-0.23135678391959805,0.1852235914637486
-0.4472361809045226,-0.23135678391959805,0.18534494657905604
-0.4296482412060302,-0.23135678391959805,0.18546630169436348
-0.4120603015075377,-0.23135678391959805,0.18558765680967093
-0.3944723618090452,-0.23135678391959805,0.18570901192497838
-0.37688442211055273,-0.23135678391959805,0.18583036704028583
-0.3592964824120603,-0.23135678391959805,0.18595172215559327
-0.3417085427135679,-0.23135678391959805,0.18607307727090072
-0.3241206030150754,-0.23135678391959805,0.18619443238620817
-0.3065326633165829,-0.23135678391959805,0.18631578750151562
-0.2889447236180904,-0.23135678391959805,0.18643714261682306
-0.271356783919598,-0.23135678391959805,0.1865584977321305
-0.2537688442211055,-0.23135678391959805,0.18667985284743796
-0.2361809045226131,-0.23135678391959805,0.1868012079627454
-0.2185929648241206,-0.23135678391959805,0.18692256307805286
-0.20100502512562812,-0.23135678391959805,0.1870439181933603
-0.1834170854271357,-0.23135678391959805,0.18716527330866775
-0.1658291457286432,-0.23135678391959805,0.1872866284239752
-0.14824120603015079,-0.23135678391959805,0.18740798353928265
-0.1306532663316583,-0.23135678391959805,0.1875293386545901
-0.11306532663316582,-0.23135678391959805,0.18765069376989754
-0.09547738693467339,-0.23135678391959805,0.187772048885205
-0.07788944723618091,-0.23135678391959805,0.18789340400051244
-0.060301507537688426,-0.23135678391959805,0.18801475911581988
-0.042713567839196,-0.23135678391959805,0.18813611423112733
-0.025125628140703515,-0.23135678391959805,0.18825746934643478
-0.007537688442211032,-0.23135678391959805,0.18837882446174223
0.01005025125628145,-0.23135678391959805,0.18850017957704968
0.027638190954773822,-0.23135678391959805,0.18862153469235712
0.045226130653266305,-0.23135678391959805,0.18874288980766457
0.06281407035175879,-0.23135678391959805,0.18886424492297202
0.08040201005025127,-0.23135678391959805,0.18898560003827947
0.09798994974874375,-0.23135678391959805,0.18910695515358691
0.11557788944723613,-0.23135678391959805,0.18922831026889436
0.1331658291457286,-0.23135678391959805,0.1893496653842018
0.1507537688442211,-0.23135678391959805,0.18947102049950926
0.16834170854271358,-0.23135678391959805,0.1895923756148167
0.18592964824120606,-0.23135678391959805,0.18971373073012415
0.20351758793969843,-0.23135678391959805,0.1898350858454316
0.2211055276381909,-0.23135678391959805,0.18995644096073905
0.2386934673366834,-0.23135678391959805,0.1900777960760465
0.2562814070351759,-0.23135678391959805,0.19019915119135394
0.27386934673366836,-0.23135678391959805,0.1903205063066614
0.29145728643216084,-0.23135678391959805,0.19044186142196884
0.3090452261306532,-0.23135678391959805,0.1905632165372763
0.3266331658291457,-0.23135678391959805,0.19068457165258373
0.3442211055276382,-0.23135678391959805,0.19080592676789118
0.36180904522613067,-0.23135678391959805,0.19092728188319863
0.37939698492462315,-0.23135678391959805,0.19104863699850608
0.3969849246231155,-0.23135678391959805,0.19116999211381352
0.414572864321608,-0.23135678391959805,0.19129134722912097
0.4321608040201005,-0.23135678391959805,0.19141270234442842
0.44974874371859297,-0.23135678391959805,0.19153405745973587
0.46733668341708545,-0.23135678391959805,0.19165541257504332
0.48492462311557794,-0.23135678391959805,0.19177676769035076
0.5025125628140703,-0.23135678391959805,0.1918981228056582
0.5201005025125629,-0.23135678391959805,0.19201947792096566
0.5376884422110553,-0.23135678391959805,0.1921408330362731
0.5552763819095476,-0.23135678391959805,0.19226218815158055
0.5728643216080402,-0.23135678391959805,0.192383543266888
0.5904522613065326,-0.23135678391959805,0.19250489838219545
0.6080402010050252,-0.23135678391959805,0.1926262534975029
0.6256281407035176,-0.23135678391959805,0.19274760861281034
0.64321608040201,-0.23135678391959805,0.1928689637281178
0.6608040201005025,-0.23135678391959805,0.19299031884342524
0.6783919597989949,-0.23135678391959805,0.1931116739587327
0.6959798994974875,-0.23135678391959805,0.19323302907404014
0.7135678391959799,-0.23135678391959805,0.19335438418934758
0.7311557788944723,-0.23135678391959805,0.193475739304655
0.7487437185929648,-0.23135678391959805,0.19359709441996248
0.7663316582914572,-0.23135678391959805,0.1937184495352699
0.7839195979899498,-0.23135678391959805,0.19383980465057737
0.8015075376884422,-0.23135678391959805,0.1939611597658848
0.8190954773869346,-0.23135678391959805,0.19408251488119224
0.8366834170854272,-0.23135678391959805,0.1942038699964997
0.8542713567839195,-0.23135678391959805,0.19432522511180714
0.8718592964824121,-0.23135678391959805,0.19444658022711458
0.8894472361809045,-0.23135678391959805,0.19456793534242203
0.9070351758793969,-0.23135678391959805,0.19468929045772948
0.9246231155778895,-0.23135678391959805,0.19481064557303693
0.9422110552763818,-0.23135678391959805,0.19493200068834438
0.9597989949748744,-0.23135678391959805,0.19505335580365182
0.9773869346733668,-0.23135678391959805,0.19517471091895927
0.9949748743718594,-0.23135678391959805,0.19529606603426672
1.0125628140703518,-0.23135678391959805,0.19541742114957417
1.0301507537688441,-0.23135678391959805,0.19553877626488161
1.0477386934673367,-0.23135678391959805,0.19566013138018906
1.065326633165829,-0.23135678391959805,0.1957814864954965
1.0829145728643217,-0.23135678391959805,0.19590284161080396
1.100502512562814,-0.23135678391959805,0.1960241967261114
1.1180904522613064,-0.23135678391959805,0.19614555184141885
1.135678391959799,-0.23135678391959805,0.1962669069567263
1.1532663316582914,-0.23135678391959805,0.19638826207203375
1.170854271356784,-0.23135678391959805,0.1965096171873412
1.1884422110552764,-0.23135678391959805,0.19663097230264864
1.2060301507537687,-0.23135678391959805,0.1967523274179561
1.2236180904522613,-0.23135678391959805,0.19687368253326354
1.2412060301507537,-0.23135678391959805,0.196995037648571
1.2587939698492463,-0.23135678391959805,0.19711639276387843
1.2763819095477387,-0.23135678391959805,0.19723774787918588
1.293969849246231,-0.23135678391959805,0.19735910299449333
1.3115577889447236,-0.23135678391959805,0.19748045810980078
1.329145728643216,-0.23135678391959805,0.19760181322510822
1.3467336683417086,-0.23135678391959805,0.19772316834041567
1.364321608040201,-0.23135678391959805,0.19784452345572312
1.3819095477386933,-0.23135678391959805,0.19796587857103057
1.399497487437186,-0.23135678391959805,0.19808723368633802
1.4170854271356783,-0.23135678391959805,0.19820858880164546
1.434673366834171,-0.23135678391959805,0.1983299439169529
1.4522613065326633,-0.23135678391959805,0.19845129903226036
1.4698492462311559,-0.23135678391959805,0.1985726541475678
1.4874371859296482,-0.23135678391959805,0.19869400926287525
1.5050251256281406,-0.23135678391959805,0.1988153643781827
1.5226130653266332,-0.23135678391959805,0.19893671949349015
1.5402010050251258,-0.23135678391959805,0.1990580746087976
1.557788944723618,-0.23135678391959805,0.19917942972410504
1.5753768844221105,-0.23135678391959805,0.1993007848394125
1.5929648241206031,-0.23135678391959805,0.19942213995471994
1.6105527638190953,-0.23135678391959805,0.1995434950700274
1.6281407035175879,-0.23135678391959805,0.19966485018533484
1.6457286432160805,-0.23135678391959805,0.19978620530064228
1.6633165829145726,-0.23135678391959805,0.19990756041594973
1.6809045226130652,-0.23135678391959805,0.20002891553125718
1.6984924623115578,-0.23135678391959805,0.20015027064656463
1.7160804020100504,-0.23135678391959805,0.20027162576187207
1.7336683417085426,-0.23135678391959805,0.20039298087717952
1.7512562814070352,-0.23135678391959805,0.20051433599248697
1.7688442211055277,-0.23135678391959805,0.20063569110779442
1.78643216080402,-0.23135678391959805,0.20075704622310186
1.8040201005025125,-0.23135678391959805,0.2008784013384093
1.821608040201005,-0.23135678391959805,0.20099975645371676
1.8391959798994977,-0.23135678391959805,0.2011211115690242
1.8567839195979898,-0.23135678391959805,0.20124246668433166
1.8743718592964824,-0.23135678391959805,0.2013638217996391
1.891959798994975,-0.23135678391959805,0.20148517691494655
1.9095477386934672,-0.23135678391959805,0.201606532030254
1.9271356783919598,-0.23135678391959805,0.20172788714556145
1.9447236180904524,-0.23135678391959805,0.2018492422608689
1.9623115577889445,-0.23135678391959805,0.20197059737617634
1.979899497487437,-0.23135678391959805,0.2020919524914838
1.9974874371859297,-0.23135678391959805,0.20221330760679124
2.0150753768844223,-0.23135678391959805,0.20233466272209868
2.0326633165829144,-0.23135678391959805,0.20245601783740613
2.050251256281407,-0.23135678391959805,0.20257737295271355
2.0678391959798996,-0.23135678391959805,0.20269872806802103
2.0854271356783918,-0.23135678391959805,0.20282008318332845
2.1030150753768844,-0.23135678391959805,0.2029414382986359
2.120603015075377,-0.23135678391959805,0.20306279341394334
2.138190954773869,-0.23135678391959805,0.2031841485292508
2.1557788944723617,-0.23135678391959805,0.20330550364455824
2.1733668341708543,-0.23135678391959805,0.2034268587598657
2.190954773869347,-0.23135678391959805,0.20354821387517313
2.208542713567839,-0.23135678391959805,0.20366956899048058
2.2261306532663316,-0.23135678391959805,0.20379092410578803
2.2437185929648242,-0.23135678391959805,0.20391227922109548
2.2613065326633164,-0.23135678391959805,0.20403363433640292
2.278894472361809,-0.23135678391959805,0.20415498945171037
2.2964824120603016,-0.23135678391959805,0.20427634456701782
2.3140703517587937,-0.23135678391959805,0.20439769968232527
2.3316582914572863,-0.23135678391959805,0.20451905479763272
2.349246231155779,-0.23135678391959805,0.20464040991294016
2.3668341708542715,-0.23135678391959805,0.2047617650282476
2.3844221105527637,-0.23135678391959805,0.20488312014355506
2.4020100502512562,-0.23135678391959805,0.2050044752588625
2.419597989949749,-0.23135678391959805,0.20512583037416995
2.437185929648241,-0.23135678391959805,0.2052471854894774
2.4547738693467336,-0.23135678391959805,0.20536854060478485
2.472361809045226,-0.23135678391959805,0.2054898957200923
2.4899497487437188,-0.23135678391959805,0.20561125083539974
2.507537688442211,-0.23135678391959805,0.2057326059507072
2.5251256281407035,-0.23135678391959805,0.20585396106601464
2.542713567839196,-0.23135678391959805,0.2059753161813221
2.5603015075376883,-0.23135678391959805,0.20609667129662954
2.577889447236181,-0.23135678391959805,0.20621802641193698
2.5954773869346734,-0.23135678391959805,0.20633938152724443
2.6130653266331656,-0.23135678391959805,0.20646073664255188
2.630653266331658,-0.23135678391959805,0.20658209175785933
2.648241206030151,-0.23135678391959805,0.20670344687316677
2.6658291457286434,-0.23135678391959805,0.20682480198847422
2.6834170854271355,-0.23135678391959805,0.20694615710378167
2.701005025125628,-0.23135678391959805,0.20706751221908912
2.7185929648241207,-0.23135678391959805,0.20718886733439656
2.736180904522613,-0.23135678391959805,0.207310222449704
2.7537688442211055,-0.23135678391959805,0.20743157756501146
2.771356783919598,-0.23135678391959805,0.2075529326803189
2.78894472361809,-0.23135678391959805,0.20767428779562636
2.806532663316583,-0.23135678391959805,0.2077956429109338
2.8241206030150754,-0.23135678391959805,0.20791699802624125
2.841708542713568,-0.23135678391959805,0.2080383531415487
2.85929648241206,-0.23135678391959805,0.20815970825685615
2.8768844221105527,-0.23135678391959805,0.2082810633721636
2.8944723618090453,-0.23135678391959805,0.20840241848747104
2.9120603015075375,-0.23135678391959805,0.2085237736027785
2.92964824120603,-0.23135678391959805,0.20864512871808594
2.9472361809045227,-0.23135678391959805,0.20876648383339338
2.9648241206030153,-0.23135678391959805,0.20888783894870083
2.9824120603015074,-0.23135678391959805,0.20900919406400828
3.0,-0.23135678391959805,0.20913054917931573
-0.5,-0.21658291457286438,0.18510913720818206
-0.4824120603015075,-0.21658291457286438,0.1852304923234895
-0.4648241206030151,-0.21658291457286438,0.18535184743879696
-0.4472361809045226,-0.21658291457286438,0.1854732025541044
-0.4296482412060302,-0.21658291457286438,0.18559455766941185
-0.4120603015075377,-0.21658291457286438,0.1857159127847193
-0.3944723618090452,-0.21658291457286438,0.18583726790002675
-0.37688442211055273,-0.21658291457286438,0.1859586230153342
-0.3592964824120603,-0.21658291457286438,0.18607997813064164
-0.3417085427135679,-0.21658291457286438,0.1862013332459491
-0.3241206030150754,-0.21658291457286438,0.18632268836125654
-0.3065326633165829,-0.21658291457286438,0.186444043476564
-0.2889447236180904,-0.21658291457286438,0.18656539859187143
-0.271356783919598,-0.21658291457286438,0.18668675370717888
-0.2537688442211055,-0.21658291457286438,0.18680810882248633
-0.2361809045226131,-0.21658291457286438,0.18692946393779378
-0.2185929648241206,-0.21658291457286438,0.18705081905310122
-0.20100502512562812,-0.21658291457286438,0.18717217416840867
-0.1834170854271357,-0.21658291457286438,0.18729352928371612
-0.1658291457286432,-0.21658291457286438,0.18741488439902357
-0.14824120603015079,-0.21658291457286438,0.18753623951433102
-0.1306532663316583,-0.21658291457286438,0.18765759462963846
-0.11306532663316582,-0.21658291457286438,0.1877789497449459
-0.09547738693467339,-0.21658291457286438,0.18790030486025336
-0.07788944723618091,-0.21658291457286438,0.1880216599755608
-0.060301507537688426,-0.21658291457286438,0.18814301509086825
-0.042713567839196,-0.21658291457286438,0.1882643702061757
-0.025125628140703515,-0.21658291457286438,0.18838572532148315
-0.007537688442211032,-0.21658291457286438,0.1885070804367906
0.01005025125628145,-0.21658291457286438,0.18862843555209804
0.027638190954773822,-0.21658291457286438,0.1887497906674055
0.045226130653266305,-0.21658291457286438,0.18887114578271294
0.06281407035175879,-0.21658291457286438,0.1889925008980204
0.08040201005025127,-0.21658291457286438,0.18911385601332784
0.09798994974874375,-0.21658291457286438,0.18923521112863528
0.11557788944723613,-0.21658291457286438,0.18935656624394273
0.1331658291457286,-0.21658291457286438,0.18947792135925018
0.1507537688442211,-0.21658291457286438,0.18959927647455763
0.16834170854271358,-0.21658291457286438,0.18972063158986507
0.18592964824120606,-0.21658291457286438,0.18984198670517252
0.20351758793969843,-0.21658291457286438,0.18996334182047997
0.2211055276381909,-0.21658291457286438,0.19008469693578742
0.2386934673366834,-0.21658291457286438,0.19020605205109486
0.2562814070351759,-0.21658291457286438,0.1903274071664023
0.27386934673366836,-0.21658291457286438,0.19044876228170976
0.29145728643216084,-0.21658291457286438,0.1905701173970172
0.3090452261306532,-0.21658291457286438,0.19069147251232466
0.3266331658291457,-0.21658291457286438,0.1908128276276321
0.3442211055276382,-0.21658291457286438,0.19093418274293955
0.36180904522613067,-0.21658291457286438,0.191055537858247
0.37939698492462315,-0.21658291457286438,0.19117689297355445
0.3969849246231155,-0.21658291457286438,0.1912982480888619
0.414572864321608,-0.21658291457286438,0.19141960320416934
0.4321608040201005,-0.21658291457286438,0.1915409583194768
0.44974874371859297,-0.21658291457286438,0.19166231343478424
0.46733668341708545,-0.21658291457286438,0.19178366855009168
0.48492462311557794,-0.21658291457286438,0.19190502366539913
0.5025125628140703,-0.21658291457286438,0.19202637878070655
0.5201005025125629,-0.21658291457286438,0.19214773389601403
0.5376884422110553,-0.21658291457286438,0.19226908901132145
0.5552763819095476,-0.21658291457286438,0.1923904441266289
0.5728643216080402,-0.21658291457286438,0.19251179924193634
0.5904522613065326,-0.21658291457286438,0.1926331543572438
0.6080402010050252,-0.21658291457286438,0.19275450947255124
0.6256281407035176,-0.21658291457286438,0.1928758645878587
0.64321608040201,-0.21658291457286438,0.19299721970316613
0.6608040201005025,-0.21658291457286438,0.19311857481847358
0.6783919597989949,-0.21658291457286438,0.19323992993378103
0.6959798994974875,-0.21658291457286438,0.19336128504908848
0.7135678391959799,-0.21658291457286438,0.19348264016439592
0.7311557788944723,-0.21658291457286438,0.19360399527970337
0.7487437185929648,-0.21658291457286438,0.19372535039501082
0.7663316582914572,-0.21658291457286438,0.19384670551031827
0.7839195979899498,-0.21658291457286438,0.19396806062562572
0.8015075376884422,-0.21658291457286438,0.19408941574093316
0.8190954773869346,-0.21658291457286438,0.1942107708562406
0.8366834170854272,-0.21658291457286438,0.19433212597154806
0.8542713567839195,-0.21658291457286438,0.1944534810868555
0.8718592964824121,-0.21658291457286438,0.19457483620216295
0.8894472361809045,-0.21658291457286438,0.1946961913174704
0.9070351758793969,-0.21658291457286438,0.19481754643277785
0.9246231155778895,-0.21658291457286438,0.1949389015480853
0.9422110552763818,-0.21658291457286438,0.19506025666339274
0.9597989949748744,-0.21658291457286438,0.1951816117787002
0.9773869346733668,-0.21658291457286438,0.19530296689400764
0.9949748743718594,-0.21658291457286438,0.1954243220093151
1.0125628140703518,-0.21658291457286438,0.19554567712462254
1.0301507537688441,-0.21658291457286438,0.19566703223992998
1.0477386934673367,-0.21658291457286438,0.19578838735523743
1.065326633165829,-0.21658291457286438,0.19590974247054488
1.0829145728643217,-0.21658291457286438,0.19603109758585233
1.100502512562814,-0.21658291457286438,0.19615245270115977
1.1180904522613064,-0.21658291457286438,0.19627380781646722
1.135678391959799,-0.21658291457286438,0.19639516293177467
1.1532663316582914,-0.21658291457286438,0.19651651804708212
1.170854271356784,-0.21658291457286438,0.19663787316238956
1.1884422110552764,-0.21658291457286438,0.196759228277697
1.2060301507537687,-0.21658291457286438,0.19688058339300446
1.2236180904522613,-0.21658291457286438,0.1970019385083119
1.2412060301507537,-0.21658291457286438,0.19712329362361936
1.2587939698492463,-0.21658291457286438,0.1972446487389268
1.2763819095477387,-0.21658291457286438,0.19736600385423425
1.293969849246231,-0.21658291457286438,0.1974873589695417
1.3115577889447236,-0.21658291457286438,0.19760871408484915
1.329145728643216,-0.21658291457286438,0.1977300692001566
1.3467336683417086,-0.21658291457286438,0.19785142431546404
1.364321608040201,-0.21658291457286438,0.1979727794307715
1.3819095477386933,-0.21658291457286438,0.19809413454607894
1.399497487437186,-0.21658291457286438,0.19821548966138638
1.4170854271356783,-0.21658291457286438,0.19833684477669383
1.434673366834171,-0.21658291457286438,0.19845819989200128
1.4522613065326633,-0.21658291457286438,0.19857955500730873
1.4698492462311559,-0.21658291457286438,0.19870091012261618
1.4874371859296482,-0.21658291457286438,0.19882226523792362
1.5050251256281406,-0.21658291457286438,0.19894362035323107
1.5226130653266332,-0.21658291457286438,0.19906497546853852
1.5402010050251258,-0.21658291457286438,0.19918633058384597
1.557788944723618,-0.21658291457286438,0.19930768569915341
1.5753768844221105,-0.21658291457286438,0.19942904081446086
1.5929648241206031,-0.21658291457286438,0.1995503959297683
1.6105527638190953,-0.21658291457286438,0.19967175104507576
1.6281407035175879,-0.21658291457286438,0.1997931061603832
1.6457286432160805,-0.21658291457286438,0.19991446127569065
1.6633165829145726,-0.21658291457286438,0.2000358163909981
1.6809045226130652,-0.21658291457286438,0.20015717150630555
1.6984924623115578,-0.21658291457286438,0.200278526621613
1.7160804020100504,-0.21658291457286438,0.20039988173692044
1.7336683417085426,-0.21658291457286438,0.2005212368522279
1.7512562814070352,-0.21658291457286438,0.20064259196753534
1.7688442211055277,-0.21658291457286438,0.2007639470828428
1.78643216080402,-0.21658291457286438,0.2008853021981502
1.8040201005025125,-0.21658291457286438,0.20100665731345768
1.821608040201005,-0.21658291457286438,0.2011280124287651
1.8391959798994977,-0.21658291457286438,0.20124936754407258
1.8567839195979898,-0.21658291457286438,0.20137072265938
1.8743718592964824,-0.21658291457286438,0.20149207777468744
1.891959798994975,-0.21658291457286438,0.2016134328899949
1.9095477386934672,-0.21658291457286438,0.20173478800530234
1.9271356783919598,-0.21658291457286438,0.2018561431206098
1.9447236180904524,-0.21658291457286438,0.20197749823591724
1.9623115577889445,-0.21658291457286438,0.20209885335122468
1.979899497487437,-0.21658291457286438,0.20222020846653213
1.9974874371859297,-0.21658291457286438,0.20234156358183958
2.0150753768844223,-0.21658291457286438,0.20246291869714703
2.0326633165829144,-0.21658291457286438,0.20258427381245447
2.050251256281407,-0.21658291457286438,0.20270562892776192
2.0678391959798996,-0.21658291457286438,0.20282698404306937
2.0854271356783918,-0.21658291457286438,0.20294833915837682
2.1030150753768844,-0.21658291457286438,0.20306969427368426
2.120603015075377,-0.21658291457286438,0.2031910493889917
2.138190954773869,-0.21658291457286438,0.20331240450429916
2.1557788944723617,-0.21658291457286438,0.2034337596196066
2.1733668341708543,-0.21658291457286438,0.20355511473491406
2.190954773869347,-0.21658291457286438,0.2036764698502215
2.208542713567839,-0.21658291457286438,0.20379782496552895
2.2261306532663316,-0.21658291457286438,0.2039191800808364
2.2437185929648242,-0.21658291457286438,0.20404053519614385
2.2613065326633164,-0.21658291457286438,0.2041618903114513
2.278894472361809,-0.21658291457286438,0.20428324542675874
2.2964824120603016,-0.21658291457286438,0.2044046005420662
2.3140703517587937,-0.21658291457286438,0.20452595565737364
2.3316582914572863,-0.21658291457286438,0.20464731077268108
2.349246231155779,-0.21658291457286438,0.20476866588798853
2.3668341708542715,-0.21658291457286438,0.20489002100329598
2.3844221105527637,-0.21658291457286438,0.20501137611860343
2.4020100502512562,-0.21658291457286438,0.20513273123391088
2.419597989949749,-0.21658291457286438,0.20525408634921832
2.437185929648241,-0.21658291457286438,0.20537544146452577
2.4547738693467336,-0.21658291457286438,0.20549679657983322
2.472361809045226,-0.21658291457286438,0.20561815169514067
2.4899497487437188,-0.21658291457286438,0.20573950681044811
2.507537688442211,-0.21658291457286438,0.20586086192575556
2.5251256281407035,-0.21658291457286438,0.205982217041063
2.542713567839196,-0.21658291457286438,0.20610357215637046
2.5603015075376883,-0.21658291457286438,0.2062249272716779
2.577889447236181,-0.21658291457286438,0.20634628238698535
2.5954773869346734,-0.21658291457286438,0.2064676375022928
2.6130653266331656,-0.21658291457286438,0.20658899261760025
2.630653266331658,-0.21658291457286438,0.2067103477329077
2.648241206030151,-0.21658291457286438,0.20683170284821514
2.6658291457286434,-0.21658291457286438,0.2069530579635226
2.6834170854271355,-0.21658291457286438,0.20707441307883004
2.701005025125628,-0.21658291457286438,0.2071957681941375
2.7185929648241207,-0.21658291457286438,0.20731712330944493
2.736180904522613,-0.21658291457286438,0.20743847842475238
2.7537688442211055,-0.21658291457286438,0.20755983354005983
2.771356783919598,-0.21658291457286438,0.20768118865536728
2.78894472361809,-0.21658291457286438,0.20780254377067472
2.806532663316583,-0.21658291457286438,0.20792389888598217
2.8241206030150754,-0.21658291457286438,0.20804525400128962
2.841708542713568,-0.21658291457286438,0.20816660911659707
2.85929648241206,-0.21658291457286438,0.20828796423190452
2.8768844221105527,-0.21658291457286438,0.20840931934721196
2.8944723618090453,-0.21658291457286438,0.2085306744625194
2.9120603015075375,-0.21658291457286438,0.20865202957782686
2.92964824120603,-0.21658291457286438,0.2087733846931343
2.9472361809045227,-0.21658291457286438,0.20889473980844175
2.9648241206030153,-0.21658291457286438,0.2090160949237492
2.9824120603015074,-0.21658291457286438,0.20913745003905665
3.0,-0.21658291457286438,0.2092588051543641
-0.5,-0.2018090452261307,0.18523739318323043
-0.4824120603015075,-0.2018090452261307,0.18535874829853788
-0.4648241206030151,-0.2018090452261307,0.18548010341384533
-0.4472361809045226,-0.2018090452261307,0.18560145852915277
-0.4296482412060302,-0.2018090452261307,0.18572281364446022
-0.4120603015075377,-0.2018090452261307,0.18584416875976767
-0.3944723618090452,-0.2018090452261307,0.18596552387507512
-0.37688442211055273,-0.2018090452261307,0.18608687899038256
-0.3592964824120603,-0.2018090452261307,0.18620823410569
-0.3417085427135679,-0.2018090452261307,0.18632958922099746
-0.3241206030150754,-0.2018090452261307,0.1864509443363049
-0.3065326633165829,-0.2018090452261307,0.18657229945161236
-0.2889447236180904,-0.2018090452261307,0.1866936545669198
-0.271356783919598,-0.2018090452261307,0.18681500968222725
-0.2537688442211055,-0.2018090452261307,0.1869363647975347
-0.2361809045226131,-0.2018090452261307,0.18705771991284215
-0.2185929648241206,-0.2018090452261307,0.1871790750281496
-0.20100502512562812,-0.2018090452261307,0.18730043014345704
-0.1834170854271357,-0.2018090452261307,0.1874217852587645
-0.1658291457286432,-0.2018090452261307,0.18754314037407194
-0.14824120603015079,-0.2018090452261307,0.18766449548937938
-0.1306532663316583,-0.2018090452261307,0.18778585060468683
-0.11306532663316582,-0.2018090452261307,0.18790720571999428
-0.09547738693467339,-0.2018090452261307,0.18802856083530173
-0.07788944723618091,-0.2018090452261307,0.18814991595060918
-0.060301507537688426,-0.2018090452261307,0.18827127106591662
-0.042713567839196,-0.2018090452261307,0.18839262618122407
-0.025125628140703515,-0.2018090452261307,0.18851398129653152
-0.007537688442211032,-0.2018090452261307,0.18863533641183897
0.01005025125628145,-0.2018090452261307,0.18875669152714641
0.027638190954773822,-0.2018090452261307,0.18887804664245386
0.045226130653266305,-0.2018090452261307,0.1889994017577613
0.06281407035175879,-0.2018090452261307,0.18912075687306876
0.08040201005025127,-0.2018090452261307,0.1892421119883762
0.09798994974874375,-0.2018090452261307,0.18936346710368365
0.11557788944723613,-0.2018090452261307,0.1894848222189911
0.1331658291457286,-0.2018090452261307,0.18960617733429855
0.1507537688442211,-0.2018090452261307,0.189727532449606
0.16834170854271358,-0.2018090452261307,0.18984888756491344
0.18592964824120606,-0.2018090452261307,0.1899702426802209
0.20351758793969843,-0.2018090452261307,0.19009159779552834
0.2211055276381909,-0.2018090452261307,0.19021295291083576
0.2386934673366834,-0.2018090452261307,0.1903343080261432
0.2562814070351759,-0.2018090452261307,0.19045566314145065
0.27386934673366836,-0.2018090452261307,0.1905770182567581
0.29145728643216084,-0.2018090452261307,0.19069837337206555
0.3090452261306532,-0.2018090452261307,0.190819728487373
0.3266331658291457,-0.2018090452261307,0.19094108360268044
0.3442211055276382,-0.2018090452261307,0.1910624387179879
0.36180904522613067,-0.2018090452261307,0.19118379383329534
0.37939698492462315,-0.2018090452261307,0.1913051489486028
0.3969849246231155,-0.2018090452261307,0.19142650406391024
0.414572864321608,-0.2018090452261307,0.19154785917921768
0.4321608040201005,-0.2018090452261307,0.19166921429452513
0.44974874371859297,-0.2018090452261307,0.19179056940983258
0.46733668341708545,-0.2018090452261307,0.19191192452514003
0.48492462311557794,-0.2018090452261307,0.19203327964044747
0.5025125628140703,-0.2018090452261307,0.19215463475575492
0.5201005025125629,-0.2018090452261307,0.19227598987106237
0.5376884422110553,-0.2018090452261307,0.19239734498636982
0.5552763819095476,-0.2018090452261307,0.19251870010167726
0.5728643216080402,-0.2018090452261307,0.1926400552169847
0.5904522613065326,-0.2018090452261307,0.19276141033229216
0.6080402010050252,-0.2018090452261307,0.1928827654475996
0.6256281407035176,-0.2018090452261307,0.19300412056290706
0.64321608040201,-0.2018090452261307,0.1931254756782145
0.6608040201005025,-0.2018090452261307,0.19324683079352195
0.6783919597989949,-0.2018090452261307,0.1933681859088294
0.6959798994974875,-0.2018090452261307,0.19348954102413685
0.7135678391959799,-0.2018090452261307,0.1936108961394443
0.7311557788944723,-0.2018090452261307,0.19373225125475174
0.7487437185929648,-0.2018090452261307,0.1938536063700592
0.7663316582914572,-0.2018090452261307,0.19397496148536664
0.7839195979899498,-0.2018090452261307,0.19409631660067408
0.8015075376884422,-0.2018090452261307,0.19421767171598153
0.8190954773869346,-0.2018090452261307,0.19433902683128898
0.8366834170854272,-0.2018090452261307,0.19446038194659643
0.8542713567839195,-0.2018090452261307,0.19458173706190388
0.8718592964824121,-0.2018090452261307,0.19470309217721132
0.8894472361809045,-0.2018090452261307,0.19482444729251877
0.9070351758793969,-0.2018090452261307,0.19494580240782622
0.9246231155778895,-0.2018090452261307,0.19506715752313367
0.9422110552763818,-0.2018090452261307,0.19518851263844111
0.9597989949748744,-0.2018090452261307,0.19530986775374856
