v АК,v ЦН,weight
-0.5,-0.32000000000000006,0.20200378095214577
-0.4824120603015075,-0.32000000000000006,0.20200378095214577
-0.4648241206030151,-0.32000000000000006,0.20200378095214577
-0.4472361809045226,-0.32000000000000006,0.20200378095214577
-0.4296482412060302,-0.32000000000000006,0.20200378095214577
-0.4120603015075377,-0.32000000000000006,0.20200378095214577
-0.3944723618090452,-0.32000000000000006,0.20200378095214577
-0.37688442211055273,-0.32000000000000006,0.20200378095214577
-0.3592964824120603,-0.32000000000000006,0.20200378095214577
-0.3417085427135679,-0.32000000000000006,0.20200378095214577
-0.3241206030150754,-0.32000000000000006,0.20200378095214577
-0.3065326633165829,-0.32000000000000006,0.20200378095214577
-0.2889447236180904,-0.32000000000000006,0.20200378095214577
-0.271356783919598,-0.32000000000000006,0.20200378095214577
-0.2537688442211055,-0.32000000000000006,0.20200378095214577
-0.2361809045226131,-0.32000000000000006,0.20200378095214577
-0.2185929648241206,-0.32000000000000006,0.20200378095214577
-0.20100502512562812,-0.32000000000000006,0.20200378095214577
-0.1834170854271357,-0.32000000000000006,0.20200378095214577
-0.1658291457286432,-0.32000000000000006,0.20200378095214577
-0.14824120603015079,-0.32000000000000006,0.20200378095214577
-0.1306532663316583,-0.32000000000000006,0.20200378095214577
-0.11306532663316582,-0.32000000000000006,0.20200378095214577
-0.09547738693467339,-0.32000000000000006,0.20200378095214577
-0.07788944723618091,-0.32000000000000006,0.20200378095214577
-0.060301507537688426,-0.32000000000000006,0.20200378095214577
-0.042713567839196,-0.32000000000000006,0.20200378095214577
-0.025125628140703515,-0.32000000000000006,0.20200378095214577
-0.007537688442211032,-0.32000000000000006,0.20200378095214577
0.01005025125628145,-0.32000000000000006,0.20200378095214577
0.027638190954773822,-0.32000000000000006,0.20200378095214577
0.045226130653266305,-0.32000000000000006,0.20200378095214577
0.06281407035175879,-0.32000000000000006,0.20200378095214577
0.08040201005025127,-0.32000000000000006,0.20200378095214577
0.09798994974874375,-0.32000000000000006,0.20200378095214577
0.11557788944723613,-0.32000000000000006,0.20200378095214577
0.1331658291457286,-0.32000000000000006,0.20200378095214577
0.1507537688442211,-0.32000000000000006,0.20200378095214577
0.16834170854271358,-0.32000000000000006,0.20200378095214577
0.18592964824120606,-0.32000000000000006,0.20200378095214577
0.20351758793969843,-0.32000000000000006,0.20200378095214577
0.2211055276381909,-0.32000000000000006,0.20179806229113056
0.2386934673366834,-0.32000000000000006,0.20231690309351125
0.2562814070351759,-0.32000000000000006,0.20301151217701233
0.27386934673366836,-0.32000000000000006,0.20301151217701233
0.29145728643216084,-0.32000000000000006,0.20347524015509952
0.3090452261306532,-0.32000000000000006,0.20338900088490122
0.3266331658291457,-0.32000000000000006,0.20338900088490122
0.3442211055276382,-0.32000000000000006,0.20338900088490122
0.36180904522613067,-0.32000000000000006,0.20338900088490122
0.37939698492462315,-0.32000000000000006,0.20301863164906625
0.3969849246231155,-0.32000000000000006,0.20301863164906625
0.414572864321608,-0.32000000000000006,0.20301863164906625
0.4321608040201005,-0.32000000000000006,0.20301863164906625
0.44974874371859297,-0.32000000000000006,0.20301863164906625
0.46733668341708545,-0.32000000000000006,0.202808688177167
0.48492462311557794,-0.32000000000000006,0.20218687057772491
0.5025125628140703,-0.32000000000000006,0.20122401237074747
0.5201005025125629,-0.32000000000000006,0.20122401237074747
0.5376884422110553,-0.32000000000000006,0.20122401237074747
0.5552763819095476,-0.32000000000000006,0.20103674175129332
0.5728643216080402,-0.32000000000000006,0.20035558485863608
0.5904522613065326,-0.32000000000000006,0.2001703494379508
0.6080402010050252,-0.32000000000000006,0.20046367275610105
0.6256281407035176,-0.32000000000000006,0.20046367275610105
0.64321608040201,-0.32000000000000006,0.20046367275610105
0.6608040201005025,-0.32000000000000006,0.19976414538036613
0.6783919597989949,-0.32000000000000006,0.19976414538036613
0.6959798994974875,-0.32000000000000006,0.19890068652103057
0.7135678391959799,-0.32000000000000006,0.19890068652103057
0.7311557788944723,-0.32000000000000006,0.19890068652103057
0.7487437185929648,-0.32000000000000006,0.19890068652103057
0.7663316582914572,-0.32000000000000006,0.19890068652103057
0.7839195979899498,-0.32000000000000006,0.19913748575603246
0.8015075376884422,-0.32000000000000006,0.19980267157507495
0.8190954773869346,-0.32000000000000006,0.20029926530186448
0.8366834170854272,-0.32000000000000006,0.20189549269288926
0.8542713567839195,-0.32000000000000006,0.20189549269288926
0.8718592964824121,-0.32000000000000006,0.20189549269288926
0.8894472361809045,-0.32000000000000006,0.20370957061224043
0.9070351758793969,-0.32000000000000006,0.20421415139086654
0.9246231155778895,-0.32000000000000006,0.20466229992027843
0.9422110552763818,-0.32000000000000006,0.20466229992027843
0.9597989949748744,-0.32000000000000006,0.20558739582299013
0.9773869346733668,-0.32000000000000006,0.20558739582299013
0.9949748743718594,-0.32000000000000006,0.2061502997160208
1.0125628140703518,-0.32000000000000006,0.20718279602326076
1.0301507537688441,-0.32000000000000006,0.20718279602326076
1.0477386934673367,-0.32000000000000006,0.20718279602326076
1.065326633165829,-0.32000000000000006,0.20718279602326076
1.0829145728643217,-0.32000000000000006,0.20718279602326076
1.100502512562814,-0.32000000000000006,0.20781041776569148
1.1180904522613064,-0.32000000000000006,0.20861382056004518
1.135678391959799,-0.32000000000000006,0.20861382056004518
1.1532663316582914,-0.32000000000000006,0.20777860690993158
1.170854271356784,-0.32000000000000006,0.20777860690993158
1.1884422110552764,-0.32000000000000006,0.20777860690993158
1.2060301507537687,-0.32000000000000006,0.20777860690993158
1.2236180904522613,-0.32000000000000006,0.20777860690993158
1.2412060301507537,-0.32000000000000006,0.2068338937791656
1.2587939698492463,-0.32000000000000006,0.20535007673839156
1.2763819095477387,-0.32000000000000006,0.20535007673839156
1.293969849246231,-0.32000000000000006,0.20535007673839156
1.3115577889447236,-0.32000000000000006,0.20495832914911202
1.329145728643216,-0.32000000000000006,0.2048066684313925
1.3467336683417086,-0.32000000000000006,0.2048066684313925
1.364321608040201,-0.32000000000000006,0.20434382037741233
1.3819095477386933,-0.32000000000000006,0.20434382037741233
1.399497487437186,-0.32000000000000006,0.20434382037741233
1.4170854271356783,-0.32000000000000006,0.20434382037741233
1.434673366834171,-0.32000000000000006,0.20434382037741233
1.4522613065326633,-0.32000000000000006,0.2042024248800205
1.4698492462311559,-0.32000000000000006,0.20320504625219943
1.4874371859296482,-0.32000000000000006,0.20320504625219943
1.5050251256281406,-0.32000000000000006,0.20320504625219943
1.5226130653266332,-0.32000000000000006,0.20298267073642187
1.5402010050251258,-0.32000000000000006,0.20298267073642187
1.557788944723618,-0.32000000000000006,0.20429039383008857
1.5753768844221105,-0.32000000000000006,0.20417520688124186
1.5929648241206031,-0.32000000000000006,0.2036835962988203
1.6105527638190953,-0.32000000000000006,0.20377520836440008
1.6281407035175879,-0.32000000000000006,0.20445615044831972
1.6457286432160805,-0.32000000000000006,0.2055892383377031
1.6633165829145726,-0.32000000000000006,0.20553233106260316
1.6809045226130652,-0.32000000000000006,0.20597389728559928
1.6984924623115578,-0.32000000000000006,0.20537454388876936
1.7160804020100504,-0.32000000000000006,0.20537454388876936
1.7336683417085426,-0.32000000000000006,0.20570971731563453
1.7512562814070352,-0.32000000000000006,0.20621091303694888
1.7688442211055277,-0.32000000000000006,0.20621091303694888
1.78643216080402,-0.32000000000000006,0.20621091303694888
1.8040201005025125,-0.32000000000000006,0.20621091303694888
1.821608040201005,-0.32000000000000006,0.2060849901317236
1.8391959798994977,-0.32000000000000006,0.2060849901317236
1.8567839195979898,-0.32000000000000006,0.2060849901317236
1.8743718592964824,-0.32000000000000006,0.20701197068059804
1.891959798994975,-0.32000000000000006,0.20701197068059804
1.9095477386934672,-0.32000000000000006,0.2077645736585227
1.9271356783919598,-0.32000000000000006,0.2081092728220042
1.9447236180904524,-0.32000000000000006,0.2081092728220042
1.9623115577889445,-0.32000000000000006,0.2081092728220042
1.979899497487437,-0.32000000000000006,0.20856721569632816
1.9974874371859297,-0.32000000000000006,0.20998389690898991
2.0150753768844223,-0.32000000000000006,0.20998389690898991
2.0326633165829144,-0.32000000000000006,0.20998389690898991
2.050251256281407,-0.32000000000000006,0.20998389690898991
2.0678391959798996,-0.32000000000000006,0.20998389690898991
2.0854271356783918,-0.32000000000000006,0.21002374599729529
2.1030150753768844,-0.32000000000000006,0.21022694179700302
2.120603015075377,-0.32000000000000006,0.21022694179700302
2.138190954773869,-0.32000000000000006,0.21022694179700302
2.1557788944723617,-0.32000000000000006,0.21022694179700302
2.1733668341708543,-0.32000000000000006,0.21022694179700302
2.190954773869347,-0.32000000000000006,0.21022694179700302
2.208542713567839,-0.32000000000000006,0.21022694179700302
2.2261306532663316,-0.32000000000000006,0.21022694179700302
2.2437185929648242,-0.32000000000000006,0.21022694179700302
2.2613065326633164,-0.32000000000000006,0.21022694179700302
2.278894472361809,-0.32000000000000006,0.21022694179700302
2.2964824120603016,-0.32000000000000006,0.21022694179700302
2.3140703517587937,-0.32000000000000006,0.21022694179700302
2.3316582914572863,-0.32000000000000006,0.21022694179700302
2.349246231155779,-0.32000000000000006,0.21022694179700302
2.3668341708542715,-0.32000000000000006,0.21022694179700302
2.3844221105527637,-0.32000000000000006,0.21022694179700302
2.4020100502512562,-0.32000000000000006,0.21022694179700302
2.419597989949749,-0.32000000000000006,0.21022694179700302
2.437185929648241,-0.32000000000000006,0.21022694179700302
2.4547738693467336,-0.32000000000000006,0.21022694179700302
2.472361809045226,-0.32000000000000006,0.21022694179700302
2.4899497487437188,-0.32000000000000006,0.21022694179700302
2.507537688442211,-0.32000000000000006,0.21022694179700302
2.5251256281407035,-0.32000000000000006,0.21022694179700302
2.542713567839196,-0.32000000000000006,0.21022694179700302
2.5603015075376883,-0.32000000000000006,0.21022694179700302
2.577889447236181,-0.32000000000000006,0.21022694179700302
2.5954773869346734,-0.32000000000000006,0.21022694179700302
2.6130653266331656,-0.32000000000000006,0.21022694179700302
2.630653266331658,-0.32000000000000006,0.21022694179700302
2.648241206030151,-0.32000000000000006,0.21022694179700302
2.6658291457286434,-0.32000000000000006,0.21022694179700302
2.6834170854271355,-0.32000000000000006,0.21022694179700302
2.701005025125628,-0.32000000000000006,0.21022694179700302
2.7185929648241207,-0.32000000000000006,0.21022694179700302
2.736180904522613,-0.32000000000000006,0.21022694179700302
2.7537688442211055,-0.32000000000000006,0.21022694179700302
2.771356783919598,-0.32000000000000006,0.21022694179700302
2.78894472361809,-0.32000000000000006,0.21022694179700302
2.806532663316583,-0.32000000000000006,0.21022694179700302
2.8241206030150754,-0.32000000000000006,0.21022694179700302
2.841708542713568,-0.32000000000000006,0.21022694179700302
2.85929648241206,-0.32000000000000006,0.21022694179700302
2.8768844221105527,-0.32000000000000006,0.21022694179700302
2.8944723618090453,-0.32000000000000006,0.21022694179700302
2.9120603015075375,-0.32000000000000006,0.21022694179700302
2.92964824120603,-0.32000000000000006,0.21022694179700302
2.9472361809045227,-0.32000000000000006,0.21022694179700302
2.9648241206030153,-0.32000000000000006,0.21022694179700302
2.9824120603015074,-0.32000000000000006,0.21022694179700302
3.0,-0.32000000000000006,0.21022694179700302
-0.5,-0.30522613065326637,0.20200378095214577
-0.4824120603015075,-0.30522613065326637,0.20200378095214577
-0.4648241206030151,-0.30522613065326637,0.20200378095214577
-0.4472361809045226,-0.30522613065326637,0.20200378095214577
-0.4296482412060302,-0.30522613065326637,0.20200378095214577
-0.4120603015075377,-0.30522613065326637,0.20200378095214577
-0.3944723618090452,-0.30522613065326637,0.20200378095214577
-0.37688442211055273,-0.30522613065326637,0.20200378095214577
-0.3592964824120603,-0.30522613065326637,0.20200378095214577
-0.3417085427135679,-0.30522613065326637,0.20200378095214577
-0.3241206030150754,-0.30522613065326637,0.20200378095214577
-0.3065326633165829,-0.30522613065326637,0.20200378095214577
-0.2889447236180904,-0.30522613065326637,0.20200378095214577
-0.271356783919598,-0.30522613065326637,0.20200378095214577
-0.2537688442211055,-0.30522613065326637,0.20200378095214577
-0.2361809045226131,-0.30522613065326637,0.20200378095214577
-0.2185929648241206,-0.30522613065326637,0.20200378095214577
-0.20100502512562812,-0.30522613065326637,0.20200378095214577
-0.1834170854271357,-0.30522613065326637,0.20200378095214577
-0.1658291457286432,-0.30522613065326637,0.20200378095214577
-0.14824120603015079,-0.30522613065326637,0.20200378095214577
-0.1306532663316583,-0.30522613065326637,0.20200378095214577
-0.11306532663316582,-0.30522613065326637,0.20200378095214577
-0.09547738693467339,-0.30522613065326637,0.20200378095214577
-0.07788944723618091,-0.30522613065326637,0.20200378095214577
-0.060301507537688426,-0.30522613065326637,0.20200378095214577
-0.042713567839196,-0.30522613065326637,0.20200378095214577
-0.025125628140703515,-0.30522613065326637,0.20200378095214577
-0.007537688442211032,-0.30522613065326637,0.20200378095214577
0.01005025125628145,-0.30522613065326637,0.20200378095214577
0.027638190954773822,-0.30522613065326637,0.20200378095214577
0.045226130653266305,-0.30522613065326637,0.20200378095214577
0.06281407035175879,-0.30522613065326637,0.20200378095214577
0.08040201005025127,-0.30522613065326637,0.20200378095214577
0.09798994974874375,-0.30522613065326637,0.20200378095214577
0.11557788944723613,-0.30522613065326637,0.20200378095214577
0.1331658291457286,-0.30522613065326637,0.20200378095214577
0.1507537688442211,-0.30522613065326637,0.20200378095214577
0.16834170854271358,-0.30522613065326637,0.20200378095214577
0.18592964824120606,-0.30522613065326637,0.20200378095214577
0.20351758793969843,-0.30522613065326637,0.20200378095214577
0.2211055276381909,-0.30522613065326637,0.20179806229113056
0.2386934673366834,-0.30522613065326637,0.20231690309351125
0.2562814070351759,-0.30522613065326637,0.20301151217701233
0.27386934673366836,-0.30522613065326637,0.20301151217701233
0.29145728643216084,-0.30522613065326637,0.20347524015509952
0.3090452261306532,-0.30522613065326637,0.20338900088490122
0.3266331658291457,-0.30522613065326637,0.20338900088490122
0.3442211055276382,-0.30522613065326637,0.20338900088490122
0.36180904522613067,-0.30522613065326637,0.20338900088490122
0.37939698492462315,-0.30522613065326637,0.20301863164906625
0.3969849246231155,-0.30522613065326637,0.20301863164906625
0.414572864321608,-0.30522613065326637,0.20301863164906625
0.4321608040201005,-0.30522613065326637,0.20301863164906625
0.44974874371859297,-0.30522613065326637,0.20301863164906625
0.46733668341708545,-0.30522613065326637,0.202808688177167
0.48492462311557794,-0.30522613065326637,0.20218687057772491
0.5025125628140703,-0.30522613065326637,0.20122401237074747
0.5201005025125629,-0.30522613065326637,0.20122401237074747
0.5376884422110553,-0.30522613065326637,0.20122401237074747
0.5552763819095476,-0.30522613065326637,0.20103674175129332
0.5728643216080402,-0.30522613065326637,0.20035558485863608
0.5904522613065326,-0.30522613065326637,0.2001703494379508
0.6080402010050252,-0.30522613065326637,0.20046367275610105
0.6256281407035176,-0.30522613065326637,0.20046367275610105
0.64321608040201,-0.30522613065326637,0.20046367275610105
0.6608040201005025,-0.30522613065326637,0.19976414538036613
0.6783919597989949,-0.30522613065326637,0.19976414538036613
0.6959798994974875,-0.30522613065326637,0.19890068652103057
0.7135678391959799,-0.30522613065326637,0.19890068652103057
0.7311557788944723,-0.30522613065326637,0.19890068652103057
0.7487437185929648,-0.30522613065326637,0.19890068652103057
0.7663316582914572,-0.30522613065326637,0.19890068652103057
0.7839195979899498,-0.30522613065326637,0.19913748575603246
0.8015075376884422,-0.30522613065326637,0.19980267157507495
0.8190954773869346,-0.30522613065326637,0.20029926530186448
0.8366834170854272,-0.30522613065326637,0.20189549269288926
0.8542713567839195,-0.30522613065326637,0.20189549269288926
0.8718592964824121,-0.30522613065326637,0.20189549269288926
0.8894472361809045,-0.30522613065326637,0.20370957061224043
0.9070351758793969,-0.30522613065326637,0.20421415139086654
0.9246231155778895,-0.30522613065326637,0.20466229992027843
0.9422110552763818,-0.30522613065326637,0.20466229992027843
0.9597989949748744,-0.30522613065326637,0.20558739582299013
0.9773869346733668,-0.30522613065326637,0.20558739582299013
0.9949748743718594,-0.30522613065326637,0.2061502997160208
1.0125628140703518,-0.30522613065326637,0.20718279602326076
1.0301507537688441,-0.30522613065326637,0.20718279602326076
1.0477386934673367,-0.30522613065326637,0.20718279602326076
1.065326633165829,-0.30522613065326637,0.20718279602326076
1.0829145728643217,-0.30522613065326637,0.20718279602326076
1.100502512562814,-0.30522613065326637,0.20781041776569148
1.1180904522613064,-0.30522613065326637,0.20861382056004518
1.135678391959799,-0.30522613065326637,0.20861382056004518
1.1532663316582914,-0.30522613065326637,0.20777860690993158
1.170854271356784,-0.30522613065326637,0.20777860690993158
1.1884422110552764,-0.30522613065326637,0.20777860690993158
1.2060301507537687,-0.30522613065326637,0.20777860690993158
1.2236180904522613,-0.30522613065326637,0.20777860690993158
1.2412060301507537,-0.30522613065326637,0.2068338937791656
1.2587939698492463,-0.30522613065326637,0.20535007673839156
1.2763819095477387,-0.30522613065326637,0.20535007673839156
1.293969849246231,-0.30522613065326637,0.20535007673839156
1.3115577889447236,-0.30522613065326637,0.20495832914911202
1.329145728643216,-0.30522613065326637,0.2048066684313925
1.3467336683417086,-0.30522613065326637,0.2048066684313925
1.364321608040201,-0.30522613065326637,0.20434382037741233
1.3819095477386933,-0.30522613065326637,0.20434382037741233
1.399497487437186,-0.30522613065326637,0.20434382037741233
1.4170854271356783,-0.30522613065326637,0.20434382037741233
1.434673366834171,-0.30522613065326637,0.20434382037741233
1.4522613065326633,-0.30522613065326637,0.2042024248800205
1.4698492462311559,-0.30522613065326637,0.20320504625219943
1.4874371859296482,-0.30522613065326637,0.20320504625219943
1.5050251256281406,-0.30522613065326637,0.20320504625219943
1.5226130653266332,-0.30522613065326637,0.20298267073642187
1.5402010050251258,-0.30522613065326637,0.20298267073642187
1.557788944723618,-0.30522613065326637,0.20429039383008857
1.5753768844221105,-0.30522613065326637,0.20417520688124186
1.5929648241206031,-0.30522613065326637,0.2036835962988203
1.6105527638190953,-0.30522613065326637,0.20377520836440008
1.6281407035175879,-0.30522613065326637,0.20445615044831972
1.6457286432160805,-0.30522613065326637,0.2055892383377031
1.6633165829145726,-0.30522613065326637,0.20553233106260316
1.6809045226130652,-0.30522613065326637,0.20597389728559928
1.6984924623115578,-0.30522613065326637,0.20537454388876936
1.7160804020100504,-0.30522613065326637,0.20537454388876936
1.7336683417085426,-0.30522613065326637,0.20570971731563453
1.7512562814070352,-0.30522613065326637,0.20621091303694888
1.7688442211055277,-0.30522613065326637,0.20621091303694888
1.78643216080402,-0.30522613065326637,0.20621091303694888
1.8040201005025125,-0.30522613065326637,0.20621091303694888
1.821608040201005,-0.30522613065326637,0.2060849901317236
1.8391959798994977,-0.30522613065326637,0.2060849901317236
1.8567839195979898,-0.30522613065326637,0.2060849901317236
1.8743718592964824,-0.30522613065326637,0.20701197068059804
1.891959798994975,-0.30522613065326637,0.20701197068059804
1.9095477386934672,-0.30522613065326637,0.2077645736585227
1.9271356783919598,-0.30522613065326637,0.2081092728220042
1.9447236180904524,-0.30522613065326637,0.2081092728220042
1.9623115577889445,-0.30522613065326637,0.2081092728220042
1.979899497487437,-0.30522613065326637,0.20856721569632816
1.9974874371859297,-0.30522613065326637,0.20998389690898991
2.0150753768844223,-0.30522613065326637,0.20998389690898991
2.0326633165829144,-0.30522613065326637,0.20998389690898991
2.050251256281407,-0.30522613065326637,0.20998389690898991
2.0678391959798996,-0.30522613065326637,0.20998389690898991
2.0854271356783918,-0.30522613065326637,0.21002374599729529
2.1030150753768844,-0.30522613065326637,0.21022694179700302
2.120603015075377,-0.30522613065326637,0.21022694179700302
2.138190954773869,-0.30522613065326637,0.21022694179700302
2.1557788944723617,-0.30522613065326637,0.21022694179700302
2.1733668341708543,-0.30522613065326637,0.21022694179700302
2.190954773869347,-0.30522613065326637,0.21022694179700302
2.208542713567839,-0.30522613065326637,0.21022694179700302
2.2261306532663316,-0.30522613065326637,0.21022694179700302
2.2437185929648242,-0.30522613065326637,0.21022694179700302
2.2613065326633164,-0.30522613065326637,0.21022694179700302
2.278894472361809,-0.30522613065326637,0.21022694179700302
2.2964824120603016,-0.30522613065326637,0.21022694179700302
2.3140703517587937,-0.30522613065326637,0.21022694179700302
2.3316582914572863,-0.30522613065326637,0.21022694179700302
2.349246231155779,-0.30522613065326637,0.21022694179700302
2.3668341708542715,-0.30522613065326637,0.21022694179700302
2.3844221105527637,-0.30522613065326637,0.21022694179700302
2.4020100502512562,-0.30522613065326637,0.21022694179700302
2.419597989949749,-0.30522613065326637,0.21022694179700302
2.437185929648241,-0.30522613065326637,0.21022694179700302
2.4547738693467336,-0.30522613065326637,0.21022694179700302
2.472361809045226,-0.30522613065326637,0.21022694179700302
2.4899497487437188,-0.30522613065326637,0.21022694179700302
2.507537688442211,-0.30522613065326637,0.21022694179700302
2.5251256281407035,-0.30522613065326637,0.21022694179700302
2.542713567839196,-0.30522613065326637,0.21022694179700302
2.5603015075376883,-0.30522613065326637,0.21022694179700302
2.577889447236181,-0.30522613065326637,0.21022694179700302
2.5954773869346734,-0.30522613065326637,0.21022694179700302
2.6130653266331656,-0.30522613065326637,0.21022694179700302
2.630653266331658,-0.30522613065326637,0.21022694179700302
2.648241206030151,-0.30522613065326637,0.21022694179700302
2.6658291457286434,-0.30522613065326637,0.21022694179700302
2.6834170854271355,-0.30522613065326637,0.21022694179700302
2.701005025125628,-0.30522613065326637,0.21022694179700302
2.7185929648241207,-0.30522613065326637,0.21022694179700302
2.736180904522613,-0.30522613065326637,0.21022694179700302
2.7537688442211055,-0.30522613065326637,0.21022694179700302
2.771356783919598,-0.30522613065326637,0.21022694179700302
2.78894472361809,-0.30522613065326637,0.21022694179700302
2.806532663316583,-0.30522613065326637,0.21022694179700302
2.8241206030150754,-0.30522613065326637,0.21022694179700302
2.841708542713568,-0.30522613065326637,0.21022694179700302
2.85929648241206,-0.30522613065326637,0.21022694179700302
2.8768844221105527,-0.30522613065326637,0.21022694179700302
2.8944723618090453,-0.30522613065326637,0.21022694179700302
2.9120603015075375,-0.30522613065326637,0.21022694179700302
2.92964824120603,-0.30522613065326637,0.21022694179700302
2.9472361809045227,-0.30522613065326637,0.21022694179700302
2.9648241206030153,-0.30522613065326637,0.21022694179700302
2.9824120603015074,-0.30522613065326637,0.21022694179700302
3.0,-0.30522613065326637,0.21022694179700302
-0.5,-0.29045226130653273,0.20200378095214577
-0.4824120603015075,-0.29045226130653273,0.20200378095214577
-0.4648241206030151,-0.29045226130653273,0.20200378095214577
-0.4472361809045226,-0.29045226130653273,0.20200378095214577
-0.4296482412060302,-0.29045226130653273,0.20200378095214577
-0.4120603015075377,-0.29045226130653273,0.20200378095214577
-0.3944723618090452,-0.29045226130653273,0.20200378095214577
-0.37688442211055273,-0.29045226130653273,0.20200378095214577
-0.3592964824120603,-0.29045226130653273,0.20200378095214577
-0.3417085427135679,-0.29045226130653273,0.20200378095214577
-0.3241206030150754,-0.29045226130653273,0.20200378095214577
-0.3065326633165829,-0.29045226130653273,0.20200378095214577
-0.2889447236180904,-0.29045226130653273,0.20200378095214577
-0.271356783919598,-0.29045226130653273,0.20200378095214577
-0.2537688442211055,-0.29045226130653273,0.20200378095214577
-0.2361809045226131,-0.29045226130653273,0.20200378095214577
-0.2185929648241206,-0.29045226130653273,0.20200378095214577
-0.20100502512562812,-0.29045226130653273,0.20200378095214577
-0.1834170854271357,-0.29045226130653273,0.20200378095214577
-0.1658291457286432,-0.29045226130653273,0.20200378095214577
-0.14824120603015079,-0.29045226130653273,0.20200378095214577
-0.1306532663316583,-0.29045226130653273,0.20200378095214577
-0.11306532663316582,-0.29045226130653273,0.20200378095214577
-0.09547738693467339,-0.29045226130653273,0.20200378095214577
-0.07788944723618091,-0.29045226130653273,0.20200378095214577
-0.060301507537688426,-0.29045226130653273,0.20200378095214577
-0.042713567839196,-0.29045226130653273,0.20200378095214577
-0.025125628140703515,-0.29045226130653273,0.20200378095214577
-0.007537688442211032,-0.29045226130653273,0.20200378095214577
0.01005025125628145,-0.29045226130653273,0.20200378095214577
0.027638190954773822,-0.29045226130653273,0.20200378095214577
0.045226130653266305,-0.29045226130653273,0.20200378095214577
0.06281407035175879,-0.29045226130653273,0.20200378095214577
0.08040201005025127,-0.29045226130653273,0.20200378095214577
0.09798994974874375,-0.29045226130653273,0.20200378095214577
0.11557788944723613,-0.29045226130653273,0.20200378095214577
0.1331658291457286,-0.29045226130653273,0.20200378095214577
0.1507537688442211,-0.29045226130653273,0.20200378095214577
0.16834170854271358,-0.29045226130653273,0.20200378095214577
0.18592964824120606,-0.29045226130653273,0.20200378095214577
0.20351758793969843,-0.29045226130653273,0.20200378095214577
0.2211055276381909,-0.29045226130653273,0.20179806229113056
0.2386934673366834,-0.29045226130653273,0.20231690309351125
0.2562814070351759,-0.29045226130653273,0.20301151217701233
0.27386934673366836,-0.29045226130653273,0.20301151217701233
0.29145728643216084,-0.29045226130653273,0.20347524015509952
0.3090452261306532,-0.29045226130653273,0.20338900088490122
0.3266331658291457,-0.29045226130653273,0.20338900088490122
0.3442211055276382,-0.29045226130653273,0.20338900088490122
0.36180904522613067,-0.29045226130653273,0.20338900088490122
0.37939698492462315,-0.29045226130653273,0.20301863164906625
0.3969849246231155,-0.29045226130653273,0.20301863164906625
0.414572864321608,-0.29045226130653273,0.20301863164906625
0.4321608040201005,-0.29045226130653273,0.20301863164906625
0.44974874371859297,-0.29045226130653273,0.20301863164906625
0.46733668341708545,-0.29045226130653273,0.202808688177167
0.48492462311557794,-0.29045226130653273,0.20218687057772491
0.5025125628140703,-0.29045226130653273,0.20122401237074747
0.5201005025125629,-0.29045226130653273,0.20122401237074747
0.5376884422110553,-0.29045226130653273,0.20122401237074747
0.5552763819095476,-0.29045226130653273,0.20103674175129332
0.5728643216080402,-0.29045226130653273,0.20035558485863608
0.5904522613065326,-0.29045226130653273,0.2001703494379508
0.6080402010050252,-0.29045226130653273,0.20046367275610105
0.6256281407035176,-0.29045226130653273,0.20046367275610105
0.64321608040201,-0.29045226130653273,0.20046367275610105
0.6608040201005025,-0.29045226130653273,0.19976414538036613
0.6783919597989949,-0.29045226130653273,0.19976414538036613
0.6959798994974875,-0.29045226130653273,0.19890068652103057
0.7135678391959799,-0.29045226130653273,0.19890068652103057
0.7311557788944723,-0.29045226130653273,0.19890068652103057
0.7487437185929648,-0.29045226130653273,0.19890068652103057
0.7663316582914572,-0.29045226130653273,0.19890068652103057
0.7839195979899498,-0.29045226130653273,0.19913748575603246
0.8015075376884422,-0.29045226130653273,0.19980267157507495
0.8190954773869346,-0.29045226130653273,0.20029926530186448
0.8366834170854272,-0.29045226130653273,0.20189549269288926
0.8542713567839195,-0.29045226130653273,0.20189549269288926
0.8718592964824121,-0.29045226130653273,0.20189549269288926
0.8894472361809045,-0.29045226130653273,0.20370957061224043
0.9070351758793969,-0.29045226130653273,0.20421415139086654
0.9246231155778895,-0.29045226130653273,0.20466229992027843
0.9422110552763818,-0.29045226130653273,0.20466229992027843
0.9597989949748744,-0.29045226130653273,0.20558739582299013
0.9773869346733668,-0.29045226130653273,0.20558739582299013
0.9949748743718594,-0.29045226130653273,0.2061502997160208
1.0125628140703518,-0.29045226130653273,0.20718279602326076
1.0301507537688441,-0.29045226130653273,0.20718279602326076
1.0477386934673367,-0.29045226130653273,0.20718279602326076
1.065326633165829,-0.29045226130653273,0.20718279602326076
1.0829145728643217,-0.29045226130653273,0.20718279602326076
1.100502512562814,-0.29045226130653273,0.20781041776569148
1.1180904522613064,-0.29045226130653273,0.20861382056004518
1.135678391959799,-0.29045226130653273,0.20861382056004518
1.1532663316582914,-0.29045226130653273,0.20777860690993158
1.170854271356784,-0.29045226130653273,0.20777860690993158
1.1884422110552764,-0.29045226130653273,0.20777860690993158
1.2060301507537687,-0.29045226130653273,0.20777860690993158
1.2236180904522613,-0.29045226130653273,0.20777860690993158
1.2412060301507537,-0.29045226130653273,0.2068338937791656
1.2587939698492463,-0.29045226130653273,0.20535007673839156
1.2763819095477387,-0.29045226130653273,0.20535007673839156
1.293969849246231,-0.29045226130653273,0.20535007673839156
1.3115577889447236,-0.29045226130653273,0.20495832914911202
1.329145728643216,-0.29045226130653273,0.2048066684313925
1.3467336683417086,-0.29045226130653273,0.2048066684313925
1.364321608040201,-0.29045226130653273,0.20434382037741233
1.3819095477386933,-0.29045226130653273,0.20434382037741233
1.399497487437186,-0.29045226130653273,0.20434382037741233
1.4170854271356783,-0.29045226130653273,0.20434382037741233
1.434673366834171,-0.29045226130653273,0.20434382037741233
1.4522613065326633,-0.29045226130653273,0.2042024248800205
1.4698492462311559,-0.29045226130653273,0.20320504625219943
1.4874371859296482,-0.29045226130653273,0.20320504625219943
1.5050251256281406,-0.29045226130653273,0.20320504625219943
1.5226130653266332,-0.29045226130653273,0.20298267073642187
1.5402010050251258,-0.29045226130653273,0.20298267073642187
1.557788944723618,-0.29045226130653273,0.20429039383008857
1.5753768844221105,-0.29045226130653273,0.20417520688124186
1.5929648241206031,-0.29045226130653273,0.2036835962988203
1.6105527638190953,-0.29045226130653273,0.20377520836440008
1.6281407035175879,-0.29045226130653273,0.20445615044831972
1.6457286432160805,-0.29045226130653273,0.2055892383377031
1.6633165829145726,-0.29045226130653273,0.20553233106260316
1.6809045226130652,-0.29045226130653273,0.20597389728559928
1.6984924623115578,-0.29045226130653273,0.20537454388876936
1.7160804020100504,-0.29045226130653273,0.20537454388876936
1.7336683417085426,-0.29045226130653273,0.20570971731563453
1.7512562814070352,-0.29045226130653273,0.20621091303694888
1.7688442211055277,-0.29045226130653273,0.20621091303694888
1.78643216080402,-0.29045226130653273,0.20621091303694888
1.8040201005025125,-0.29045226130653273,0.20621091303694888
1.821608040201005,-0.29045226130653273,0.2060849901317236
1.8391959798994977,-0.29045226130653273,0.2060849901317236
1.8567839195979898,-0.29045226130653273,0.2060849901317236
1.8743718592964824,-0.29045226130653273,0.20701197068059804
1.891959798994975,-0.29045226130653273,0.20701197068059804
1.9095477386934672,-0.29045226130653273,0.2077645736585227
1.9271356783919598,-0.29045226130653273,0.2081092728220042
1.9447236180904524,-0.29045226130653273,0.2081092728220042
1.9623115577889445,-0.29045226130653273,0.2081092728220042
1.979899497487437,-0.29045226130653273,0.20856721569632816
1.9974874371859297,-0.29045226130653273,0.20998389690898991
2.0150753768844223,-0.29045226130653273,0.20998389690898991
2.0326633165829144,-0.29045226130653273,0.20998389690898991
2.050251256281407,-0.29045226130653273,0.20998389690898991
2.0678391959798996,-0.29045226130653273,0.20998389690898991
2.0854271356783918,-0.29045226130653273,0.21002374599729529
2.1030150753768844,-0.29045226130653273,0.21022694179700302
2.120603015075377,-0.29045226130653273,0.21022694179700302
2.138190954773869,-0.29045226130653273,0.21022694179700302
2.1557788944723617,-0.29045226130653273,0.21022694179700302
2.1733668341708543,-0.29045226130653273,0.21022694179700302
2.190954773869347,-0.29045226130653273,0.21022694179700302
2.208542713567839,-0.29045226130653273,0.21022694179700302
2.2261306532663316,-0.29045226130653273,0.21022694179700302
2.2437185929648242,-0.29045226130653273,0.21022694179700302
2.2613065326633164,-0.29045226130653273,0.21022694179700302
2.278894472361809,-0.29045226130653273,0.21022694179700302
2.2964824120603016,-0.29045226130653273,0.21022694179700302
2.3140703517587937,-0.29045226130653273,0.21022694179700302
2.3316582914572863,-0.29045226130653273,0.21022694179700302
2.349246231155779,-0.29045226130653273,0.21022694179700302
2.3668341708542715,-0.29045226130653273,0.21022694179700302
2.3844221105527637,-0.29045226130653273,0.21022694179700302
2.4020100502512562,-0.29045226130653273,0.21022694179700302
2.419597989949749,-0.29045226130653273,0.21022694179700302
2.437185929648241,-0.29045226130653273,0.21022694179700302
2.4547738693467336,-0.29045226130653273,0.21022694179700302
2.472361809045226,-0.29045226130653273,0.21022694179700302
2.4899497487437188,-0.29045226130653273,0.21022694179700302
2.507537688442211,-0.29045226130653273,0.21022694179700302
2.5251256281407035,-0.29045226130653273,0.21022694179700302
2.542713567839196,-0.29045226130653273,0.21022694179700302
2.5603015075376883,-0.29045226130653273,0.21022694179700302
2.577889447236181,-0.29045226130653273,0.21022694179700302
2.5954773869346734,-0.29045226130653273,0.21022694179700302
2.6130653266331656,-0.29045226130653273,0.21022694179700302
2.630653266331658,-0.29045226130653273,0.21022694179700302
2.648241206030151,-0.29045226130653273,0.21022694179700302
2.6658291457286434,-0.29045226130653273,0.21022694179700302
2.6834170854271355,-0.29045226130653273,0.21022694179700302
2.701005025125628,-0.29045226130653273,0.21022694179700302
2.7185929648241207,-0.29045226130653273,0.21022694179700302
2.736180904522613,-0.29045226130653273,0.21022694179700302
2.7537688442211055,-0.29045226130653273,0.21022694179700302
2.771356783919598,-0.29045226130653273,0.21022694179700302
2.78894472361809,-0.29045226130653273,0.21022694179700302
2.806532663316583,-0.29045226130653273,0.21022694179700302
2.8241206030150754,-0.29045226130653273,0.21022694179700302
2.841708542713568,-0.29045226130653273,0.21022694179700302
2.85929648241206,-0.29045226130653273,0.21022694179700302
2.8768844221105527,-0.29045226130653273,0.21022694179700302
2.8944723618090453,-0.29045226130653273,0.21022694179700302
2.9120603015075375,-0.29045226130653273,0.21022694179700302
2.92964824120603,-0.29045226130653273,0.21022694179700302
2.9472361809045227,-0.29045226130653273,0.21022694179700302
2.9648241206030153,-0.29045226130653273,0.21022694179700302
2.9824120603015074,-0.29045226130653273,0.21022694179700302
3.0,-0.29045226130653273,0.21022694179700302
-0.5,-0.27567839195979904,0.20200378095214577
-0.4824120603015075,-0.27567839195979904,0.20200378095214577
-0.4648241206030151,-0.27567839195979904,0.20200378095214577
-0.4472361809045226,-0.27567839195979904,0.20200378095214577
-0.4296482412060302,-0.27567839195979904,0.20200378095214577
-0.4120603015075377,-0.27567839195979904,0.20200378095214577
-0.3944723618090452,-0.27567839195979904,0.20200378095214577
-0.37688442211055273,-0.27567839195979904,0.20200378095214577
-0.3592964824120603,-0.27567839195979904,0.20200378095214577
-0.3417085427135679,-0.27567839195979904,0.20200378095214577
-0.3241206030150754,-0.27567839195979904,0.20200378095214577
-0.3065326633165829,-0.27567839195979904,0.20200378095214577
-0.2889447236180904,-0.27567839195979904,0.20200378095214577
-0.271356783919598,-0.27567839195979904,0.20200378095214577
-0.2537688442211055,-0.27567839195979904,0.20200378095214577
-0.2361809045226131,-0.27567839195979904,0.20200378095214577
-0.2185929648241206,-0.27567839195979904,0.20200378095214577
-0.20100502512562812,-0.27567839195979904,0.20200378095214577
-0.1834170854271357,-0.27567839195979904,0.20200378095214577
-0.1658291457286432,-0.27567839195979904,0.20200378095214577
-0.14824120603015079,-0.27567839195979904,0.20200378095214577
-0.1306532663316583,-0.27567839195979904,0.20200378095214577
-0.11306532663316582,-0.27567839195979904,0.20200378095214577
-0.09547738693467339,-0.27567839195979904,0.20200378095214577
-0.07788944723618091,-0.27567839195979904,0.20200378095214577
-0.060301507537688426,-0.27567839195979904,0.20200378095214577
-0.042713567839196,-0.27567839195979904,0.20200378095214577
-0.025125628140703515,-0.27567839195979904,0.20200378095214577
-0.007537688442211032,-0.27567839195979904,0.20200378095214577
0.01005025125628145,-0.27567839195979904,0.20200378095214577
0.027638190954773822,-0.27567839195979904,0.20200378095214577
0.045226130653266305,-0.27567839195979904,0.20200378095214577
0.06281407035175879,-0.27567839195979904,0.20200378095214577
0.08040201005025127,-0.27567839195979904,0.20200378095214577
0.09798994974874375,-0.27567839195979904,0.20200378095214577
0.11557788944723613,-0.27567839195979904,0.20200378095214577
0.1331658291457286,-0.27567839195979904,0.20200378095214577
0.1507537688442211,-0.27567839195979904,0.20200378095214577
0.16834170854271358,-0.27567839195979904,0.20200378095214577
0.18592964824120606,-0.27567839195979904,0.20200378095214577
0.20351758793969843,-0.27567839195979904,0.20200378095214577
0.2211055276381909,-0.27567839195979904,0.20179806229113056
0.2386934673366834,-0.27567839195979904,0.20231690309351125
0.2562814070351759,-0.27567839195979904,0.20301151217701233
0.27386934673366836,-0.27567839195979904,0.20301151217701233
0.29145728643216084,-0.27567839195979904,0.20347524015509952
0.3090452261306532,-0.27567839195979904,0.20338900088490122
0.3266331658291457,-0.27567839195979904,0.20338900088490122
0.3442211055276382,-0.27567839195979904,0.20338900088490122
0.36180904522613067,-0.27567839195979904,0.20338900088490122
0.37939698492462315,-0.27567839195979904,0.20301863164906625
0.3969849246231155,-0.27567839195979904,0.20301863164906625
0.414572864321608,-0.27567839195979904,0.20301863164906625
0.4321608040201005,-0.27567839195979904,0.20301863164906625
0.44974874371859297,-0.27567839195979904,0.20301863164906625
0.46733668341708545,-0.27567839195979904,0.202808688177167
0.48492462311557794,-0.27567839195979904,0.20218687057772491
0.5025125628140703,-0.27567839195979904,0.20122401237074747
0.5201005025125629,-0.27567839195979904,0.20122401237074747
0.5376884422110553,-0.27567839195979904,0.20122401237074747
0.5552763819095476,-0.27567839195979904,0.20103674175129332
0.5728643216080402,-0.27567839195979904,0.20035558485863608
0.5904522613065326,-0.27567839195979904,0.2001703494379508
0.6080402010050252,-0.27567839195979904,0.20046367275610105
0.6256281407035176,-0.27567839195979904,0.20046367275610105
0.64321608040201,-0.27567839195979904,0.20046367275610105
0.6608040201005025,-0.27567839195979904,0.19976414538036613
0.6783919597989949,-0.27567839195979904,0.19976414538036613
0.6959798994974875,-0.27567839195979904,0.19890068652103057
0.7135678391959799,-0.27567839195979904,0.19890068652103057
0.7311557788944723,-0.27567839195979904,0.19890068652103057
0.7487437185929648,-0.27567839195979904,0.19890068652103057
0.7663316582914572,-0.27567839195979904,0.19890068652103057
0.7839195979899498,-0.27567839195979904,0.19913748575603246
0.8015075376884422,-0.27567839195979904,0.19980267157507495
0.8190954773869346,-0.27567839195979904,0.20029926530186448
0.8366834170854272,-0.27567839195979904,0.20189549269288926
0.8542713567839195,-0.27567839195979904,0.20189549269288926
0.8718592964824121,-0.27567839195979904,0.20189549269288926
0.8894472361809045,-0.27567839195979904,0.20370957061224043
0.9070351758793969,-0.27567839195979904,0.20421415139086654
0.9246231155778895,-0.27567839195979904,0.20466229992027843
0.9422110552763818,-0.27567839195979904,0.20466229992027843
0.9597989949748744,-0.27567839195979904,0.20558739582299013
0.9773869346733668,-0.27567839195979904,0.20558739582299013
0.9949748743718594,-0.27567839195979904,0.2061502997160208
1.0125628140703518,-0.27567839195979904,0.20718279602326076
1.0301507537688441,-0.27567839195979904,0.20718279602326076
1.0477386934673367,-0.27567839195979904,0.20718279602326076
1.065326633165829,-0.27567839195979904,0.20718279602326076
1.0829145728643217,-0.27567839195979904,0.20718279602326076
1.100502512562814,-0.27567839195979904,0.20781041776569148
1.1180904522613064,-0.27567839195979904,0.20861382056004518
1.135678391959799,-0.27567839195979904,0.20861382056004518
1.1532663316582914,-0.27567839195979904,0.20777860690993158
1.170854271356784,-0.27567839195979904,0.20777860690993158
1.1884422110552764,-0.27567839195979904,0.20777860690993158
1.2060301507537687,-0.27567839195979904,0.20777860690993158
1.2236180904522613,-0.27567839195979904,0.20777860690993158
1.2412060301507537,-0.27567839195979904,0.2068338937791656
1.2587939698492463,-0.27567839195979904,0.20535007673839156
1.2763819095477387,-0.27567839195979904,0.20535007673839156
1.293969849246231,-0.27567839195979904,0.20535007673839156
1.3115577889447236,-0.27567839195979904,0.20495832914911202
1.329145728643216,-0.27567839195979904,0.2048066684313925
1.3467336683417086,-0.27567839195979904,0.2048066684313925
1.364321608040201,-0.27567839195979904,0.20434382037741233
1.3819095477386933,-0.27567839195979904,0.20434382037741233
1.399497487437186,-0.27567839195979904,0.20434382037741233
1.4170854271356783,-0.27567839195979904,0.20434382037741233
1.434673366834171,-0.27567839195979904,0.20434382037741233
1.4522613065326633,-0.27567839195979904,0.2042024248800205
1.4698492462311559,-0.27567839195979904,0.20320504625219943
1.4874371859296482,-0.27567839195979904,0.20320504625219943
1.5050251256281406,-0.27567839195979904,0.20320504625219943
1.5226130653266332,-0.27567839195979904,0.20298267073642187
1.5402010050251258,-0.27567839195979904,0.20298267073642187
1.557788944723618,-0.27567839195979904,0.20429039383008857
1.5753768844221105,-0.27567839195979904,0.20417520688124186
1.5929648241206031,-0.27567839195979904,0.2036835962988203
1.6105527638190953,-0.27567839195979904,0.20377520836440008
1.6281407035175879,-0.27567839195979904,0.20445615044831972
1.6457286432160805,-0.27567839195979904,0.2055892383377031
1.6633165829145726,-0.27567839195979904,0.20553233106260316
1.6809045226130652,-0.27567839195979904,0.20597389728559928
1.6984924623115578,-0.27567839195979904,0.20537454388876936
1.7160804020100504,-0.27567839195979904,0.20537454388876936
1.7336683417085426,-0.27567839195979904,0.20570971731563453
1.7512562814070352,-0.27567839195979904,0.20621091303694888
1.7688442211055277,-0.27567839195979904,0.20621091303694888
1.78643216080402,-0.27567839195979904,0.20621091303694888
1.8040201005025125,-0.27567839195979904,0.20621091303694888
1.821608040201005,-0.27567839195979904,0.2060849901317236
1.8391959798994977,-0.27567839195979904,0.2060849901317236
1.8567839195979898,-0.27567839195979904,0.2060849901317236
1.8743718592964824,-0.27567839195979904,0.20701197068059804
1.891959798994975,-0.27567839195979904,0.20701197068059804
1.9095477386934672,-0.27567839195979904,0.2077645736585227
1.9271356783919598,-0.27567839195979904,0.2081092728220042
1.9447236180904524,-0.27567839195979904,0.2081092728220042
1.9623115577889445,-0.27567839195979904,0.2081092728220042
1.979899497487437,-0.27567839195979904,0.20856721569632816
1.9974874371859297,-0.27567839195979904,0.20998389690898991
2.0150753768844223,-0.27567839195979904,0.20998389690898991
2.0326633165829144,-0.27567839195979904,0.20998389690898991
2.050251256281407,-0.27567839195979904,0.20998389690898991
2.0678391959798996,-0.27567839195979904,0.20998389690898991
2.0854271356783918,-0.27567839195979904,0.21002374599729529
2.1030150753768844,-0.27567839195979904,0.21022694179700302
2.120603015075377,-0.27567839195979904,0.21022694179700302
2.138190954773869,-0.27567839195979904,0.21022694179700302
2.1557788944723617,-0.27567839195979904,0.21022694179700302
2.1733668341708543,-0.27567839195979904,0.21022694179700302
2.190954773869347,-0.27567839195979904,0.21022694179700302
2.208542713567839,-0.27567839195979904,0.21022694179700302
2.2261306532663316,-0.27567839195979904,0.21022694179700302
2.2437185929648242,-0.27567839195979904,0.21022694179700302
2.2613065326633164,-0.27567839195979904,0.21022694179700302
2.278894472361809,-0.27567839195979904,0.21022694179700302
2.2964824120603016,-0.27567839195979904,0.21022694179700302
2.3140703517587937,-0.27567839195979904,0.21022694179700302
2.3316582914572863,-0.27567839195979904,0.21022694179700302
2.349246231155779,-0.27567839195979904,0.21022694179700302
2.3668341708542715,-0.27567839195979904,0.21022694179700302
2.3844221105527637,-0.27567839195979904,0.21022694179700302
2.4020100502512562,-0.27567839195979904,0.21022694179700302
2.419597989949749,-0.27567839195979904,0.21022694179700302
2.437185929648241,-0.27567839195979904,0.21022694179700302
2.4547738693467336,-0.27567839195979904,0.21022694179700302
2.472361809045226,-0.27567839195979904,0.21022694179700302
2.4899497487437188,-0.27567839195979904,0.21022694179700302
2.507537688442211,-0.27567839195979904,0.21022694179700302
2.5251256281407035,-0.27567839195979904,0.21022694179700302
2.542713567839196,-0.27567839195979904,0.21022694179700302
2.5603015075376883,-0.27567839195979904,0.21022694179700302
2.577889447236181,-0.27567839195979904,0.21022694179700302
2.5954773869346734,-0.27567839195979904,0.21022694179700302
2.6130653266331656,-0.27567839195979904,0.21022694179700302
2.630653266331658,-0.27567839195979904,0.21022694179700302
2.648241206030151,-0.27567839195979904,0.21022694179700302
2.6658291457286434,-0.27567839195979904,0.21022694179700302
2.6834170854271355,-0.27567839195979904,0.21022694179700302
2.701005025125628,-0.27567839195979904,0.21022694179700302
2.7185929648241207,-0.27567839195979904,0.21022694179700302
2.736180904522613,-0.27567839195979904,0.21022694179700302
2.7537688442211055,-0.27567839195979904,0.21022694179700302
2.771356783919598,-0.27567839195979904,0.21022694179700302
2.78894472361809,-0.27567839195979904,0.21022694179700302
2.806532663316583,-0.27567839195979904,0.21022694179700302
2.8241206030150754,-0.27567839195979904,0.21022694179700302
2.841708542713568,-0.27567839195979904,0.21022694179700302
2.85929648241206,-0.27567839195979904,0.21022694179700302
2.8768844221105527,-0.27567839195979904,0.21022694179700302
2.8944723618090453,-0.27567839195979904,0.21022694179700302
2.9120603015075375,-0.27567839195979904,0.21022694179700302
2.92964824120603,-0.27567839195979904,0.21022694179700302
2.9472361809045227,-0.27567839195979904,0.21022694179700302
2.9648241206030153,-0.27567839195979904,0.21022694179700302
2.9824120603015074,-0.27567839195979904,0.21022694179700302
3.0,-0.27567839195979904,0.21022694179700302
-0.5,-0.2609045226130654,0.20200378095214577
-0.4824120603015075,-0.2609045226130654,0.20200378095214577
-0.4648241206030151,-0.2609045226130654,0.20200378095214577
-0.4472361809045226,-0.2609045226130654,0.20200378095214577
-0.4296482412060302,-0.2609045226130654,0.20200378095214577
-0.4120603015075377,-0.2609045226130654,0.20200378095214577
-0.3944723618090452,-0.2609045226130654,0.20200378095214577
-0.37688442211055273,-0.2609045226130654,0.20200378095214577
-0.3592964824120603,-0.2609045226130654,0.20200378095214577
-0.3417085427135679,-0.2609045226130654,0.20200378095214577
-0.3241206030150754,-0.2609045226130654,0.20200378095214577
-0.3065326633165829,-0.2609045226130654,0.20200378095214577
-0.2889447236180904,-0.2609045226130654,0.20200378095214577
-0.271356783919598,-0.2609045226130654,0.20200378095214577
-0.2537688442211055,-0.2609045226130654,0.20200378095214577
-0.2361809045226131,-0.2609045226130654,0.20200378095214577
-0.2185929648241206,-0.2609045226130654,0.20200378095214577
-0.20100502512562812,-0.2609045226130654,0.20200378095214577
-0.1834170854271357,-0.2609045226130654,0.20200378095214577
-0.1658291457286432,-0.2609045226130654,0.20200378095214577
-0.14824120603015079,-0.2609045226130654,0.20200378095214577
-0.1306532663316583,-0.2609045226130654,0.20200378095214577
-0.11306532663316582,-0.2609045226130654,0.20200378095214577
-0.09547738693467339,-0.2609045226130654,0.20200378095214577
-0.07788944723618091,-0.2609045226130654,0.20200378095214577
-0.060301507537688426,-0.2609045226130654,0.20200378095214577
-0.042713567839196,-0.2609045226130654,0.20200378095214577
-0.025125628140703515,-0.2609045226130654,0.20200378095214577
-0.007537688442211032,-0.2609045226130654,0.20200378095214577
0.01005025125628145,-0.2609045226130654,0.20200378095214577
0.027638190954773822,-0.2609045226130654,0.20200378095214577
0.045226130653266305,-0.2609045226130654,0.20200378095214577
0.06281407035175879,-0.2609045226130654,0.20200378095214577
0.08040201005025127,-0.2609045226130654,0.20200378095214577
0.09798994974874375,-0.2609045226130654,0.20200378095214577
0.11557788944723613,-0.2609045226130654,0.20200378095214577
0.1331658291457286,-0.2609045226130654,0.20200378095214577
0.1507537688442211,-0.2609045226130654,0.20200378095214577
0.16834170854271358,-0.2609045226130654,0.20200378095214577
0.18592964824120606,-0.2609045226130654,0.20200378095214577
0.20351758793969843,-0.2609045226130654,0.20200378095214577
0.2211055276381909,-0.2609045226130654,0.20179806229113056
0.2386934673366834,-0.2609045226130654,0.20231690309351125
0.2562814070351759,-0.2609045226130654,0.20301151217701233
0.27386934673366836,-0.2609045226130654,0.20301151217701233
0.29145728643216084,-0.2609045226130654,0.20347524015509952
0.3090452261306532,-0.2609045226130654,0.20338900088490122
0.3266331658291457,-0.2609045226130654,0.20338900088490122
0.3442211055276382,-0.2609045226130654,0.20338900088490122
0.36180904522613067,-0.2609045226130654,0.20338900088490122
0.37939698492462315,-0.2609045226130654,0.20301863164906625
0.3969849246231155,-0.2609045226130654,0.20301863164906625
0.414572864321608,-0.2609045226130654,0.20301863164906625
0.4321608040201005,-0.2609045226130654,0.20301863164906625
0.44974874371859297,-0.2609045226130654,0.20301863164906625
0.46733668341708545,-0.2609045226130654,0.202808688177167
0.48492462311557794,-0.2609045226130654,0.20218687057772491
0.5025125628140703,-0.2609045226130654,0.20122401237074747
0.5201005025125629,-0.2609045226130654,0.20122401237074747
0.5376884422110553,-0.2609045226130654,0.20122401237074747
0.5552763819095476,-0.2609045226130654,0.20103674175129332
0.5728643216080402,-0.2609045226130654,0.20035558485863608
0.5904522613065326,-0.2609045226130654,0.2001703494379508
0.6080402010050252,-0.2609045226130654,0.20046367275610105
0.6256281407035176,-0.2609045226130654,0.20046367275610105
0.64321608040201,-0.2609045226130654,0.20046367275610105
0.6608040201005025,-0.2609045226130654,0.19976414538036613
0.6783919597989949,-0.2609045226130654,0.19976414538036613
0.6959798994974875,-0.2609045226130654,0.19890068652103057
0.7135678391959799,-0.2609045226130654,0.19890068652103057
0.7311557788944723,-0.2609045226130654,0.19890068652103057
0.7487437185929648,-0.2609045226130654,0.19890068652103057
0.7663316582914572,-0.2609045226130654,0.19890068652103057
0.7839195979899498,-0.2609045226130654,0.19913748575603246
0.8015075376884422,-0.2609045226130654,0.19980267157507495
0.8190954773869346,-0.2609045226130654,0.20029926530186448
0.8366834170854272,-0.2609045226130654,0.20189549269288926
0.8542713567839195,-0.2609045226130654,0.20189549269288926
0.8718592964824121,-0.2609045226130654,0.20189549269288926
0.8894472361809045,-0.2609045226130654,0.20370957061224043
0.9070351758793969,-0.2609045226130654,0.20421415139086654
0.9246231155778895,-0.2609045226130654,0.20466229992027843
0.9422110552763818,-0.2609045226130654,0.20466229992027843
0.9597989949748744,-0.2609045226130654,0.20558739582299013
0.9773869346733668,-0.2609045226130654,0.20558739582299013
0.9949748743718594,-0.2609045226130654,0.2061502997160208
1.0125628140703518,-0.2609045226130654,0.20718279602326076
1.0301507537688441,-0.2609045226130654,0.20718279602326076
1.0477386934673367,-0.2609045226130654,0.20718279602326076
1.065326633165829,-0.2609045226130654,0.20718279602326076
1.0829145728643217,-0.2609045226130654,0.20718279602326076
1.100502512562814,-0.2609045226130654,0.20781041776569148
1.1180904522613064,-0.2609045226130654,0.20861382056004518
1.135678391959799,-0.2609045226130654,0.20861382056004518
1.1532663316582914,-0.2609045226130654,0.20777860690993158
1.170854271356784,-0.2609045226130654,0.20777860690993158
1.1884422110552764,-0.2609045226130654,0.20777860690993158
1.2060301507537687,-0.2609045226130654,0.20777860690993158
1.2236180904522613,-0.2609045226130654,0.20777860690993158
1.2412060301507537,-0.2609045226130654,0.2068338937791656
1.2587939698492463,-0.2609045226130654,0.20535007673839156
1.2763819095477387,-0.2609045226130654,0.20535007673839156
1.293969849246231,-0.2609045226130654,0.20535007673839156
1.3115577889447236,-0.2609045226130654,0.20495832914911202
1.329145728643216,-0.2609045226130654,0.2048066684313925
1.3467336683417086,-0.2609045226130654,0.2048066684313925
1.364321608040201,-0.2609045226130654,0.20434382037741233
1.3819095477386933,-0.2609045226130654,0.20434382037741233
1.399497487437186,-0.2609045226130654,0.20434382037741233
1.4170854271356783,-0.2609045226130654,0.20434382037741233
1.434673366834171,-0.2609045226130654,0.20434382037741233
1.4522613065326633,-0.2609045226130654,0.2042024248800205
1.4698492462311559,-0.2609045226130654,0.20320504625219943
1.4874371859296482,-0.2609045226130654,0.20320504625219943
1.5050251256281406,-0.2609045226130654,0.20320504625219943
1.5226130653266332,-0.2609045226130654,0.20298267073642187
1.5402010050251258,-0.2609045226130654,0.20298267073642187
1.557788944723618,-0.2609045226130654,0.20429039383008857
1.5753768844221105,-0.2609045226130654,0.20417520688124186
1.5929648241206031,-0.2609045226130654,0.2036835962988203
1.6105527638190953,-0.2609045226130654,0.20377520836440008
1.6281407035175879,-0.2609045226130654,0.20445615044831972
1.6457286432160805,-0.2609045226130654,0.2055892383377031
1.6633165829145726,-0.2609045226130654,0.20553233106260316
1.6809045226130652,-0.2609045226130654,0.20597389728559928
1.6984924623115578,-0.2609045226130654,0.20537454388876936
1.7160804020100504,-0.2609045226130654,0.20537454388876936
1.7336683417085426,-0.2609045226130654,0.20570971731563453
1.7512562814070352,-0.2609045226130654,0.20621091303694888
1.7688442211055277,-0.2609045226130654,0.20621091303694888
1.78643216080402,-0.2609045226130654,0.20621091303694888
1.8040201005025125,-0.2609045226130654,0.20621091303694888
1.821608040201005,-0.2609045226130654,0.2060849901317236
1.8391959798994977,-0.2609045226130654,0.2060849901317236
1.8567839195979898,-0.2609045226130654,0.2060849901317236
1.8743718592964824,-0.2609045226130654,0.20701197068059804
1.891959798994975,-0.2609045226130654,0.20701197068059804
1.9095477386934672,-0.2609045226130654,0.2077645736585227
1.9271356783919598,-0.2609045226130654,0.2081092728220042
1.9447236180904524,-0.2609045226130654,0.2081092728220042
1.9623115577889445,-0.2609045226130654,0.2081092728220042
1.979899497487437,-0.2609045226130654,0.20856721569632816
1.9974874371859297,-0.2609045226130654,0.20998389690898991
2.0150753768844223,-0.2609045226130654,0.20998389690898991
2.0326633165829144,-0.2609045226130654,0.20998389690898991
2.050251256281407,-0.2609045226130654,0.20998389690898991
2.0678391959798996,-0.2609045226130654,0.20998389690898991
2.0854271356783918,-0.2609045226130654,0.21002374599729529
2.1030150753768844,-0.2609045226130654,0.21022694179700302
2.120603015075377,-0.2609045226130654,0.21022694179700302
2.138190954773869,-0.2609045226130654,0.21022694179700302
2.1557788944723617,-0.2609045226130654,0.21022694179700302
2.1733668341708543,-0.2609045226130654,0.21022694179700302
2.190954773869347,-0.2609045226130654,0.21022694179700302
2.208542713567839,-0.2609045226130654,0.21022694179700302
2.2261306532663316,-0.2609045226130654,0.21022694179700302
2.2437185929648242,-0.2609045226130654,0.21022694179700302
2.2613065326633164,-0.2609045226130654,0.21022694179700302
2.278894472361809,-0.2609045226130654,0.21022694179700302
2.2964824120603016,-0.2609045226130654,0.21022694179700302
2.3140703517587937,-0.2609045226130654,0.21022694179700302
2.3316582914572863,-0.2609045226130654,0.21022694179700302
2.349246231155779,-0.2609045226130654,0.21022694179700302
2.3668341708542715,-0.2609045226130654,0.21022694179700302
2.3844221105527637,-0.2609045226130654,0.21022694179700302
2.4020100502512562,-0.2609045226130654,0.21022694179700302
2.419597989949749,-0.2609045226130654,0.21022694179700302
2.437185929648241,-0.2609045226130654,0.21022694179700302
2.4547738693467336,-0.2609045226130654,0.21022694179700302
2.472361809045226,-0.2609045226130654,0.21022694179700302
2.4899497487437188,-0.2609045226130654,0.21022694179700302
2.507537688442211,-0.2609045226130654,0.21022694179700302
2.5251256281407035,-0.2609045226130654,0.21022694179700302
2.542713567839196,-0.2609045226130654,0.21022694179700302
2.5603015075376883,-0.2609045226130654,0.21022694179700302
2.577889447236181,-0.2609045226130654,0.21022694179700302
2.5954773869346734,-0.2609045226130654,0.21022694179700302
2.6130653266331656,-0.2609045226130654,0.21022694179700302
2.630653266331658,-0.2609045226130654,0.21022694179700302
2.648241206030151,-0.2609045226130654,0.21022694179700302
2.6658291457286434,-0.2609045226130654,0.21022694179700302
2.6834170854271355,-0.2609045226130654,0.21022694179700302
2.701005025125628,-0.2609045226130654,0.21022694179700302
2.7185929648241207,-0.2609045226130654,0.21022694179700302
2.736180904522613,-0.2609045226130654,0.21022694179700302
2.7537688442211055,-0.2609045226130654,0.21022694179700302
2.771356783919598,-0.2609045226130654,0.21022694179700302
2.78894472361809,-0.2609045226130654,0.21022694179700302
2.806532663316583,-0.2609045226130654,0.21022694179700302
2.8241206030150754,-0.2609045226130654,0.21022694179700302
2.841708542713568,-0.2609045226130654,0.21022694179700302
2.85929648241206,-0.2609045226130654,0.21022694179700302
2.8768844221105527,-0.2609045226130654,0.21022694179700302
2.8944723618090453,-0.2609045226130654,0.21022694179700302
2.9120603015075375,-0.2609045226130654,0.21022694179700302
2.92964824120603,-0.2609045226130654,0.21022694179700302
2.9472361809045227,-0.2609045226130654,0.21022694179700302
2.9648241206030153,-0.2609045226130654,0.21022694179700302
2.9824120603015074,-0.2609045226130654,0.21022694179700302
3.0,-0.2609045226130654,0.21022694179700302
-0.5,-0.2461306532663317,0.20200378095214577
-0.4824120603015075,-0.2461306532663317,0.20200378095214577
-0.4648241206030151,-0.2461306532663317,0.20200378095214577
-0.4472361809045226,-0.2461306532663317,0.20200378095214577
-0.4296482412060302,-0.2461306532663317,0.20200378095214577
-0.4120603015075377,-0.2461306532663317,0.20200378095214577
-0.3944723618090452,-0.2461306532663317,0.20200378095214577
-0.37688442211055273,-0.2461306532663317,0.20200378095214577
-0.3592964824120603,-0.2461306532663317,0.20200378095214577
-0.3417085427135679,-0.2461306532663317,0.20200378095214577
-0.3241206030150754,-0.2461306532663317,0.20200378095214577
-0.3065326633165829,-0.2461306532663317,0.20200378095214577
-0.2889447236180904,-0.2461306532663317,0.20200378095214577
-0.271356783919598,-0.2461306532663317,0.20200378095214577
-0.2537688442211055,-0.2461306532663317,0.20200378095214577
-0.2361809045226131,-0.2461306532663317,0.20200378095214577
-0.2185929648241206,-0.2461306532663317,0.20200378095214577
-0.20100502512562812,-0.2461306532663317,0.20200378095214577
-0.1834170854271357,-0.2461306532663317,0.20200378095214577
-0.1658291457286432,-0.2461306532663317,0.20200378095214577
-0.14824120603015079,-0.2461306532663317,0.20200378095214577
-0.1306532663316583,-0.2461306532663317,0.20200378095214577
-0.11306532663316582,-0.2461306532663317,0.20200378095214577
-0.09547738693467339,-0.2461306532663317,0.20200378095214577
-0.07788944723618091,-0.2461306532663317,0.20200378095214577
-0.060301507537688426,-0.2461306532663317,0.20200378095214577
-0.042713567839196,-0.2461306532663317,0.20200378095214577
-0.025125628140703515,-0.2461306532663317,0.20200378095214577
-0.007537688442211032,-0.2461306532663317,0.20200378095214577
0.01005025125628145,-0.2461306532663317,0.20200378095214577
0.027638190954773822,-0.2461306532663317,0.20200378095214577
0.045226130653266305,-0.2461306532663317,0.20200378095214577
0.06281407035175879,-0.2461306532663317,0.20200378095214577
0.08040201005025127,-0.2461306532663317,0.20200378095214577
0.09798994974874375,-0.2461306532663317,0.20200378095214577
0.11557788944723613,-0.2461306532663317,0.20200378095214577
0.1331658291457286,-0.2461306532663317,0.20200378095214577
0.1507537688442211,-0.2461306532663317,0.20200378095214577
0.16834170854271358,-0.2461306532663317,0.20200378095214577
0.18592964824120606,-0.2461306532663317,0.20200378095214577
0.20351758793969843,-0.2461306532663317,0.20200378095214577
0.2211055276381909,-0.2461306532663317,0.20179806229113056
0.2386934673366834,-0.2461306532663317,0.20231690309351125
0.2562814070351759,-0.2461306532663317,0.20301151217701233
0.27386934673366836,-0.2461306532663317,0.20301151217701233
0.29145728643216084,-0.2461306532663317,0.20347524015509952
0.3090452261306532,-0.2461306532663317,0.20338900088490122
0.3266331658291457,-0.2461306532663317,0.20338900088490122
0.3442211055276382,-0.2461306532663317,0.20338900088490122
0.36180904522613067,-0.2461306532663317,0.20338900088490122
0.37939698492462315,-0.2461306532663317,0.20301863164906625
0.3969849246231155,-0.2461306532663317,0.20301863164906625
0.414572864321608,-0.2461306532663317,0.20301863164906625
0.4321608040201005,-0.2461306532663317,0.20301863164906625
0.44974874371859297,-0.2461306532663317,0.20301863164906625
0.46733668341708545,-0.2461306532663317,0.202808688177167
0.48492462311557794,-0.2461306532663317,0.20218687057772491
0.5025125628140703,-0.2461306532663317,0.20122401237074747
0.5201005025125629,-0.2461306532663317,0.20122401237074747
0.5376884422110553,-0.2461306532663317,0.20122401237074747
0.5552763819095476,-0.2461306532663317,0.20103674175129332
0.5728643216080402,-0.2461306532663317,0.20035558485863608
0.5904522613065326,-0.2461306532663317,0.2001703494379508
0.6080402010050252,-0.2461306532663317,0.20046367275610105
0.6256281407035176,-0.2461306532663317,0.20046367275610105
0.64321608040201,-0.2461306532663317,0.20046367275610105
0.6608040201005025,-0.2461306532663317,0.19976414538036613
0.6783919597989949,-0.2461306532663317,0.19976414538036613
0.6959798994974875,-0.2461306532663317,0.19890068652103057
0.7135678391959799,-0.2461306532663317,0.19890068652103057
0.7311557788944723,-0.2461306532663317,0.19890068652103057
0.7487437185929648,-0.2461306532663317,0.19890068652103057
0.7663316582914572,-0.2461306532663317,0.19890068652103057
0.7839195979899498,-0.2461306532663317,0.19913748575603246
0.8015075376884422,-0.2461306532663317,0.19980267157507495
0.8190954773869346,-0.2461306532663317,0.20029926530186448
0.8366834170854272,-0.2461306532663317,0.20189549269288926
0.8542713567839195,-0.2461306532663317,0.20189549269288926
0.8718592964824121,-0.2461306532663317,0.20189549269288926
0.8894472361809045,-0.2461306532663317,0.20370957061224043
0.9070351758793969,-0.2461306532663317,0.20421415139086654
0.9246231155778895,-0.2461306532663317,0.20466229992027843
0.9422110552763818,-0.2461306532663317,0.20466229992027843
0.9597989949748744,-0.2461306532663317,0.20558739582299013
0.9773869346733668,-0.2461306532663317,0.20558739582299013
0.9949748743718594,-0.2461306532663317,0.2061502997160208
1.0125628140703518,-0.2461306532663317,0.20718279602326076
1.0301507537688441,-0.2461306532663317,0.20718279602326076
1.0477386934673367,-0.2461306532663317,0.20718279602326076
1.065326633165829,-0.2461306532663317,0.20718279602326076
1.0829145728643217,-0.2461306532663317,0.20718279602326076
1.100502512562814,-0.2461306532663317,0.20781041776569148
1.1180904522613064,-0.2461306532663317,0.20861382056004518
1.135678391959799,-0.2461306532663317,0.20861382056004518
1.1532663316582914,-0.2461306532663317,0.20777860690993158
1.170854271356784,-0.2461306532663317,0.20777860690993158
1.1884422110552764,-0.2461306532663317,0.20777860690993158
1.2060301507537687,-0.2461306532663317,0.20777860690993158
1.2236180904522613,-0.2461306532663317,0.20777860690993158
1.2412060301507537,-0.2461306532663317,0.2068338937791656
1.2587939698492463,-0.2461306532663317,0.20535007673839156
1.2763819095477387,-0.2461306532663317,0.20535007673839156
1.293969849246231,-0.2461306532663317,0.20535007673839156
1.3115577889447236,-0.2461306532663317,0.20495832914911202
1.329145728643216,-0.2461306532663317,0.2048066684313925
1.3467336683417086,-0.2461306532663317,0.2048066684313925
1.364321608040201,-0.2461306532663317,0.20434382037741233
1.3819095477386933,-0.2461306532663317,0.20434382037741233
1.399497487437186,-0.2461306532663317,0.20434382037741233
1.4170854271356783,-0.2461306532663317,0.20434382037741233
1.434673366834171,-0.2461306532663317,0.20434382037741233
1.4522613065326633,-0.2461306532663317,0.2042024248800205
1.4698492462311559,-0.2461306532663317,0.20320504625219943
1.4874371859296482,-0.2461306532663317,0.20320504625219943
1.5050251256281406,-0.2461306532663317,0.20320504625219943
1.5226130653266332,-0.2461306532663317,0.20298267073642187
1.5402010050251258,-0.2461306532663317,0.20298267073642187
1.557788944723618,-0.2461306532663317,0.20429039383008857
1.5753768844221105,-0.2461306532663317,0.20417520688124186
1.5929648241206031,-0.2461306532663317,0.2036835962988203
1.6105527638190953,-0.2461306532663317,0.20377520836440008
1.6281407035175879,-0.2461306532663317,0.20445615044831972
1.6457286432160805,-0.2461306532663317,0.2055892383377031
1.6633165829145726,-0.2461306532663317,0.20553233106260316
1.6809045226130652,-0.2461306532663317,0.20597389728559928
1.6984924623115578,-0.2461306532663317,0.20537454388876936
1.7160804020100504,-0.2461306532663317,0.20537454388876936
1.7336683417085426,-0.2461306532663317,0.20570971731563453
1.7512562814070352,-0.2461306532663317,0.20621091303694888
1.7688442211055277,-0.2461306532663317,0.20621091303694888
1.78643216080402,-0.2461306532663317,0.20621091303694888
1.8040201005025125,-0.2461306532663317,0.20621091303694888
1.821608040201005,-0.2461306532663317,0.2060849901317236
1.8391959798994977,-0.2461306532663317,0.2060849901317236
1.8567839195979898,-0.2461306532663317,0.2060849901317236
1.8743718592964824,-0.2461306532663317,0.20701197068059804
1.891959798994975,-0.2461306532663317,0.20701197068059804
1.9095477386934672,-0.2461306532663317,0.2077645736585227
1.9271356783919598,-0.2461306532663317,0.2081092728220042
1.9447236180904524,-0.2461306532663317,0.2081092728220042
1.9623115577889445,-0.2461306532663317,0.2081092728220042
1.979899497487437,-0.2461306532663317,0.20856721569632816
1.9974874371859297,-0.2461306532663317,0.20998389690898991
2.0150753768844223,-0.2461306532663317,0.20998389690898991
2.0326633165829144,-0.2461306532663317,0.20998389690898991
2.050251256281407,-0.2461306532663317,0.20998389690898991
2.0678391959798996,-0.2461306532663317,0.20998389690898991
2.0854271356783918,-0.2461306532663317,0.21002374599729529
2.1030150753768844,-0.2461306532663317,0.21022694179700302
2.120603015075377,-0.2461306532663317,0.21022694179700302
2.138190954773869,-0.2461306532663317,0.21022694179700302
2.1557788944723617,-0.2461306532663317,0.21022694179700302
2.1733668341708543,-0.2461306532663317,0.21022694179700302
2.190954773869347,-0.2461306532663317,0.21022694179700302
2.208542713567839,-0.2461306532663317,0.21022694179700302
2.2261306532663316,-0.2461306532663317,0.21022694179700302
2.2437185929648242,-0.2461306532663317,0.21022694179700302
2.2613065326633164,-0.2461306532663317,0.21022694179700302
2.278894472361809,-0.2461306532663317,0.21022694179700302
2.2964824120603016,-0.2461306532663317,0.21022694179700302
2.3140703517587937,-0.2461306532663317,0.21022694179700302
2.3316582914572863,-0.2461306532663317,0.21022694179700302
2.349246231155779,-0.2461306532663317,0.21022694179700302
2.3668341708542715,-0.2461306532663317,0.21022694179700302
2.3844221105527637,-0.2461306532663317,0.21022694179700302
2.4020100502512562,-0.2461306532663317,0.21022694179700302
2.419597989949749,-0.2461306532663317,0.21022694179700302
2.437185929648241,-0.2461306532663317,0.21022694179700302
2.4547738693467336,-0.2461306532663317,0.21022694179700302
2.472361809045226,-0.2461306532663317,0.21022694179700302
2.4899497487437188,-0.2461306532663317,0.21022694179700302
2.507537688442211,-0.2461306532663317,0.21022694179700302
2.5251256281407035,-0.2461306532663317,0.21022694179700302
2.542713567839196,-0.2461306532663317,0.21022694179700302
2.5603015075376883,-0.2461306532663317,0.21022694179700302
2.577889447236181,-0.2461306532663317,0.21022694179700302
2.5954773869346734,-0.2461306532663317,0.21022694179700302
2.6130653266331656,-0.2461306532663317,0.21022694179700302
2.630653266331658,-0.2461306532663317,0.21022694179700302
2.648241206030151,-0.2461306532663317,0.21022694179700302
2.6658291457286434,-0.2461306532663317,0.21022694179700302
2.6834170854271355,-0.2461306532663317,0.21022694179700302
2.701005025125628,-0.2461306532663317,0.21022694179700302
2.7185929648241207,-0.2461306532663317,0.21022694179700302
2.736180904522613,-0.2461306532663317,0.21022694179700302
2.7537688442211055,-0.2461306532663317,0.21022694179700302
2.771356783919598,-0.2461306532663317,0.21022694179700302
2.78894472361809,-0.2461306532663317,0.21022694179700302
2.806532663316583,-0.2461306532663317,0.21022694179700302
2.8241206030150754,-0.2461306532663317,0.21022694179700302
2.841708542713568,-0.2461306532663317,0.21022694179700302
2.85929648241206,-0.2461306532663317,0.21022694179700302
2.8768844221105527,-0.2461306532663317,0.21022694179700302
2.8944723618090453,-0.2461306532663317,0.21022694179700302
2.9120603015075375,-0.2461306532663317,0.21022694179700302
2.92964824120603,-0.2461306532663317,0.21022694179700302
2.9472361809045227,-0.2461306532663317,0.21022694179700302
2.9648241206030153,-0.2461306532663317,0.21022694179700302
2.9824120603015074,-0.2461306532663317,0.21022694179700302
3.0,-0.2461306532663317,0.21022694179700302
-0.5,-0.23135678391959805,0.20200378095214577
-0.4824120603015075,-0.23135678391959805,0.20200378095214577
-0.4648241206030151,-0.23135678391959805,0.20200378095214577
-0.4472361809045226,-0.23135678391959805,0.20200378095214577
-0.4296482412060302,-0.23135678391959805,0.20200378095214577
-0.4120603015075377,-0.23135678391959805,0.20200378095214577
-0.3944723618090452,-0.23135678391959805,0.20200378095214577
-0.37688442211055273,-0.23135678391959805,0.20200378095214577
-0.3592964824120603,-0.23135678391959805,0.20200378095214577
-0.3417085427135679,-0.23135678391959805,0.20200378095214577
-0.3241206030150754,-0.23135678391959805,0.20200378095214577
-0.3065326633165829,-0.23135678391959805,0.20200378095214577
-0.2889447236180904,-0.23135678391959805,0.20200378095214577
-0.271356783919598,-0.23135678391959805,0.20200378095214577
-0.2537688442211055,-0.23135678391959805,0.20200378095214577
-0.2361809045226131,-0.23135678391959805,0.20200378095214577
-0.2185929648241206,-0.23135678391959805,0.20200378095214577
-0.20100502512562812,-0.23135678391959805,0.20200378095214577
-0.1834170854271357,-0.23135678391959805,0.20200378095214577
-0.1658291457286432,-0.23135678391959805,0.20200378095214577
-0.14824120603015079,-0.23135678391959805,0.20200378095214577
-0.1306532663316583,-0.23135678391959805,0.20200378095214577
-0.11306532663316582,-0.23135678391959805,0.20200378095214577
-0.09547738693467339,-0.23135678391959805,0.20200378095214577
-0.07788944723618091,-0.23135678391959805,0.20200378095214577
-0.060301507537688426,-0.23135678391959805,0.20200378095214577
-0.042713567839196,-0.23135678391959805,0.20200378095214577
-0.025125628140703515,-0.23135678391959805,0.20200378095214577
-0.007537688442211032,-0.23135678391959805,0.20200378095214577
0.01005025125628145,-0.23135678391959805,0.20200378095214577
0.027638190954773822,-0.23135678391959805,0.20200378095214577
0.045226130653266305,-0.23135678391959805,0.20200378095214577
0.06281407035175879,-0.23135678391959805,0.20200378095214577
0.08040201005025127,-0.23135678391959805,0.20200378095214577
0.09798994974874375,-0.23135678391959805,0.20200378095214577
0.11557788944723613,-0.23135678391959805,0.20200378095214577
0.1331658291457286,-0.23135678391959805,0.20200378095214577
0.1507537688442211,-0.23135678391959805,0.20200378095214577
0.16834170854271358,-0.23135678391959805,0.20200378095214577
0.18592964824120606,-0.23135678391959805,0.20200378095214577
0.20351758793969843,-0.23135678391959805,0.20200378095214577
0.2211055276381909,-0.23135678391959805,0.20179806229113056
0.2386934673366834,-0.23135678391959805,0.20231690309351125
0.2562814070351759,-0.23135678391959805,0.20301151217701233
0.27386934673366836,-0.23135678391959805,0.20301151217701233
0.29145728643216084,-0.23135678391959805,0.20347524015509952
0.3090452261306532,-0.23135678391959805,0.20338900088490122
0.3266331658291457,-0.23135678391959805,0.20338900088490122
0.3442211055276382,-0.23135678391959805,0.20338900088490122
0.36180904522613067,-0.23135678391959805,0.20338900088490122
0.37939698492462315,-0.23135678391959805,0.20301863164906625
0.3969849246231155,-0.23135678391959805,0.20301863164906625
0.414572864321608,-0.23135678391959805,0.20301863164906625
0.4321608040201005,-0.23135678391959805,0.20301863164906625
0.44974874371859297,-0.23135678391959805,0.20301863164906625
0.46733668341708545,-0.23135678391959805,0.202808688177167
0.48492462311557794,-0.23135678391959805,0.20218687057772491
0.5025125628140703,-0.23135678391959805,0.20122401237074747
0.5201005025125629,-0.23135678391959805,0.20122401237074747
0.5376884422110553,-0.23135678391959805,0.20122401237074747
0.5552763819095476,-0.23135678391959805,0.20103674175129332
0.5728643216080402,-0.23135678391959805,0.20035558485863608
0.5904522613065326,-0.23135678391959805,0.2001703494379508
0.6080402010050252,-0.23135678391959805,0.20046367275610105
0.6256281407035176,-0.23135678391959805,0.20046367275610105
0.64321608040201,-0.23135678391959805,0.20046367275610105
0.6608040201005025,-0.23135678391959805,0.19976414538036613
0.6783919597989949,-0.23135678391959805,0.19976414538036613
0.6959798994974875,-0.23135678391959805,0.19890068652103057
0.7135678391959799,-0.23135678391959805,0.19890068652103057
0.7311557788944723,-0.23135678391959805,0.19890068652103057
0.7487437185929648,-0.23135678391959805,0.19890068652103057
0.7663316582914572,-0.23135678391959805,0.19890068652103057
0.7839195979899498,-0.23135678391959805,0.19913748575603246
0.8015075376884422,-0.23135678391959805,0.19980267157507495
0.8190954773869346,-0.23135678391959805,0.20029926530186448
0.8366834170854272,-0.23135678391959805,0.20189549269288926
0.8542713567839195,-0.23135678391959805,0.20189549269288926
0.8718592964824121,-0.23135678391959805,0.20189549269288926
0.8894472361809045,-0.23135678391959805,0.20370957061224043
0.9070351758793969,-0.23135678391959805,0.20421415139086654
0.9246231155778895,-0.23135678391959805,0.20466229992027843
0.9422110552763818,-0.23135678391959805,0.20466229992027843
0.9597989949748744,-0.23135678391959805,0.20558739582299013
0.9773869346733668,-0.23135678391959805,0.20558739582299013
0.9949748743718594,-0.23135678391959805,0.2061502997160208
1.0125628140703518,-0.23135678391959805,0.20718279602326076
1.0301507537688441,-0.23135678391959805,0.20718279602326076
1.0477386934673367,-0.23135678391959805,0.20718279602326076
1.065326633165829,-0.23135678391959805,0.20718279602326076
1.0829145728643217,-0.23135678391959805,0.20718279602326076
1.100502512562814,-0.23135678391959805,0.20781041776569148
1.1180904522613064,-0.23135678391959805,0.20861382056004518
1.135678391959799,-0.23135678391959805,0.20861382056004518
1.1532663316582914,-0.23135678391959805,0.20777860690993158
1.170854271356784,-0.23135678391959805,0.20777860690993158
1.1884422110552764,-0.23135678391959805,0.20777860690993158
1.2060301507537687,-0.23135678391959805,0.20777860690993158
1.2236180904522613,-0.23135678391959805,0.20777860690993158
1.2412060301507537,-0.23135678391959805,0.2068338937791656
1.2587939698492463,-0.23135678391959805,0.20535007673839156
1.2763819095477387,-0.23135678391959805,0.20535007673839156
1.293969849246231,-0.23135678391959805,0.20535007673839156
1.3115577889447236,-0.23135678391959805,0.20495832914911202
1.329145728643216,-0.23135678391959805,0.2048066684313925
1.3467336683417086,-0.23135678391959805,0.2048066684313925
1.364321608040201,-0.23135678391959805,0.20434382037741233
1.3819095477386933,-0.23135678391959805,0.20434382037741233
1.399497487437186,-0.23135678391959805,0.20434382037741233
1.4170854271356783,-0.23135678391959805,0.20434382037741233
1.434673366834171,-0.23135678391959805,0.20434382037741233
1.4522613065326633,-0.23135678391959805,0.2042024248800205
1.4698492462311559,-0.23135678391959805,0.20320504625219943
1.4874371859296482,-0.23135678391959805,0.20320504625219943
1.5050251256281406,-0.23135678391959805,0.20320504625219943
1.5226130653266332,-0.23135678391959805,0.20298267073642187
1.5402010050251258,-0.23135678391959805,0.20298267073642187
1.557788944723618,-0.23135678391959805,0.20429039383008857
1.5753768844221105,-0.23135678391959805,0.20417520688124186
1.5929648241206031,-0.23135678391959805,0.2036835962988203
1.6105527638190953,-0.23135678391959805,0.20377520836440008
1.6281407035175879,-0.23135678391959805,0.20445615044831972
1.6457286432160805,-0.23135678391959805,0.2055892383377031
1.6633165829145726,-0.23135678391959805,0.20553233106260316
1.6809045226130652,-0.23135678391959805,0.20597389728559928
1.6984924623115578,-0.23135678391959805,0.20537454388876936
1.7160804020100504,-0.23135678391959805,0.20537454388876936
1.7336683417085426,-0.23135678391959805,0.20570971731563453
1.7512562814070352,-0.23135678391959805,0.20621091303694888
1.7688442211055277,-0.23135678391959805,0.20621091303694888
1.78643216080402,-0.23135678391959805,0.20621091303694888
1.8040201005025125,-0.23135678391959805,0.20621091303694888
1.821608040201005,-0.23135678391959805,0.2060849901317236
1.8391959798994977,-0.23135678391959805,0.2060849901317236
1.8567839195979898,-0.23135678391959805,0.2060849901317236
1.8743718592964824,-0.23135678391959805,0.20701197068059804
1.891959798994975,-0.23135678391959805,0.20701197068059804
1.9095477386934672,-0.23135678391959805,0.2077645736585227
1.9271356783919598,-0.23135678391959805,0.2081092728220042
1.9447236180904524,-0.23135678391959805,0.2081092728220042
1.9623115577889445,-0.23135678391959805,0.2081092728220042
1.979899497487437,-0.23135678391959805,0.20856721569632816
1.9974874371859297,-0.23135678391959805,0.20998389690898991
2.0150753768844223,-0.23135678391959805,0.20998389690898991
2.0326633165829144,-0.23135678391959805,0.20998389690898991
2.050251256281407,-0.23135678391959805,0.20998389690898991
2.0678391959798996,-0.23135678391959805,0.20998389690898991
2.0854271356783918,-0.23135678391959805,0.21002374599729529
2.1030150753768844,-0.23135678391959805,0.21022694179700302
2.120603015075377,-0.23135678391959805,0.21022694179700302
2.138190954773869,-0.23135678391959805,0.21022694179700302
2.1557788944723617,-0.23135678391959805,0.21022694179700302
2.1733668341708543,-0.23135678391959805,0.21022694179700302
2.190954773869347,-0.23135678391959805,0.21022694179700302
2.208542713567839,-0.23135678391959805,0.21022694179700302
2.2261306532663316,-0.23135678391959805,0.21022694179700302
2.2437185929648242,-0.23135678391959805,0.21022694179700302
2.2613065326633164,-0.23135678391959805,0.21022694179700302
2.278894472361809,-0.23135678391959805,0.21022694179700302
2.2964824120603016,-0.23135678391959805,0.21022694179700302
2.3140703517587937,-0.23135678391959805,0.21022694179700302
2.3316582914572863,-0.23135678391959805,0.21022694179700302
2.349246231155779,-0.23135678391959805,0.21022694179700302
2.3668341708542715,-0.23135678391959805,0.21022694179700302
2.3844221105527637,-0.23135678391959805,0.21022694179700302
2.4020100502512562,-0.23135678391959805,0.21022694179700302
2.419597989949749,-0.23135678391959805,0.21022694179700302
2.437185929648241,-0.23135678391959805,0.21022694179700302
2.4547738693467336,-0.23135678391959805,0.21022694179700302
2.472361809045226,-0.23135678391959805,0.21022694179700302
2.4899497487437188,-0.23135678391959805,0.21022694179700302
2.507537688442211,-0.23135678391959805,0.21022694179700302
2.5251256281407035,-0.23135678391959805,0.21022694179700302
2.542713567839196,-0.23135678391959805,0.21022694179700302
2.5603015075376883,-0.23135678391959805,0.21022694179700302
2.577889447236181,-0.23135678391959805,0.21022694179700302
2.5954773869346734,-0.23135678391959805,0.21022694179700302
2.6130653266331656,-0.23135678391959805,0.21022694179700302
2.630653266331658,-0.23135678391959805,0.21022694179700302
2.648241206030151,-0.23135678391959805,0.21022694179700302
2.6658291457286434,-0.23135678391959805,0.21022694179700302
2.6834170854271355,-0.23135678391959805,0.21022694179700302
2.701005025125628,-0.23135678391959805,0.21022694179700302
2.7185929648241207,-0.23135678391959805,0.21022694179700302
2.736180904522613,-0.23135678391959805,0.21022694179700302
2.7537688442211055,-0.23135678391959805,0.21022694179700302
2.771356783919598,-0.23135678391959805,0.21022694179700302
2.78894472361809,-0.23135678391959805,0.21022694179700302
2.806532663316583,-0.23135678391959805,0.21022694179700302
2.8241206030150754,-0.23135678391959805,0.21022694179700302
2.841708542713568,-0.23135678391959805,0.21022694179700302
2.85929648241206,-0.23135678391959805,0.21022694179700302
2.8768844221105527,-0.23135678391959805,0.21022694179700302
2.8944723618090453,-0.23135678391959805,0.21022694179700302
2.9120603015075375,-0.23135678391959805,0.21022694179700302
2.92964824120603,-0.23135678391959805,0.21022694179700302
2.9472361809045227,-0.23135678391959805,0.21022694179700302
2.9648241206030153,-0.23135678391959805,0.21022694179700302
2.9824120603015074,-0.23135678391959805,0.21022694179700302
3.0,-0.23135678391959805,0.21022694179700302
-0.5,-0.21658291457286438,0.20200378095214577
-0.4824120603015075,-0.21658291457286438,0.20200378095214577
-0.4648241206030151,-0.21658291457286438,0.20200378095214577
-0.4472361809045226,-0.21658291457286438,0.20200378095214577
-0.4296482412060302,-0.21658291457286438,0.20200378095214577
-0.4120603015075377,-0.21658291457286438,0.20200378095214577
-0.3944723618090452,-0.21658291457286438,0.20200378095214577
-0.37688442211055273,-0.21658291457286438,0.20200378095214577
-0.3592964824120603,-0.21658291457286438,0.20200378095214577
-0.3417085427135679,-0.21658291457286438,0.20200378095214577
-0.3241206030150754,-0.21658291457286438,0.20200378095214577
-0.3065326633165829,-0.21658291457286438,0.20200378095214577
-0.2889447236180904,-0.21658291457286438,0.20200378095214577
-0.271356783919598,-0.21658291457286438,0.20200378095214577
-0.2537688442211055,-0.21658291457286438,0.20200378095214577
-0.2361809045226131,-0.21658291457286438,0.20200378095214577
-0.2185929648241206,-0.21658291457286438,0.20200378095214577
-0.20100502512562812,-0.21658291457286438,0.20200378095214577
-0.1834170854271357,-0.21658291457286438,0.20200378095214577
-0.1658291457286432,-0.21658291457286438,0.20200378095214577
-0.14824120603015079,-0.21658291457286438,0.20200378095214577
-0.1306532663316583,-0.21658291457286438,0.20200378095214577
-0.11306532663316582,-0.21658291457286438,0.20200378095214577
-0.09547738693467339,-0.21658291457286438,0.20200378095214577
-0.07788944723618091,-0.21658291457286438,0.20200378095214577
-0.060301507537688426,-0.21658291457286438,0.20200378095214577
-0.042713567839196,-0.21658291457286438,0.20200378095214577
-0.025125628140703515,-0.21658291457286438,0.20200378095214577
-0.007537688442211032,-0.21658291457286438,0.20200378095214577
0.01005025125628145,-0.21658291457286438,0.20200378095214577
0.027638190954773822,-0.21658291457286438,0.20200378095214577
0.045226130653266305,-0.21658291457286438,0.20200378095214577
0.06281407035175879,-0.21658291457286438,0.20200378095214577
0.08040201005025127,-0.21658291457286438,0.20200378095214577
0.09798994974874375,-0.21658291457286438,0.20200378095214577
0.11557788944723613,-0.21658291457286438,0.20200378095214577
0.1331658291457286,-0.21658291457286438,0.20200378095214577
0.1507537688442211,-0.21658291457286438,0.20200378095214577
0.16834170854271358,-0.21658291457286438,0.20200378095214577
0.18592964824120606,-0.21658291457286438,0.20200378095214577
0.20351758793969843,-0.21658291457286438,0.20200378095214577
0.2211055276381909,-0.21658291457286438,0.20179806229113056
0.2386934673366834,-0.21658291457286438,0.20231690309351125
0.2562814070351759,-0.21658291457286438,0.20301151217701233
0.27386934673366836,-0.21658291457286438,0.20301151217701233
0.29145728643216084,-0.21658291457286438,0.20347524015509952
0.3090452261306532,-0.21658291457286438,0.20338900088490122
0.3266331658291457,-0.21658291457286438,0.20338900088490122
0.3442211055276382,-0.21658291457286438,0.20338900088490122
0.36180904522613067,-0.21658291457286438,0.20338900088490122
0.37939698492462315,-0.21658291457286438,0.20301863164906625
0.3969849246231155,-0.21658291457286438,0.20301863164906625
0.414572864321608,-0.21658291457286438,0.20301863164906625
0.4321608040201005,-0.21658291457286438,0.20301863164906625
0.44974874371859297,-0.21658291457286438,0.20301863164906625
0.46733668341708545,-0.21658291457286438,0.202808688177167
0.48492462311557794,-0.21658291457286438,0.20218687057772491
0.5025125628140703,-0.21658291457286438,0.20122401237074747
0.5201005025125629,-0.21658291457286438,0.20122401237074747
0.5376884422110553,-0.21658291457286438,0.20122401237074747
0.5552763819095476,-0.21658291457286438,0.20103674175129332
0.5728643216080402,-0.21658291457286438,0.20035558485863608
0.5904522613065326,-0.21658291457286438,0.2001703494379508
0.6080402010050252,-0.21658291457286438,0.20046367275610105
0.6256281407035176,-0.21658291457286438,0.20046367275610105
0.64321608040201,-0.21658291457286438,0.20046367275610105
0.6608040201005025,-0.21658291457286438,0.19976414538036613
0.6783919597989949,-0.21658291457286438,0.19976414538036613
0.6959798994974875,-0.21658291457286438,0.19890068652103057
0.7135678391959799,-0.21658291457286438,0.19890068652103057
0.7311557788944723,-0.21658291457286438,0.19890068652103057
0.7487437185929648,-0.21658291457286438,0.19890068652103057
0.7663316582914572,-0.21658291457286438,0.19890068652103057
0.7839195979899498,-0.21658291457286438,0.19913748575603246
0.8015075376884422,-0.21658291457286438,0.19980267157507495
0.8190954773869346,-0.21658291457286438,0.20029926530186448
0.8366834170854272,-0.21658291457286438,0.20189549269288926
0.8542713567839195,-0.21658291457286438,0.20189549269288926
0.8718592964824121,-0.21658291457286438,0.20189549269288926
0.8894472361809045,-0.21658291457286438,0.20370957061224043
0.9070351758793969,-0.21658291457286438,0.20421415139086654
0.9246231155778895,-0.21658291457286438,0.20466229992027843
0.9422110552763818,-0.21658291457286438,0.20466229992027843
0.9597989949748744,-0.21658291457286438,0.20558739582299013
0.9773869346733668,-0.21658291457286438,0.20558739582299013
0.9949748743718594,-0.21658291457286438,0.2061502997160208
1.0125628140703518,-0.21658291457286438,0.20718279602326076
1.0301507537688441,-0.21658291457286438,0.20718279602326076
1.0477386934673367,-0.21658291457286438,0.20718279602326076
1.065326633165829,-0.21658291457286438,0.20718279602326076
1.0829145728643217,-0.21658291457286438,0.20718279602326076
1.100502512562814,-0.21658291457286438,0.20781041776569148
1.1180904522613064,-0.21658291457286438,0.20861382056004518
1.135678391959799,-0.21658291457286438,0.20861382056004518
1.1532663316582914,-0.21658291457286438,0.20777860690993158
1.170854271356784,-0.21658291457286438,0.20777860690993158
1.1884422110552764,-0.21658291457286438,0.20777860690993158
1.2060301507537687,-0.21658291457286438,0.20777860690993158
1.2236180904522613,-0.21658291457286438,0.20777860690993158
1.2412060301507537,-0.21658291457286438,0.2068338937791656
1.2587939698492463,-0.21658291457286438,0.20535007673839156
1.2763819095477387,-0.21658291457286438,0.20535007673839156
1.293969849246231,-0.21658291457286438,0.20535007673839156
1.3115577889447236,-0.21658291457286438,0.20495832914911202
1.329145728643216,-0.21658291457286438,0.2048066684313925
1.3467336683417086,-0.21658291457286438,0.2048066684313925
1.364321608040201,-0.21658291457286438,0.20434382037741233
1.3819095477386933,-0.21658291457286438,0.20434382037741233
1.399497487437186,-0.21658291457286438,0.20434382037741233
1.4170854271356783,-0.21658291457286438,0.20434382037741233
1.434673366834171,-0.21658291457286438,0.20434382037741233
1.4522613065326633,-0.21658291457286438,0.2042024248800205
1.4698492462311559,-0.21658291457286438,0.20320504625219943
1.4874371859296482,-0.21658291457286438,0.20320504625219943
1.5050251256281406,-0.21658291457286438,0.20320504625219943
1.5226130653266332,-0.21658291457286438,0.20298267073642187
1.5402010050251258,-0.21658291457286438,0.20298267073642187
1.557788944723618,-0.21658291457286438,0.20429039383008857
1.5753768844221105,-0.21658291457286438,0.20417520688124186
1.5929648241206031,-0.21658291457286438,0.2036835962988203
1.6105527638190953,-0.21658291457286438,0.20377520836440008
1.6281407035175879,-0.21658291457286438,0.20445615044831972
1.6457286432160805,-0.21658291457286438,0.2055892383377031
1.6633165829145726,-0.21658291457286438,0.20553233106260316
1.6809045226130652,-0.21658291457286438,0.20597389728559928
1.6984924623115578,-0.21658291457286438,0.20537454388876936
1.7160804020100504,-0.21658291457286438,0.20537454388876936
1.7336683417085426,-0.21658291457286438,0.20570971731563453
1.7512562814070352,-0.21658291457286438,0.20621091303694888
1.7688442211055277,-0.21658291457286438,0.20621091303694888
1.78643216080402,-0.21658291457286438,0.20621091303694888
1.8040201005025125,-0.21658291457286438,0.20621091303694888
1.821608040201005,-0.21658291457286438,0.2060849901317236
1.8391959798994977,-0.21658291457286438,0.2060849901317236
1.8567839195979898,-0.21658291457286438,0.2060849901317236
1.8743718592964824,-0.21658291457286438,0.20701197068059804
1.891959798994975,-0.21658291457286438,0.20701197068059804
1.9095477386934672,-0.21658291457286438,0.2077645736585227
1.9271356783919598,-0.21658291457286438,0.2081092728220042
1.9447236180904524,-0.21658291457286438,0.2081092728220042
1.9623115577889445,-0.21658291457286438,0.2081092728220042
1.979899497487437,-0.21658291457286438,0.20856721569632816
1.9974874371859297,-0.21658291457286438,0.20998389690898991
2.0150753768844223,-0.21658291457286438,0.20998389690898991
2.0326633165829144,-0.21658291457286438,0.20998389690898991
2.050251256281407,-0.21658291457286438,0.20998389690898991
2.0678391959798996,-0.21658291457286438,0.20998389690898991
2.0854271356783918,-0.21658291457286438,0.21002374599729529
2.1030150753768844,-0.21658291457286438,0.21022694179700302
2.120603015075377,-0.21658291457286438,0.21022694179700302
2.138190954773869,-0.21658291457286438,0.21022694179700302
2.1557788944723617,-0.21658291457286438,0.21022694179700302
2.1733668341708543,-0.21658291457286438,0.21022694179700302
2.190954773869347,-0.21658291457286438,0.21022694179700302
2.208542713567839,-0.21658291457286438,0.21022694179700302
2.2261306532663316,-0.21658291457286438,0.21022694179700302
2.2437185929648242,-0.21658291457286438,0.21022694179700302
2.2613065326633164,-0.21658291457286438,0.21022694179700302
2.278894472361809,-0.21658291457286438,0.21022694179700302
2.2964824120603016,-0.21658291457286438,0.21022694179700302
2.3140703517587937,-0.21658291457286438,0.21022694179700302
2.3316582914572863,-0.21658291457286438,0.21022694179700302
2.349246231155779,-0.21658291457286438,0.21022694179700302
2.3668341708542715,-0.21658291457286438,0.21022694179700302
2.3844221105527637,-0.21658291457286438,0.21022694179700302
2.4020100502512562,-0.21658291457286438,0.21022694179700302
2.419597989949749,-0.21658291457286438,0.21022694179700302
2.437185929648241,-0.21658291457286438,0.21022694179700302
2.4547738693467336,-0.21658291457286438,0.21022694179700302
2.472361809045226,-0.21658291457286438,0.21022694179700302
2.4899497487437188,-0.21658291457286438,0.21022694179700302
2.507537688442211,-0.21658291457286438,0.21022694179700302
2.5251256281407035,-0.21658291457286438,0.21022694179700302
2.542713567839196,-0.21658291457286438,0.21022694179700302
2.5603015075376883,-0.21658291457286438,0.21022694179700302
2.577889447236181,-0.21658291457286438,0.21022694179700302
2.5954773869346734,-0.21658291457286438,0.21022694179700302
2.6130653266331656,-0.21658291457286438,0.21022694179700302
2.630653266331658,-0.21658291457286438,0.21022694179700302
2.648241206030151,-0.21658291457286438,0.21022694179700302
2.6658291457286434,-0.21658291457286438,0.21022694179700302
2.6834170854271355,-0.21658291457286438,0.21022694179700302
2.701005025125628,-0.21658291457286438,0.21022694179700302
2.7185929648241207,-0.21658291457286438,0.21022694179700302
2.736180904522613,-0.21658291457286438,0.21022694179700302
2.7537688442211055,-0.21658291457286438,0.21022694179700302
2.771356783919598,-0.21658291457286438,0.21022694179700302
2.78894472361809,-0.21658291457286438,0.21022694179700302
2.806532663316583,-0.21658291457286438,0.21022694179700302
2.8241206030150754,-0.21658291457286438,0.21022694179700302
2.841708542713568,-0.21658291457286438,0.21022694179700302
2.85929648241206,-0.21658291457286438,0.21022694179700302
2.8768844221105527,-0.21658291457286438,0.21022694179700302
2.8944723618090453,-0.21658291457286438,0.21022694179700302
2.9120603015075375,-0.21658291457286438,0.21022694179700302
2.92964824120603,-0.21658291457286438,0.21022694179700302
2.9472361809045227,-0.21658291457286438,0.21022694179700302
2.9648241206030153,-0.21658291457286438,0.21022694179700302
2.9824120603015074,-0.21658291457286438,0.21022694179700302
3.0,-0.21658291457286438,0.21022694179700302
-0.5,-0.2018090452261307,0.20200378095214577
-0.4824120603015075,-0.2018090452261307,0.20200378095214577
-0.4648241206030151,-0.2018090452261307,0.20200378095214577
-0.4472361809045226,-0.2018090452261307,0.20200378095214577
-0.4296482412060302,-0.2018090452261307,0.20200378095214577
-0.4120603015075377,-0.2018090452261307,0.20200378095214577
-0.3944723618090452,-0.2018090452261307,0.20200378095214577
-0.37688442211055273,-0.2018090452261307,0.20200378095214577
-0.3592964824120603,-0.2018090452261307,0.20200378095214577
-0.3417085427135679,-0.2018090452261307,0.20200378095214577
-0.3241206030150754,-0.2018090452261307,0.20200378095214577
-0.3065326633165829,-0.2018090452261307,0.20200378095214577
-0.2889447236180904,-0.2018090452261307,0.20200378095214577
-0.271356783919598,-0.2018090452261307,0.20200378095214577
-0.2537688442211055,-0.2018090452261307,0.20200378095214577
-0.2361809045226131,-0.2018090452261307,0.20200378095214577
-0.2185929648241206,-0.2018090452261307,0.20200378095214577
-0.20100502512562812,-0.2018090452261307,0.20200378095214577
-0.1834170854271357,-0.2018090452261307,0.20200378095214577
-0.1658291457286432,-0.2018090452261307,0.20200378095214577
-0.14824120603015079,-0.2018090452261307,0.20200378095214577
-0.1306532663316583,-0.2018090452261307,0.20200378095214577
-0.11306532663316582,-0.2018090452261307,0.20200378095214577
-0.09547738693467339,-0.2018090452261307,0.20200378095214577
-0.07788944723618091,-0.2018090452261307,0.20200378095214577
-0.060301507537688426,-0.2018090452261307,0.20200378095214577
-0.042713567839196,-0.2018090452261307,0.20200378095214577
-0.025125628140703515,-0.2018090452261307,0.20200378095214577
-0.007537688442211032,-0.2018090452261307,0.20200378095214577
0.01005025125628145,-0.2018090452261307,0.20200378095214577
0.027638190954773822,-0.2018090452261307,0.20200378095214577
0.045226130653266305,-0.2018090452261307,0.20200378095214577
0.06281407035175879,-0.2018090452261307,0.20200378095214577
0.08040201005025127,-0.2018090452261307,0.20200378095214577
0.09798994974874375,-0.2018090452261307,0.20200378095214577
0.11557788944723613,-0.2018090452261307,0.20200378095214577
0.1331658291457286,-0.2018090452261307,0.20200378095214577
0.1507537688442211,-0.2018090452261307,0.20200378095214577
0.16834170854271358,-0.2018090452261307,0.20200378095214577
0.18592964824120606,-0.2018090452261307,0.20200378095214577
0.20351758793969843,-0.2018090452261307,0.20200378095214577
0.2211055276381909,-0.2018090452261307,0.20179806229113056
0.2386934673366834,-0.2018090452261307,0.20231690309351125
0.2562814070351759,-0.2018090452261307,0.20301151217701233
0.27386934673366836,-0.2018090452261307,0.20301151217701233
0.29145728643216084,-0.2018090452261307,0.20347524015509952
0.3090452261306532,-0.2018090452261307,0.20338900088490122
0.3266331658291457,-0.2018090452261307,0.20338900088490122
0.3442211055276382,-0.2018090452261307,0.20338900088490122
0.36180904522613067,-0.2018090452261307,0.20338900088490122
0.37939698492462315,-0.2018090452261307,0.20301863164906625
0.3969849246231155,-0.2018090452261307,0.20301863164906625
0.414572864321608,-0.2018090452261307,0.20301863164906625
0.4321608040201005,-0.2018090452261307,0.20301863164906625
0.44974874371859297,-0.2018090452261307,0.20301863164906625
0.46733668341708545,-0.2018090452261307,0.202808688177167
0.48492462311557794,-0.2018090452261307,0.20218687057772491
0.5025125628140703,-0.2018090452261307,0.20122401237074747
0.5201005025125629,-0.2018090452261307,0.20122401237074747
0.5376884422110553,-0.2018090452261307,0.20122401237074747
0.5552763819095476,-0.2018090452261307,0.20103674175129332
0.5728643216080402,-0.2018090452261307,0.20035558485863608
0.5904522613065326,-0.2018090452261307,0.2001703494379508
0.6080402010050252,-0.2018090452261307,0.20046367275610105
0.6256281407035176,-0.2018090452261307,0.20046367275610105
0.64321608040201,-0.2018090452261307,0.20046367275610105
0.6608040201005025,-0.2018090452261307,0.19976414538036613
0.6783919597989949,-0.2018090452261307,0.19976414538036613
0.6959798994974875,-0.2018090452261307,0.19890068652103057
0.7135678391959799,-0.2018090452261307,0.19890068652103057
0.7311557788944723,-0.2018090452261307,0.19890068652103057
0.7487437185929648,-0.2018090452261307,0.19890068652103057
0.7663316582914572,-0.2018090452261307,0.19890068652103057
0.7839195979899498,-0.2018090452261307,0.19913748575603246
0.8015075376884422,-0.2018090452261307,0.19980267157507495
0.8190954773869346,-0.2018090452261307,0.20029926530186448
0.8366834170854272,-0.2018090452261307,0.20189549269288926
0.8542713567839195,-0.2018090452261307,0.20189549269288926
